ม,-0.09166043251752853,0.09038625657558441,-0.009706545621156693,-0.014449471607804298,-0.11204597353935242,-0.029923299327492714,-0.08055484294891357,-0.10748429596424103,-0.052928149700164795,0.03736582398414612,-0.09207084029912949,-0.0698109120130539,0.0009093591943383217,-0.04691959545016289,0.0022243186831474304,-0.06497064977884293,0.04576408490538597,-0.006981290876865387,0.10387933999300003,-0.035835981369018555,-0.06362985819578171,-0.08130568265914917,0.006763175129890442,0.11757192760705948,-0.11848767101764679,-0.04146585613489151,-0.0857301875948906,0.03474770858883858,-0.09965335577726364,0.006007210351526737,0.1050892323255539,0.004826482385396957,-0.03377753123641014,0.07056400924921036,0.03700465336441994,-0.029677024111151695,0.05978136509656906,0.022801781073212624,-0.07288556545972824,-0.06564955413341522,0.027201220393180847,-0.0792497992515564,0.043565988540649414,0.0694366991519928,0.09267675131559372,0.0032794824801385403,0.0977054163813591,0.010675964877009392,0.07574138790369034,0.06427456438541412,-0.0036091685760766268,0.04121293127536774,0.08001165837049484,0.04758169874548912,0.04640469327569008,-0.07681208848953247,0.07430759817361832,0.06540878117084503,0.09257721155881882,-0.08887936174869537,-0.05870423465967178,-0.003108858596533537,-0.12137489765882492,0.06049013137817383,-0.04549957811832428,-0.09578230232000351,-0.01563475839793682,0.006528970319777727
ณ,0.0934009924530983,0.0790882483124733,-0.07866398990154266,0.03923262655735016,0.0455627478659153,-0.10859302431344986,0.08987431973218918,-0.021580854430794716,0.12122727930545807,0.10107757896184921,-0.07838483899831772,0.1025046855211258,-0.022218959406018257,0.11977414041757584,0.0960855782032013,-0.09584484994411469,0.018802236765623093,0.0835387334227562,0.022422635927796364,0.05208070948719978,-0.023973682895302773,-0.06848881393671036,-0.1183934360742569,0.0462019145488739,-0.036917079240083694,-0.03901832923293114,0.10626605898141861,-0.09421957284212112,-0.013242646120488644,0.00545142125338316,-0.04672674462199211,0.0005267977248877287,0.0003660959773696959,0.11949855089187622,0.0793105810880661,0.061348605901002884,-0.01880136877298355,-0.07339393347501755,0.0462198406457901,-0.09742533415555954,-0.057886119931936264,0.04219428077340126,0.12370149791240692,-0.06950338184833527,-0.10273563116788864,0.07316329330205917,-0.12186936289072037,-0.07319698482751846,-0.0034873178228735924,-0.023485606536269188,0.07528829574584961,-0.06392652541399002,0.09905296564102173,0.0536721870303154,0.10336479544639587,0.0600639209151268,-0.1042928621172905,0.01060668658465147,0.007755774073302746,-0.032776497304439545,-0.03877165913581848,0.11393124610185623,0.10393830388784409,0.06393446773290634,0.08107887208461761,0.04148193076252937,-0.03379486873745918,-0.08690473437309265
น,-0.0038337656296789646,-0.050697267055511475,-0.09914001077413559,-0.044336769729852676,0.022527435794472694,0.048420898616313934,0.07083101570606232,0.022342097014188766,0.11336139589548111,-0.0063817002810537815,0.049874626100063324,-0.11434021592140198,0.02932867966592312,0.08521763980388641,-0.05796826630830765,0.09286496043205261,0.06972911208868027,0.10261102020740509,0.11729423701763153,-0.028991440311074257,-0.04689714312553406,-0.08641781657934189,-0.06294089555740356,0.07836737483739853,0.04579527676105499,-0.01783381588757038,-0.057864125818014145,-0.11101946234703064,-0.09456869959831238,-0.07177185267210007,0.04940686747431755,0.04244958236813545,0.12001347541809082,-0.00574203347787261,0.03622838109731674,0.11156587302684784,0.048161983489990234,0.1068553775548935,-0.026855800300836563,-0.07803399860858917,0.009524991735816002,0.03086310811340809,0.09867388010025024,-0.07618313282728195,-0.0690096840262413,0.022055385634303093,0.05203446000814438,-0.016242440789937973,0.014607029035687447,-0.055830277502536774,0.08861372619867325,0.10575234889984131,-0.05587984248995781,0.021845143288373947,0.060225486755371094,-0.0788755863904953,-0.033633507788181305,0.08510388433933258,-0.07367260009050369,-0.06565037369728088,0.03989775851368904,-0.06864400953054428,-0.11183595657348633,0.04307591915130615,-0.09003157168626785,-0.039388157427310944,0.07184156030416489,0.09288759529590607
ง,0.03659035265445709,-0.046221546828746796,-0.060236625373363495,0.0832909494638443,0.042202599346637726,0.11442011594772339,-0.01226441003382206,0.05358465760946274,-0.09847170114517212,0.0937085673213005,0.0826852023601532,0.04788558557629585,-0.12252295762300491,0.025188351050019264,-0.11971446126699448,0.0979294404387474,-0.05603818967938423,0.017091553658246994,-0.06336789578199387,-0.006588866002857685,-0.12205611169338226,0.0019703202415257692,0.10115677863359451,0.08837736397981644,-0.04193872585892677,0.017537187784910202,-0.030463924631476402,-0.1078212633728981,-0.10842423141002655,-0.07950618863105774,-0.035753682255744934,0.11193042993545532,0.017246786504983902,-0.05225782096385956,0.06045639142394066,-0.0925222858786583,-0.06718645989894867,-0.03439153730869293,0.021050548180937767,0.10249528288841248,0.10238643735647202,0.02043597772717476,-0.05922982096672058,-0.04844756796956062,0.0811840370297432,0.026570113375782967,-0.02566291019320488,-0.0674842894077301,-0.042417820543050766,0.10262108594179153,0.014161759056150913,-0.021765701472759247,-0.08750656247138977,0.054817892611026764,-0.021187063306570053,0.09210757911205292,0.01054179947823286,0.116900235414505,0.09794297069311142,-0.0226735956966877,-0.10010194778442383,-0.07954266667366028,-0.00015525400522165,0.05605781823396683,0.006573439575731754,-0.03330390155315399,-0.0692729651927948,-0.09703919291496277
ผ,0.01123848743736744,0.07698757946491241,0.10277348756790161,0.09133227169513702,0.023987045511603355,-0.05763063207268715,0.050232138484716415,-0.12225311994552612,0.08379725366830826,-0.05694412440061569,-0.08733318746089935,0.05670321732759476,-0.09821458905935287,0.08516581356525421,-0.0893247053027153,0.027327535673975945,-0.10380145907402039,0.000476499495562166,0.1110607236623764,0.10546308755874634,-0.05659661069512367,-0.10887298732995987,-0.07087180018424988,0.03262026235461235,-0.11163068562746048,0.05413474515080452,0.1120457872748375,-0.02532745897769928,-0.021120240911841393,0.0062776971608400345,-0.04249425232410431,0.11907235532999039,0.07232408970594406,0.1124127134680748,0.09027354419231415,-0.1049521192908287,-0.09821417927742004,-0.10403952747583389,-0.009438158944249153,-0.10295721888542175,-0.10510265082120895,0.08151570707559586,0.02494482696056366,-0.11620595306158066,-0.07328732311725616,0.12172794342041016,0.06372880935668945,-0.05951888859272003,-0.027898399159312248,0.023211810737848282,-0.09273894876241684,-0.08679359406232834,0.11643124371767044,0.039743322879076004,0.007885153405368328,0.05198706313967705,0.016115140169858932,-0.0697505921125412,0.026670731604099274,-0.07300854474306107,0.08626478910446167,0.08818595856428146,-0.07078060507774353,0.09263333678245544,0.04062497988343239,0.12396156787872314,-0.03339947760105133,0.06549309939146042
พ,0.013809514231979847,-0.058909591287374496,0.11818532645702362,0.10384214669466019,0.11423999816179276,0.08596933633089066,-0.054782651364803314,0.027927083894610405,-0.11529118567705154,-0.023009927943348885,0.10182024538516998,0.032414376735687256,0.01334315724670887,-0.012591040693223476,-0.04461706802248955,0.011075171642005444,-0.09953664988279343,0.044104766100645065,-0.08997821807861328,0.013387970626354218,0.09994756430387497,-0.1106337159872055,-0.11046433448791504,-0.0415215939283371,0.03399943932890892,0.05566062778234482,0.09102778881788254,0.029347920790314674,0.0641908198595047,-0.05751325562596321,0.09216538071632385,-0.11097706854343414,0.03960295021533966,0.021814217790961266,0.03876655548810959,0.018212534487247467,0.027727549895644188,0.016599541530013084,-0.1116308867931366,-0.07158219069242477,0.09523322433233261,-0.08693058043718338,-0.0827091708779335,-0.032906901091337204,0.11571434885263443,-0.030867625027894974,-0.1185927465558052,0.08021524548530579,0.11741669476032257,-0.09576688706874847,0.12016415596008301,-0.0178816020488739,0.0618622787296772,-0.012849025428295135,0.04793182387948036,0.10475719720125198,-0.0866013765335083,-0.10658656060695648,-0.010730539448559284,0.06916528940200806,0.000537246756721288,0.09705709666013718,0.10830937325954437,-0.05478018522262573,-0.05261605605483055,0.04346412420272827,0.10591768473386765,-0.07077870517969131
ภ,0.022614967077970505,0.058164626359939575,0.054848380386829376,0.08588257431983948,0.04162218049168587,0.07121368497610092,0.0027093435637652874,-0.03639847785234451,-0.06753399968147278,-0.08760284632444382,0.07259704917669296,-0.095072902739048,-0.08227432519197464,-0.01299973763525486,-0.06529191136360168,0.03720495104789734,-0.060778211802244186,-0.011893249116837978,0.09196566045284271,0.08684147894382477,-0.054280124604701996,0.06712434440851212,0.05162893235683441,0.01117389090359211,0.05800081416964531,-0.010641684755682945,0.02109703980386257,-0.012458235025405884,-0.055558331310749054,-0.0606609582901001,-0.061486147344112396,0.03542141243815422,-0.04552599415183067,-0.02742665447294712,0.022869806736707687,-0.0716867595911026,-0.06830054521560669,0.04117509722709656,-0.02397063560783863,-0.09994640201330185,-0.004770737141370773,-0.08337089419364929,-0.06813467293977737,-0.038135550916194916,-0.01891797035932541,0.05202493816614151,-0.05441778525710106,-0.11921409517526627,0.023392023518681526,-0.06984561681747437,-0.05665496364235878,-0.015258372761309147,-0.09829509258270264,0.022350359708070755,0.05544177442789078,-0.03021794930100441,0.014490040950477123,0.03277941420674324,0.08262073993682861,0.03932102397084236,-0.08627450466156006,0.03199135512113571,-0.07051476836204529,0.06735358387231827,-0.024387305602431297,0.0286635123193264,-0.04137808084487915,-0.10924725234508514
ป,-0.0009861424332484603,0.06856230646371841,-0.0926046147942543,-0.10409829020500183,-0.09578444808721542,-0.050005946308374405,-0.04364677518606186,0.029534192755818367,0.07759825885295868,0.08656385540962219,-0.09018151462078094,-0.020759260281920433,0.11265243589878082,0.020589010789990425,-0.009998866356909275,0.06256105750799179,-0.07169550657272339,0.06660102307796478,0.03724903240799904,0.045117009431123734,-0.03958502039313316,-0.030120685696601868,0.011338532902300358,-0.026315107941627502,-0.09086435288190842,0.04954085126519203,-0.11254844814538956,-0.009279895573854446,0.0021845039445906878,0.08835360407829285,-0.0026041013188660145,-0.11990366876125336,0.06376073509454727,0.07123403996229172,-0.11045026779174805,-0.0182182714343071,0.015309125185012817,-0.05458569526672363,-0.02809630148112774,0.09375642240047455,0.062040090560913086,0.006170129403471947,0.099877268075943,-0.00882561132311821,0.11154107004404068,-0.05900723114609718,0.057324282824993134,0.025820497423410416,-0.05895870923995972,0.11356457322835922,0.09793533384799957,-0.11375327408313751,0.031034812331199646,0.00705680949613452,-0.07086070626974106,-0.08625345677137375,-0.11722263693809509,-0.10404981672763824,-0.022614233195781708,-0.06520740687847137,-0.11481839418411255,-0.08654691278934479,0.05114666745066643,0.11297732591629028,0.11884952336549759,-0.06149887293577194,-0.09570854157209396,-0.04410487040877342
บ,-0.020658431574702263,-0.10436780750751495,-0.004119589924812317,0.07514967769384384,-0.038260769098997116,-0.06951551139354706,-0.08792451024055481,0.05310571938753128,-0.07128111273050308,0.01685258559882641,-0.05440283939242363,-0.058855507522821426,-0.08743472397327423,0.07372120022773743,0.007801346015185118,-0.0037814693059772253,-0.014822357334196568,0.0650017186999321,0.003045875346288085,0.07522138208150864,-0.023828061297535896,-0.014582027681171894,0.05796140804886818,-0.09788303822278976,0.026095937937498093,0.03861331194639206,-0.08712349086999893,-0.08996877819299698,-0.07424882054328918,0.007916897535324097,-0.07848703861236572,-0.0626605972647667,-0.10001462697982788,0.10351351648569107,-0.024990547448396683,-0.08127894252538681,0.10711447894573212,-0.07244312018156052,-0.00971999391913414,-0.05710930749773979,-0.013555440120398998,0.11894075572490692,0.048916175961494446,-0.07084184885025024,-0.006683771964162588,0.07350489497184753,0.06802164763212204,0.016800206154584885,0.08238142728805542,0.09833943098783493,0.09062541276216507,0.08521220088005066,-0.029664229601621628,0.013336727395653725,-0.02013971097767353,-0.07375410199165344,-0.04684028774499893,-0.017870472744107246,0.026488248258829117,-0.014683390967547894,0.022488471120595932,-0.05599576607346535,-0.036383479833602905,0.10626000165939331,0.04501940310001373,-0.11728794127702713,0.0001751371455611661,-0.020549092441797256
ฐ,0.014335494488477707,0.049977533519268036,-0.0630008727312088,-0.010370559990406036,0.05667605623602867,0.04393529146909714,-0.09171934425830841,0.10742799192667007,0.08929313719272614,0.038040660321712494,0.09045997262001038,-0.12129215151071548,0.06069355830550194,0.08608367294073105,0.0012484403559938073,0.08768901973962784,-0.005794437602162361,-0.12060181796550751,0.10492932796478271,-0.1102776974439621,-0.021399326622486115,-0.06140085682272911,0.02504609152674675,-0.08136638253927231,0.10320328921079636,0.020814429968595505,-0.016658753156661987,-0.10153372585773468,-0.10359592735767365,-0.04845747724175453,-0.005262952297925949,-0.042665209621191025,0.07382798194885254,0.007762836758047342,0.006785653065890074,0.02543208934366703,-0.10862273722887039,-0.000370136636774987,0.009549537673592567,-0.11691403388977051,-0.016991019248962402,-0.093228779733181,0.0627896711230278,-0.04123698174953461,-0.051757168024778366,-0.006763530429452658,0.06837216019630432,0.02679367922246456,-0.0027660152409225702,0.11029911786317825,0.013060917146503925,-0.07219511270523071,0.04574902355670929,0.11832991242408752,-0.07338724285364151,0.07707684487104416,-0.042863354086875916,0.11685969680547714,0.1147533655166626,-0.05683092027902603,-0.06262639164924622,-0.08913048356771469,0.11759604513645172,0.11420968919992447,-0.11124825477600098,0.08475229144096375,0.08592851459980011,0.08586469292640686
ถ,-0.08890754729509354,0.06250607967376709,0.06418487429618835,0.034323181957006454,-0.029243813827633858,-0.07768914103507996,-0.003815420437604189,0.08582988381385803,-0.08495635539293289,-0.07053574919700623,-0.023641515523195267,-0.08367563039064407,-0.07579419016838074,0.09854535013437271,0.1049867644906044,0.06342893093824387,-0.05495228245854378,-0.08560185879468918,-0.07360068708658218,0.021263230592012405,-0.02106868289411068,0.11216918379068375,-0.10903684794902802,-0.06346910446882248,-0.017522847279906273,0.08587782829999924,-0.08553551137447357,-0.036036379635334015,-0.01965152472257614,-0.028121164068579674,0.10018552839756012,0.0802050456404686,-0.0666746273636818,-0.04015110433101654,-0.0028661557007580996,-0.01780189387500286,0.0403776690363884,0.06346415728330612,0.09093005210161209,0.10222899913787842,0.0033662435598671436,-0.12287300825119019,0.08530879765748978,-0.057004164904356,0.016964809969067574,-0.000646469125058502,0.03881198167800903,0.036561645567417145,0.03225038945674896,-0.10901059955358505,0.11706294119358063,0.08523785322904587,-0.0700124055147171,-0.05805515497922897,0.06283599138259888,-0.028770409524440765,-0.11839193105697632,0.10036689043045044,0.00041363504715263844,-0.10495185852050781,0.07355955243110657,0.07404305785894394,-0.03743434697389603,-0.03889726847410202,-0.07100602984428406,-0.048739876598119736,0.01114071998745203,-0.11029701679944992
ฑ,-0.07150854170322418,0.09521366655826569,0.0018045913893729448,-0.03869175165891647,-0.07943449914455414,-0.0026047599967569113,0.10639346390962601,-0.01049884594976902,0.03797953203320503,0.08895203471183777,-0.035159651190042496,0.07393810898065567,-0.019872618839144707,0.07453075051307678,0.11910378187894821,0.06697624176740646,-0.12371290475130081,-0.039816293865442276,0.054398298263549805,-0.04703671112656593,0.06681742519140244,-0.06751005351543427,0.11235423386096954,0.10990539193153381,0.015588222071528435,-0.003111917292699218,0.08031909167766571,0.038163214921951294,-0.034890398383140564,0.05711355432868004,0.0431651696562767,0.057281993329524994,-0.007331423461437225,-0.05685257166624069,-0.12273288518190384,0.07781296223402023,-0.0611586831510067,0.11063914746046066,-0.07027098536491394,-0.07951775193214417,0.1093539223074913,0.08100704103708267,0.0884132981300354,0.03533968701958656,-0.05399078503251076,-0.04219372943043709,-0.12260967493057251,-0.05731148645281792,-0.035511571913957596,-0.09922255575656891,-0.10983170568943024,-0.04986537620425224,-0.050728388130664825,-0.07681654393672943,-0.008767149411141872,-0.0077753798104822636,-0.06158249080181122,0.10059512406587601,0.07054448127746582,0.052526358515024185,0.06849206238985062,-0.07509440928697586,-0.05172954127192497,0.08667876571416855,0.08802183717489243,0.030550723895430565,0.025969039648771286,0.020948294550180435
ฒ,0.08652433007955551,0.04089618846774101,0.10458704829216003,0.036960769444704056,0.05170517414808273,0.07174950838088989,0.041919294744729996,0.05668184906244278,0.07473410665988922,-0.0781635195016861,0.029321618378162384,0.08558519184589386,0.08029531687498093,-0.11813557893037796,-0.027607135474681854,-0.06454648077487946,-0.12215182185173035,-0.011735762469470501,-0.10843837261199951,-0.08185865730047226,0.029141811653971672,-0.07872866094112396,-0.04615483805537224,0.06220367178320885,0.030845139175653458,0.03317830339074135,0.036452800035476685,0.03218263015151024,-0.002032577060163021,0.012182681821286678,0.007077495101839304,-0.10876578837633133,0.09481516480445862,0.1149439588189125,-0.10663429647684097,-0.08338263630867004,-0.09203537553548813,-0.038694631308317184,0.08539624512195587,-0.012803198769688606,0.0753793939948082,0.02546093612909317,0.11776144057512283,0.010546603240072727,0.023795275017619133,0.08283230662345886,0.035848088562488556,0.0008282423950731754,-0.059888772666454315,-0.09762085229158401,-0.0030417251400649548,0.08956790715456009,0.01779133640229702,-0.01035382505506277,0.08517295122146606,-0.11068423092365265,-0.005827696993947029,0.01870688796043396,-0.08872925490140915,-0.11052445322275162,-0.021000094711780548,-0.02387702278792858,-0.08059670776128769,0.0486624650657177,-0.11387018114328384,-0.09997687488794327,-0.07042589783668518,0.09929349273443222
ท,-0.08620902895927429,0.10897716879844666,0.002193545224145055,0.0928703099489212,-0.062469858676195145,0.08753787726163864,0.08113668113946915,-0.09786362946033478,0.04752505570650101,-0.051803331822156906,-0.03562985360622406,0.09815073758363724,-0.0927545502781868,-0.004451522137969732,-0.021738402545452118,0.009630243293941021,0.06603610515594482,0.06853037327528,-0.10725977271795273,-0.1002640351653099,0.02498207800090313,-0.08656508475542068,-0.03459800407290459,0.015536180697381496,0.05367697402834892,0.0524480901658535,0.05554414168000221,0.01133418083190918,0.04778387397527695,-0.018057266250252724,-0.03411156311631203,0.01664452999830246,0.07612191140651703,-0.028610538691282272,-0.11360129714012146,0.055961135774850845,0.02229616604745388,-0.005641063209623098,0.05349431186914444,-0.08837081491947174,-0.021594267338514328,-0.046888988465070724,0.02103031985461712,0.08500710874795914,0.11525078117847443,0.052711695432662964,-0.0773792415857315,-0.11074148118495941,-0.09424585103988647,0.06380299478769302,0.05619581788778305,-0.05806732550263405,0.046319346874952316,-0.10703720897436142,0.10465531051158905,0.031188342720270157,-0.0011385626858100295,-0.10355868190526962,-0.13295422494411469,0.11296369880437851,-0.025458164513111115,0.0793619453907013,-0.09330344200134277,0.07689263671636581,-0.05565139651298523,0.09893491119146347,-0.12011466920375824,-0.044535111635923386
ธ,-0.030307238921523094,0.017046993598341942,-0.06680380553007126,-0.05420159548521042,-0.10684091597795486,0.012291137129068375,-0.12248518317937851,-0.11699693650007248,0.0511825866997242,0.027267949655652046,0.05055082216858864,0.004568544216454029,-0.04407690465450287,0.02942819893360138,-0.09727181494235992,0.05258234962821007,-0.009201203472912312,-0.06143367663025856,0.04735793545842171,0.07004501670598984,-0.07793018966913223,0.0319499745965004,0.1088673397898674,0.03195468336343765,-0.0925743356347084,0.07544107735157013,-0.048211414366960526,0.045819241553545,0.08682817965745926,0.046408139169216156,0.11370497941970825,-0.04931357502937317,0.10876547545194626,0.0335865244269371,0.05075976997613907,-0.10385409742593765,0.040940046310424805,-0.10480494797229767,0.03650684282183647,-0.06396982818841934,-0.10707347840070724,-0.08141959458589554,-0.09216383099555969,-0.08206301927566528,-0.0972791314125061,-0.09249679744243622,-0.03580906614661217,-0.04922910034656525,0.09158796072006226,0.04611331969499588,0.10872376710176468,-0.011815627105534077,-0.11137529462575912,0.05985063314437866,0.019477738067507744,-0.06002737581729889,-0.007185389753431082,0.09706725925207138,-0.05958767235279083,0.005256470292806625,0.035928890109062195,0.024320630356669426,0.02639079838991165,-0.04629744216799736,-0.008562246337532997,0.09148780256509781,0.04931832104921341,0.11356677860021591
ฏ,-0.08584462851285934,0.061011042445898056,-0.03233751654624939,0.028771137818694115,0.020107654854655266,-0.044788382947444916,0.11590903997421265,0.08168508112430573,0.06724018603563309,-0.028259234502911568,0.08817749470472336,-0.04951506480574608,-0.08240482956171036,0.10390786081552505,-0.04745511710643768,0.012074701488018036,-0.0693264976143837,-0.121372751891613,0.08845654129981995,-0.05591016262769699,-0.06671398878097534,-0.05502241104841232,0.10180176794528961,-0.055015791207551956,0.0605158656835556,0.09116532653570175,-0.018675025552511215,-0.037886448204517365,-0.09062924236059189,0.10526005923748016,-0.07270665466785431,0.0359211340546608,0.0024754346814006567,0.11012667417526245,0.025888975709676743,0.11411259323358536,0.04218028485774994,0.012660848908126354,-0.03826469928026199,-0.09183060377836227,0.0735984742641449,0.09268015623092651,-0.05404100939631462,0.10793417692184448,0.01385672390460968,-0.018983617424964905,-0.002051573945209384,-0.04151388257741928,-0.027539949864149094,-0.04601471871137619,-0.08534180372953415,0.04504689574241638,-0.0016576768830418587,-0.014906549826264381,-0.06612076610326767,-0.10574965924024582,0.04832987114787102,-0.01934150606393814,-0.028592124581336975,-0.01780823990702629,-0.10588160902261734,0.01889715902507305,-0.07524140179157257,-0.08482328802347183,0.006707158870995045,-0.03905187174677849,0.1209540143609047,0.05838179960846901
ต,-0.08224377036094666,0.08473246544599533,-0.043561361730098724,0.09936611354351044,-0.043631091713905334,0.09278043359518051,0.02502128854393959,-0.04960508272051811,-0.1162395030260086,-0.08106142282485962,-0.02234072983264923,-0.07973838597536087,0.10768871009349823,-0.0686810314655304,-0.010078014805912971,-0.02747771516442299,-0.023607876151800156,-0.0998900756239891,-0.04526017978787422,0.006600458640605211,0.07836055010557175,0.019517838954925537,-0.08680262416601181,-0.03227899223566055,0.03290076553821564,-0.11006538569927216,-0.002007065573707223,0.07305426895618439,-0.09364645183086395,-0.03819639980792999,0.012636963278055191,0.07363622635602951,-0.09462662786245346,-0.02762141078710556,0.1165878176689148,-0.04943374916911125,0.05960375443100929,0.04013514146208763,-0.05620720237493515,0.027904316782951355,0.10119430720806122,-0.04154622554779053,0.00591671047732234,0.04011956602334976,-0.04482866823673248,-0.10348650068044662,0.003164224559441209,0.10486535727977753,0.07861287146806717,0.050397664308547974,0.09875628352165222,-0.05579741671681404,0.0019149642903357744,-0.0042702932842075825,-0.12153234332799911,0.005137342493981123,-0.12183422595262527,-0.08747511357069016,0.08525977283716202,0.002108265645802021,0.11475048214197159,-0.10001732409000397,-0.05670255422592163,-0.10089442133903503,-0.06755800545215607,-0.05508442968130112,-0.07731254398822784,-0.07112609595060349
ฎ,0.04449880123138428,-0.06554082036018372,-0.0938611850142479,-0.061629604548215866,-0.06476882845163345,0.09305430203676224,-0.08256743848323822,-0.09168828278779984,-0.022892894223332405,-0.09187348186969757,-0.018282921984791756,-0.06950795650482178,-0.09248160570859909,0.09797420352697372,0.09214509278535843,0.04010869190096855,-0.056733205914497375,-0.022433875128626823,0.02827819623053074,-0.02221337892115116,0.11818943172693253,0.07334835827350616,-0.03886858746409416,0.08098044991493225,0.07681035995483398,0.06328066438436508,-0.04416828230023384,0.05123439058661461,-0.10069692879915237,0.024500906467437744,0.02469256892800331,0.09310630708932877,0.048878274857997894,0.07439956068992615,0.04938647896051407,0.050237931311130524,0.01598765328526497,0.027949467301368713,0.11134692281484604,-0.12143545597791672,-0.002264290815219283,0.0009035432594828308,-0.10084597021341324,0.0753655806183815,0.12136156857013702,0.024490972980856895,0.05534214898943901,0.013376867398619652,-0.09389054030179977,0.09632374346256256,0.045994020998477936,-0.11833567172288895,0.04617481678724289,0.032881591469049454,0.02302675135433674,-0.1082332581281662,-0.08841222524642944,-0.042090293020009995,-0.09981831163167953,-0.03590264543890953,-0.0245722196996212,-0.030378831550478935,-0.019820084795355797,0.07827632874250412,-0.023514559492468834,-0.029489515349268913,-0.014375424012541771,0.04802117869257927
ด,0.030054515227675438,0.0663735419511795,0.0041578346863389015,-0.09912911802530289,0.08042174577713013,-0.03050045296549797,0.1002010703086853,0.05912793427705765,0.10710184276103973,0.1146320179104805,-0.05829156935214996,-0.020772825926542282,-0.03858453780412674,-0.014677105471491814,0.012539740651845932,-0.07711662352085114,-0.014625436626374722,-0.05260365083813667,-0.10969894379377365,-0.10062742978334427,0.11693326383829117,0.0728020966053009,-0.05215711146593094,-0.03269015625119209,-0.01871488429605961,-0.10823596268892288,0.10628832131624222,-0.05050545558333397,0.06636107712984085,0.10977383702993393,-0.051041316241025925,0.08488398790359497,-0.050755955278873444,0.04801364243030548,0.09329548478126526,-0.018069643527269363,-0.07107913494110107,0.038879625499248505,0.05524781718850136,-0.11518514156341553,-0.001881730160675943,-0.0225484948605299,0.027773374691605568,0.0954262837767601,-0.06705424934625626,0.004995957016944885,-0.03496673330664635,0.05124097317457199,-0.12323655188083649,0.04372619464993477,0.09805037081241608,0.038303349167108536,-0.06556376069784164,0.07966174930334091,0.0046906853094697,-0.005133683327585459,-0.061230599880218506,-0.09576065838336945,-0.08161269128322601,-0.013124584220349789,-0.008756781928241253,0.11916632205247879,-0.09100471436977386,-0.004543287679553032,0.02775561437010765,-0.0729476660490036,-0.02217951789498329,-0.04369252547621727
ข,0.06323666870594025,-0.060776859521865845,-0.002165931509807706,-0.004973754286766052,-0.05522335693240166,-0.10848227888345718,-0.11110226809978485,-0.1073111966252327,0.04867228493094444,0.10535062849521637,-0.050418976694345474,0.09993604570627213,0.03939661383628845,0.06802381575107574,0.032365862280130386,0.007942275144159794,0.10079200565814972,0.02157430350780487,-0.03241831064224243,-0.10079137980937958,-0.04150184616446495,0.0011544586159288883,0.002815777203068137,-0.10255560278892517,0.11689475178718567,0.036840565502643585,0.07739611715078354,0.1071835532784462,-0.11339244991540909,0.08043443411588669,-0.07138243317604065,0.04360680282115936,0.03376677259802818,0.0991971343755722,-0.09297008812427521,-0.08461624383926392,-0.10902322828769684,0.056423138827085495,-0.08082079887390137,-0.024531040340662003,0.053104646503925323,0.01585695706307888,0.04631313309073448,-0.032210174947977066,-0.002640851540490985,-0.11841197311878204,0.020151441916823387,-0.11411306262016296,-0.09591016918420792,0.09013612568378448,-0.06529007107019424,-0.07319175451993942,-0.001793749863281846,-0.005594126880168915,-0.02517412044107914,-0.07926003634929657,-0.04600062221288681,-0.039224620908498764,0.09749096632003784,-0.08909644186496735,0.11226990818977356,0.07520817220211029,0.11844625324010849,-0.05465741455554962,-0.0812874585390091,0.12019851058721542,-0.046006422489881516,0.1102924719452858
ฃ,0.02715453878045082,0.05063571780920029,0.07974386215209961,-0.06699344515800476,0.058339908719062805,-0.12360930442810059,-0.0006069100927561522,-0.005057824309915304,0.007378913462162018,-0.007294689305126667,0.03383660316467285,0.06428288668394089,-0.028014343231916428,0.02029498852789402,0.04452760890126228,0.07545164972543716,0.12379743903875351,0.04066929966211319,0.035274751484394073,-0.05479099974036217,-0.04080710932612419,-0.0836370512843132,-0.1148969903588295,-0.07242603600025177,-0.030758734792470932,0.07023636996746063,-0.1060744971036911,0.041954703629016876,-0.013764331117272377,-0.11059672385454178,0.09582903236150742,-0.10917844623327255,-0.008270110003650188,-0.006774335168302059,-0.011700190603733063,-0.11689770966768265,0.02158059924840927,-0.05306623876094818,0.04797423630952835,-0.08806188404560089,0.005573582369834185,0.042923156172037125,0.018284250050783157,0.029964987188577652,-0.056200847029685974,0.0015806670999154449,0.005244304426014423,0.03652076795697212,-0.09788423776626587,-0.09434165805578232,0.07857851684093475,0.052910152822732925,0.11540818959474564,0.06936230510473251,-0.09116409718990326,-0.07213179022073746,-0.0645100325345993,-0.017704404890537262,-0.045866843312978745,0.004454059526324272,0.046294230967760086,0.10435011982917786,-0.03079453483223915,-0.048430755734443665,-0.07630637288093567,-0.10144983232021332,-0.059731367975473404,0.04145670682191849
ค,0.0438644215464592,-0.029322385787963867,0.10791447013616562,0.06158789247274399,0.04812708497047424,-0.0189620740711689,-0.06473903357982635,0.11647482216358185,0.037010692059993744,0.10791096836328506,-0.06870495527982712,0.1098870187997818,-0.08167144656181335,-0.016903281211853027,0.0811195820569992,0.03503452241420746,0.008445040322840214,0.004848037846386433,0.046692606061697006,-0.020939456298947334,-0.09233465790748596,0.0224609337747097,0.007174393627792597,-0.10382955521345139,0.09953055530786514,-0.017787141725420952,-0.07021479308605194,0.09496290981769562,0.0789484903216362,0.00016397378931287676,0.10483422875404358,-0.04584662243723869,0.03427718207240105,0.09784919023513794,-0.10253360122442245,0.08703688532114029,0.01658373512327671,0.08870640397071838,0.09074564278125763,0.1122429147362709,0.09375131130218506,0.09984667599201202,0.09563376009464264,0.07720881700515747,0.03363288566470146,0.12524577975273132,0.026981696486473083,-0.12099423259496689,-0.008355868048965931,0.06707552820444107,0.08438556641340256,-0.11666397005319595,-0.027747616171836853,0.028004378080368042,-0.02309199422597885,-0.08170772343873978,0.09142258763313293,-0.07228996604681015,-0.005800329148769379,-0.05985019728541374,-0.07804567366838455,0.05752572789788246,0.050948332995176315,-0.04460017383098602,-0.0817069485783577,0.00803310051560402,-0.04441061615943909,-0.05717524141073227
ฅ,0.04961739853024483,-0.08829233050346375,-0.006615929305553436,0.05462633818387985,0.04865875467658043,0.07370730489492416,0.07884059846401215,-0.02766946516931057,-0.09880298376083374,-0.0864415168762207,0.09756377339363098,-0.022861624136567116,-0.05455649271607399,-0.036195363849401474,-0.06410634517669678,0.006539607420563698,-0.009030903689563274,0.04961331561207771,-0.025289960205554962,0.003959834109991789,-0.10593682527542114,-0.05245893448591232,0.015052299946546555,0.04528914764523506,-0.005875044036656618,0.004363918676972389,0.0947054773569107,-0.040498241782188416,0.0777595043182373,0.11823004484176636,-0.041735053062438965,-0.10471279174089432,-0.09446381032466888,-0.04639170318841934,0.10220474749803543,0.11196071654558182,-0.047506559640169144,-0.007276640739291906,0.0322418287396431,0.0880674347281456,-0.11373062431812286,0.026793157681822777,-0.10365992784500122,-0.01119739469140768,0.1095299944281578,0.049812741577625275,-0.0008833937463350594,0.03787115961313248,-0.019279051572084427,0.0534072145819664,0.11764945089817047,-0.12272774428129196,-0.02920425496995449,0.04695295915007591,0.07122277468442917,0.12307418137788773,0.02616194076836109,-0.04797839745879173,-0.07840796560049057,-0.08068651705980301,-0.023866040632128716,0.027214352041482925,-0.09292584657669067,0.08669938892126083,0.1152249276638031,-0.11778146773576736,-0.05588081479072571,0.026201508939266205
ฆ,-0.062206290662288666,-0.03448691964149475,0.09239929169416428,0.028119070455431938,-0.03102317452430725,0.04824691265821457,0.09182500839233398,-0.07985374331474304,-0.0642644539475441,-0.029301194474101067,0.12410807609558105,-0.03913029655814171,-0.11559148132801056,-0.08038243651390076,0.014780926518142223,0.11582711338996887,0.01924305409193039,-0.007567188702523708,-0.005236304830759764,-0.06142555549740791,0.03774934634566307,-0.010324439033865929,0.1032993495464325,0.11445584148168564,-0.0997367650270462,-0.01999865286052227,0.04938918724656105,-0.03783411532640457,-0.10479661077260971,-0.05008653923869133,0.04506775736808777,0.09239809960126877,0.005318601615726948,0.04867100343108177,0.10568714886903763,-0.12348377704620361,-0.07372231781482697,-0.025693276897072792,-0.0737876296043396,0.04556989669799805,0.10181685537099838,-0.12070192396640778,-0.09515519440174103,0.08108151704072952,0.0373358391225338,0.08651487529277802,0.037265095859766006,-0.043123893439769745,-0.026153864338994026,-0.06519947201013565,-0.10640169680118561,0.0272173210978508,0.09402528405189514,0.11865398287773132,0.09209364652633667,0.07402853667736053,0.11301282048225403,-0.017560925334692,0.07539311796426773,0.059174202382564545,0.11067064851522446,-0.06061713770031929,0.0944242998957634,-0.08959116041660309,0.04875783622264862,0.008791757747530937,-0.11131718754768372,0.08815104514360428
ก,0.04434572160243988,0.11261721700429916,0.0913529321551323,-0.02128000743687153,0.11676092445850372,0.0852813869714737,0.033096570521593094,0.11420895904302597,0.0328456312417984,0.011082850396633148,-0.09504316747188568,-0.0901377946138382,-0.060261525213718414,-0.09855951368808746,-0.09542211145162582,0.02356773428618908,-0.10382422804832458,0.09037986397743225,-0.1046922504901886,-0.05044899135828018,-0.049997229129076004,-0.09684383124113083,0.0922628864645958,0.12019754946231842,0.07535255700349808,0.015193743631243706,0.04389442503452301,-0.0553615540266037,-0.02170412428677082,-0.033266033977270126,-0.023004788905382156,0.06317107379436493,0.043705929070711136,-0.07505324482917786,-0.0037781884893774986,0.10563944280147552,0.11901610344648361,-0.06514321267604828,-0.03996948152780533,0.011922978796064854,-0.06000249460339546,-0.07803677767515182,0.06354619562625885,0.1159639060497284,-0.05518089979887009,0.07959426939487457,0.09946797043085098,0.027235720306634903,0.029038913547992706,-0.07115338742733002,0.07579420506954193,0.1161273941397667,-0.05038191005587578,0.03681594505906105,0.1160212829709053,-0.10817144066095352,-0.023754827678203583,0.015217573381960392,-0.10504766553640366,0.0063221268355846405,-0.09324630349874496,0.01519754622131586,0.10127833485603333,-0.12114710360765457,-0.009798002429306507,-0.053128957748413086,-0.10463010519742966,-0.0628306195139885
อ,0.016430428251624107,0.005352343432605267,0.08878093212842941,-0.05282928794622421,0.10537560284137726,-0.06271640211343765,-0.02589532360434532,0.09981732070446014,0.01734859310090542,-0.07722105085849762,0.09635230898857117,-0.017517326399683952,0.049470204859972,-0.08890123665332794,-0.09644657373428345,-0.019359802827239037,0.020526375621557236,-0.10959005355834961,-0.019854962825775146,-0.11008249968290329,-0.0027810095343738794,0.005612696520984173,-0.06468766182661057,-0.10026030987501144,0.10123080015182495,-0.10223295539617538,0.11646449565887451,-0.05701372027397156,0.01489640399813652,-0.006086751352995634,-0.08670348674058914,0.022057900205254555,-0.030599365010857582,-0.11681487411260605,0.024478111416101456,0.04363780468702316,0.08411472290754318,0.0006851250072941184,0.031603485345840454,-0.0036071983631700277,0.10925091803073883,-0.027603300288319588,-0.016687016934156418,-0.09890475869178772,-0.08292071521282196,0.06819507479667664,0.0054168496280908585,-0.09051606059074402,0.12862007319927216,-0.04983397200703621,0.10837758332490921,0.04772450774908066,-0.07531862705945969,0.043908607214689255,0.08693205565214157,-0.027725590392947197,0.08150722086429596,-0.02519278973340988,0.08161593973636627,-0.027026891708374023,0.06922241300344467,0.07556131482124329,-0.0699087530374527,0.011441239155828953,-0.11569035798311234,-0.008323345333337784,-0.07048593461513519,-0.07437515258789062
ร,0.04853302985429764,0.016410404816269875,0.08573542535305023,0.11491478979587555,-0.07658839225769043,0.029772954061627388,0.05860176682472229,-0.11996971815824509,0.037647370249032974,-0.0025217935908585787,-0.11938874423503876,0.08985406160354614,0.0757310688495636,-0.07592754065990448,0.03432750701904297,0.0068651349283754826,0.10377324372529984,0.08943173289299011,0.10733581334352493,-0.055879779160022736,-0.09253477305173874,-0.06976903975009918,0.07058696448802948,0.05049261450767517,-0.024032944813370705,0.06540358811616898,-0.030028052628040314,-0.029977310448884964,-0.037132248282432556,-0.11960241198539734,0.09592114388942719,0.0933118537068367,0.0668007880449295,0.03825143352150917,-0.055672537535429,0.02223372645676136,0.09548169374465942,-0.1252409666776657,0.04720824584364891,-0.10021254420280457,-0.011531596072018147,-0.023124413564801216,0.10579615831375122,-0.04253729060292244,0.010211322456598282,0.07777952402830124,-0.007642130367457867,0.07305653393268585,0.10644057393074036,-0.07743822783231735,0.09899710863828659,-0.08899242430925369,-0.018237177282571793,-0.05135950818657875,-0.014253740198910236,-0.06405043601989746,-0.1136561706662178,0.07588369399309158,-0.07141351699829102,-0.0036816049832850695,0.009545116685330868,-0.1125117689371109,-0.080460324883461,-0.018797583878040314,0.0715842917561531,0.09059177339076996,0.0013938159681856632,0.09159151464700699
ฤ,-0.01197760459035635,0.0886758416891098,0.0482642762362957,0.0669238418340683,-0.07361528277397156,0.02586222253739834,0.08260553330183029,-0.024573229253292084,0.04880688712000847,0.09102576225996017,-0.028502363711595535,0.11071113497018814,0.020839514210820198,-0.041227299720048904,-0.07563670724630356,0.046626314520835876,0.09025699645280838,-0.07535520941019058,0.08320829272270203,0.0836513340473175,-0.10302939265966415,-0.011510145850479603,-0.06962424516677856,0.06904245913028717,0.08742304891347885,0.07821965962648392,-0.013902431353926659,-0.0442170612514019,-0.1086970865726471,0.043184392154216766,-0.10989775508642197,0.10462592542171478,-0.006257114931941032,0.04150395095348358,-0.0396052822470665,0.003902208060026169,0.006201480515301228,0.08805614709854126,-0.09497913718223572,-0.10362686216831207,0.03527656942605972,-0.046352360397577286,-0.0638868510723114,0.08740569651126862,0.033926431089639664,-0.059559065848588943,-0.05177513509988785,-0.08776530623435974,0.08780668675899506,0.011410816572606564,0.07062313705682755,-0.10327022522687912,0.09475766122341156,-0.05056716501712799,0.04745064675807953,0.069132499396801,0.05522490665316582,0.06566973775625229,-0.05847388505935669,0.026668312028050423,-0.0006246306002140045,0.024537473917007446,-0.1066577136516571,-0.053090136498212814,0.07332579791545868,0.11346440017223358,-0.022452255710959435,0.056527022272348404
ฉ,-0.08270673453807831,0.07906711101531982,0.010806878097355366,0.030528875067830086,0.013152757659554482,0.021985892206430435,0.04297526553273201,-0.0785377249121666,0.07204057276248932,0.03428680822253227,-0.09025896340608597,0.09061793237924576,-0.11719968914985657,0.0381833016872406,0.06754064559936523,-0.09956614673137665,-0.011788667179644108,0.09197667241096497,-0.08921404927968979,-0.07136142253875732,0.0884387269616127,-0.12096289545297623,-0.055812135338783264,0.11054559797048569,-0.024600515142083168,0.08017446845769882,0.012518764473497868,0.06123515963554382,-0.05718366429209709,-0.0027861599810421467,-0.060412563383579254,-0.01854672282934189,-0.06802833825349808,-0.042776159942150116,-0.06293581426143646,0.10332532972097397,0.07457617670297623,0.11155485361814499,-0.03229484707117081,-0.010775631293654442,0.0877411812543869,-0.10524102300405502,0.12097861617803574,0.09522344917058945,-0.08029676973819733,-0.03780215233564377,0.10651781409978867,0.050252076238393784,0.03673402592539787,0.06349649280309677,-0.007730603218078613,-0.12135517597198486,-0.09032851457595825,0.030805114656686783,0.03506232798099518,-0.05337353050708771,0.043818943202495575,0.05280093848705292,0.08412083238363266,0.07195393741130829,0.09638584405183792,0.09434108436107635,0.10632051527500153,0.10554608702659607,0.03057810291647911,0.06523261964321136,0.011619647033512592,0.1028866320848465
ช,-0.0953821986913681,-0.09735062718391418,-0.1126643642783165,0.10820574313402176,-0.07205473631620407,-0.10613333433866501,0.08795834332704544,0.041072551161050797,0.09394043684005737,0.012344581075012684,0.054286569356918335,0.0794839859008789,-0.07968791574239731,0.08973623812198639,-0.11263608932495117,0.0736478939652443,0.012166638858616352,-0.00046882330207154155,0.026920462027192116,0.10139766335487366,0.04158627241849899,-0.11724115908145905,0.04430442675948143,0.005909280851483345,-0.03667164966464043,-0.0613761804997921,-0.06505084782838821,-0.038472581654787064,0.07913929969072342,0.03383495658636093,-0.04357195645570755,0.027379408478736877,0.061543773859739304,-0.00045499473344534636,0.057403240352869034,-0.10325248539447784,0.12138757109642029,-0.05912279337644577,0.06551337987184525,-0.08011317253112793,0.006117361597716808,-0.05374184623360634,0.06738902628421783,0.05236716568470001,-0.06943255662918091,-0.11188779026269913,-0.04117628186941147,0.09131591022014618,-0.08447382599115372,-0.059724122285842896,-0.03366779163479805,0.12169726192951202,0.013883917592465878,0.09690353274345398,0.05125679820775986,0.1154012531042099,0.06524161249399185,-0.04711972177028656,-0.06510256975889206,-0.1204586923122406,0.01952492445707321,0.029442228376865387,0.11393872648477554,0.05965884029865265,-0.02820648066699505,-0.11419573426246643,0.11413811892271042,-0.088608518242836
ฌ,0.11264385282993317,0.013255096971988678,0.005169081036001444,-0.11284861713647842,0.006261378992348909,-0.05593761429190636,0.0748995766043663,-0.08944009244441986,-0.006423654034733772,0.11435947567224503,0.041598882526159286,-0.020441045984625816,-0.12119127064943314,-0.07421796023845673,-0.07425494492053986,-0.10427872091531754,-0.012027828022837639,0.007880941964685917,0.018367165699601173,-0.03211615979671478,-0.07713690400123596,0.0870567187666893,0.07321865111589432,0.036350540816783905,-0.10450451821088791,0.05241448059678078,0.042281486093997955,-0.06499185413122177,-0.08836409449577332,0.10191885381937027,-0.06870175898075104,-0.0908885970711708,0.11681177467107773,-0.03946607559919357,-0.017854616045951843,-0.08099875599145889,-0.0022614719346165657,0.05226960405707359,0.08658841252326965,0.07362546771764755,0.022464707493782043,-0.06780759990215302,0.08492503315210342,0.0774361714720726,0.0802101343870163,-0.04594619199633598,-0.016806649044156075,-0.07573379576206207,-0.11159099638462067,0.07391450554132462,-0.09695761650800705,-0.05483980104327202,0.046516794711351395,-0.11841601133346558,0.0668596476316452,-0.09600779414176941,-0.10720916837453842,0.0613706149160862,0.08920890837907791,-0.03883214667439461,-0.04132067412137985,0.0005571705405600369,0.03063848242163658,-0.08855881541967392,0.016006723046302795,-0.04661283269524574,-0.021874699741601944,-0.07581666111946106
จ,-0.00688469922170043,0.07905592769384384,0.0015297704376280308,0.0579722560942173,-0.038375817239284515,-0.02234858274459839,0.057925522327423096,0.07112259417772293,0.07588523626327515,0.07978644222021103,0.05417020246386528,-0.0352541022002697,0.028627481311559677,-0.06407691538333893,0.010338286869227886,-0.07745590806007385,-0.05983352288603783,-0.05788733810186386,-0.050279002636671066,-0.015676740556955338,-0.042906034737825394,-0.07967987656593323,0.11378028988838196,-0.1050017699599266,0.03897317871451378,-0.060964856296777725,-0.014889435842633247,0.09736558049917221,0.09221558272838593,-0.10365396738052368,0.04441360384225845,-0.008726277388632298,-0.11039452999830246,0.03684213012456894,0.08968372642993927,0.00264472933486104,0.042080726474523544,-0.06100810319185257,-0.10345892608165741,-0.09849750995635986,0.020196592435240746,-0.09961128979921341,0.06575898081064224,0.11705759912729263,0.00022330459614749998,0.047642748802900314,0.0674867331981659,0.08594268560409546,0.032865893095731735,0.07958590984344482,-0.08013454079627991,-0.000901570834685117,-0.03708088770508766,-0.07704319059848785,-0.0657845214009285,0.005619627423584461,0.0626794695854187,0.08839120715856552,0.08272750675678253,0.06494094431400299,-0.08896508812904358,-0.06781239062547684,-0.012795301154255867,0.09577976167201996,0.008902699686586857,-0.07622889429330826,-0.06791270524263382,-0.05683888867497444
ศ,-0.0893622636795044,-0.05124611407518387,-0.011647148057818413,0.07547581195831299,0.051388129591941833,-0.0040037548169493675,-0.121230848133564,0.06697937101125717,0.075872503221035,0.11362745612859726,-0.11456623673439026,0.10898569971323013,0.04211622476577759,-0.0754387155175209,-0.09075406938791275,-0.04350344091653824,0.11841196566820145,0.10406968742609024,-0.0617825947701931,-0.10207460820674896,-0.023549502715468407,-0.034684035927057266,-0.10217034071683884,0.10035144537687302,0.08115404099225998,-0.011106383055448532,-0.08210020512342453,0.10175006091594696,-0.0695018470287323,0.07184813171625137,0.12029831111431122,0.009432243183255196,0.08838845044374466,-0.01713329739868641,-0.03212699666619301,0.027453787624835968,0.07813356816768646,0.05476108938455582,-0.04861587658524513,0.02643570303916931,-0.029163377359509468,0.020623819902539253,0.06597379595041275,0.017971765249967575,-0.03670470789074898,-0.09296531975269318,0.041300464421510696,0.013445303775370121,0.026086920872330666,0.11766216158866882,-0.015303810127079487,-0.11194858700037003,-0.10808533430099487,0.0484258309006691,-0.09791944921016693,-0.0011259113671258092,0.04079130291938782,-0.05620994791388512,0.04270024225115776,0.06492750346660614,-0.08762567490339279,-0.0069856648333370686,-0.011150987818837166,-0.04998943209648132,-0.07876500487327576,0.07581990212202072,0.10965627431869507,0.004662745166569948
ษ,-0.020514344796538353,-0.10086289793252945,0.04000449180603027,0.006988153327256441,0.10532522201538086,0.01932266540825367,-0.11631573736667633,-0.05910449102520943,-0.05050939321517944,0.09353374689817429,-0.05706607177853584,-0.10820205509662628,0.043636254966259,-0.04085039347410202,-0.07130087167024612,0.09507796913385391,-0.02936830371618271,-0.11773377656936646,-0.027770599350333214,-0.059300802648067474,0.07337245345115662,0.09193988889455795,0.007913501001894474,0.04364009201526642,0.06835423409938812,0.036565132439136505,-0.07704362273216248,0.04639307036995888,0.03086400404572487,0.07916031032800674,0.02683720551431179,-0.006617282517254353,0.09479065239429474,-0.08822273463010788,0.08692396432161331,0.11665315181016922,0.00016441947082057595,0.05715356022119522,0.07145166397094727,-0.005413689650595188,-0.09951439499855042,0.01156448945403099,0.09805665165185928,0.03042706660926342,-0.03500517085194588,0.00019286747556179762,0.049237027764320374,0.0866529643535614,0.057047054171562195,-0.013036533258855343,-0.0666438639163971,-0.04367645084857941,-0.08768913894891739,-0.11144132912158966,0.01565612107515335,-0.0732751339673996,0.11650684475898743,0.08761530369520187,0.09667724370956421,0.005223680753260851,-0.09549063444137573,0.05732616409659386,0.10466868430376053,0.015059417113661766,0.1135893315076828,0.0009305738494731486,0.04676881805062294,-0.05672955885529518
ส,0.11915618926286697,0.09800152480602264,-0.053021226078271866,-0.06606464087963104,-0.10602479428052902,-0.11553581058979034,-0.07448434829711914,0.030147243291139603,-0.014265282079577446,0.043759785592556,-0.09541594237089157,-0.0686366930603981,-0.03084777109324932,-0.07247068732976913,0.08040989190340042,0.022086741402745247,-0.1024857759475708,-0.04505991190671921,-0.08286634087562561,-0.07354193925857544,-0.08881228417158127,-0.030352873727679253,0.050538673996925354,0.017551159486174583,-0.11936458200216293,-0.0487845279276371,0.10253817588090897,-0.07194890081882477,0.047370634973049164,0.04798819497227669,0.038484372198581696,0.003969202283769846,0.001546645537018776,0.01377210021018982,0.061839066445827484,0.005728236865252256,-0.02994903363287449,-0.12109389901161194,-0.016032347455620766,-0.016641533002257347,0.06868556141853333,0.10884658992290497,0.05474407970905304,0.017862608656287193,0.09255822747945786,-0.10938289016485214,0.11802396178245544,0.0629090964794159,-0.09682779014110565,0.061729833483695984,-0.03638691455125809,0.08498518168926239,0.024197343736886978,0.10254186391830444,-0.018748585134744644,0.11305029690265656,-0.08317472785711288,-0.016208231449127197,0.11263705790042877,0.05684750899672508,-0.07145196944475174,0.08782394975423813,-0.010611286386847496,-0.006779227871447802,0.10765107721090317,0.11287953704595566,-0.022811591625213623,0.03362157940864563
ซ,0.1234278604388237,0.0512884296476841,0.08296426385641098,0.010452400892972946,-0.07418148964643478,-0.015171431936323643,0.11853265017271042,-0.09624944627285004,-0.08052218705415726,-0.03764290735125542,-0.014272439293563366,0.01769985817372799,0.04753091186285019,0.06017274409532547,-0.024326296523213387,-0.07502400875091553,0.07104819267988205,-0.03585432469844818,-0.06211365759372711,0.08065976202487946,0.0067656077444553375,0.06471946835517883,-0.036602623760700226,-0.07447583228349686,0.016751602292060852,-0.07430669665336609,0.11230512708425522,-0.08011022210121155,0.11344072967767715,0.10773579776287079,0.057233430445194244,0.08907311409711838,-0.06711035221815109,0.10774829238653183,0.005155043676495552,-0.03569333255290985,-0.11646157503128052,-0.04034760594367981,0.052817996591329575,0.08345503360033035,-0.004179240204393864,-0.06629692763090134,0.07979904115200043,-0.06573979556560516,0.048991791903972626,-0.06744158267974854,0.07818224281072617,-0.011777989566326141,0.03927583992481232,0.09221161901950836,0.04172281548380852,-0.0629861056804657,0.043329641222953796,-0.05305539071559906,-0.07248392701148987,0.034381065517663956,-0.07536114007234573,-0.10892422497272491,-0.09522780776023865,0.019609754905104637,0.0744507759809494,0.007331442087888718,0.12019553035497665,-0.10493718087673187,-0.0026147908065468073,0.03002305142581463,-0.10758775472640991,0.07493306696414948
ฝ,-0.017830997705459595,0.046959538012742996,0.07505214959383011,-0.010936243459582329,-0.06365098059177399,-0.022243494167923927,0.08726517111063004,0.08590160310268402,0.013093219138681889,-0.04191377013921738,-0.07839448750019073,0.11387702077627182,0.025790240615606308,-0.09911274164915085,0.07454445958137512,-0.010462173260748386,0.07736607640981674,-0.06555385887622833,-0.07122736424207687,-0.10797116905450821,-0.02093825675547123,-0.04340304806828499,-0.08414025604724884,-0.050971824675798416,0.04392518475651741,0.04792485386133194,0.009248982183635235,0.09054828435182571,-0.10720599442720413,-0.08212339133024216,-0.10058457404375076,-0.07246819138526917,0.02745787613093853,0.0025211311876773834,-0.036734454333782196,-0.11656226217746735,-0.039114270359277725,0.006992907728999853,-0.03757984936237335,-0.12360629439353943,0.0235490370541811,0.018197806552052498,-0.026680342853069305,-0.11991248279809952,0.027033809572458267,-0.06952974200248718,0.059545524418354034,0.1039414182305336,0.10882502049207687,0.020682672038674355,0.10190947353839874,-0.008115456439554691,-0.09260748326778412,0.06626128405332565,0.04577038809657097,0.011483924463391304,-0.1073090210556984,0.05083928629755974,-0.05173267424106598,-0.08163008093833923,-0.06026043742895126,0.06083359196782112,0.10417763888835907,-0.049989137798547745,-0.01353090163320303,-0.01937347836792469,-0.08234310895204544,-0.09064150601625443
ฟ,0.11328019201755524,-0.05029937997460365,-0.02079424448311329,0.10776427388191223,0.11747331917285919,-0.09247567504644394,0.07029760628938675,-0.11846037954092026,-0.08318619430065155,-0.01498406007885933,0.08879607170820236,-0.02157333493232727,0.04709687829017639,-0.10147248208522797,-0.09643056243658066,-0.011150679551064968,0.06045949459075928,0.09134672582149506,-0.11079082638025284,-0.07095921784639359,-0.09917452931404114,-0.01564483717083931,0.017335092648863792,-0.07708919048309326,0.0451652966439724,0.09975751489400864,-0.07805484533309937,-0.05665558949112892,-0.00040292966878041625,0.025213608518242836,-0.08588846027851105,0.005041026510298252,0.09752189368009567,0.10373222082853317,0.0045965188182890415,-0.11291074007749557,0.02515367977321148,0.07362035661935806,0.022668294608592987,-0.04200892522931099,-0.006971293594688177,-0.04468885064125061,-0.054707448929548264,-0.0031101356726139784,-0.08721859008073807,-0.038927268236875534,-0.10799400508403778,-0.037211958318948746,-0.0984874740242958,0.0346478596329689,0.03157226741313934,0.017520207911729813,0.125806987285614,-0.08513575792312622,-0.06701266765594482,0.05438394844532013,-0.10954543203115463,0.03966032341122627,0.022416668012738228,0.06602432578802109,0.10049468278884888,-0.016529269516468048,0.008582633920013905,-0.015132495202124119,-0.012415636330842972,0.07357798516750336,0.10829124599695206,0.022824715822935104
ห,-0.11963649094104767,-0.03788991644978523,0.09071256965398788,0.084697425365448,0.03734547644853592,-0.041933681815862656,0.02298833802342415,-0.07534408569335938,0.03644408658146858,-0.03754167631268501,-0.0913868397474289,0.10762812197208405,-0.03959257900714874,0.09616304934024811,0.06943412870168686,0.07479766756296158,-0.10607423633337021,-0.10289619117975235,0.08428260684013367,-0.028332114219665527,-0.04150954261422157,-0.06500618904829025,0.075930655002594,0.04928382486104965,-0.027391765266656876,0.03629576414823532,-0.056249361485242844,0.11362240463495255,-0.07507895678281784,-0.033125586807727814,0.10553853958845139,0.08327426761388779,-0.06036948412656784,0.021341586485505104,0.020654188469052315,0.06309472024440765,0.09478116780519485,0.1199217438697815,0.03852037712931633,0.021583817899227142,0.020394673570990562,0.042050186544656754,0.00018856341193895787,-0.06447643041610718,-0.0005203960463404655,0.00754835968837142,-0.08838081359863281,0.03873380646109581,-0.04568496346473694,0.062068842351436615,-0.10697735846042633,-0.07264012098312378,-0.10198219120502472,0.013756739906966686,-0.09208657592535019,-0.06823335587978363,0.11299937218427658,0.09827607125043869,-0.11716566979885101,-0.05461296811699867,-0.06425198912620544,0.10295186191797256,0.0071992757730185986,-0.12113578617572784,0.08355080336332321,0.10507476329803467,-0.004830298479646444,-0.046287864446640015
ฮ,0.022010596469044685,0.04602956771850586,-0.04383550211787224,-0.008981653489172459,0.033855754882097244,-0.001458849641494453,-0.06698837876319885,0.08423680812120438,0.1164812222123146,-0.013420740142464638,-0.03988836705684662,0.0889253169298172,0.007981385104358196,-0.014629492536187172,-0.0784960389137268,-0.00843649823218584,-0.03733758628368378,0.07691968977451324,0.019757939502596855,-0.007288143038749695,-0.0014936148654669523,0.09230344742536545,0.08470462262630463,0.06184093654155731,-0.08935214579105377,0.0706893801689148,0.08169445395469666,0.08212486654520035,0.06347725540399551,-0.071733757853508,0.04895778372883797,0.08963340520858765,0.049582935869693756,-0.04243578761816025,0.09548236429691315,-0.033399343490600586,-0.03908644989132881,0.09273694455623627,0.0021989960223436356,0.023386850953102112,-0.05905325338244438,-0.09526997804641724,-0.0979001596570015,-0.11460436135530472,0.10042664408683777,-0.10261920094490051,0.11391616612672806,0.04643427953124046,-0.07627679407596588,0.0159834586083889,-0.1006951630115509,0.10466030985116959,0.06665050983428955,0.09016529470682144,-0.048096559941768646,-0.10387517511844635,0.019283128902316093,0.11843440681695938,-0.07399582117795944,-0.07571282982826233,0.029691478237509727,-0.07745929807424545,0.09682032465934753,-0.003454019548371434,-0.010128386318683624,-0.060958124697208405,-0.019948164001107216,0.08945377171039581
ญ,-0.10478229075670242,0.08643494546413422,0.08827545493841171,-0.030757546424865723,0.06067786365747452,0.02224309742450714,-0.06372923403978348,-0.07867125421762466,-0.08179295063018799,0.040895670652389526,0.04708273336291313,-0.09158569574356079,-0.042961347848176956,-0.10131638497114182,0.049017563462257385,-0.05449087917804718,-0.09303882718086243,0.1012197956442833,0.027554426342248917,0.01728782244026661,-0.11936262995004654,0.009697130881249905,-0.02807450294494629,-0.0028911358676850796,-0.09052106738090515,-0.0062417625449597836,-0.09148720651865005,0.005250577814877033,0.11943484097719193,-0.11073344945907593,-0.11633376777172089,-0.08971606940031052,-0.07253324240446091,-0.03603450581431389,-0.09711187332868576,0.007024472579360008,0.10236438363790512,0.013231148943305016,0.02120094560086727,0.11597102135419846,0.09273158758878708,0.08612187206745148,-0.07677047699689865,-0.08625299483537674,-0.050873029977083206,-0.09577779471874237,-0.019804570823907852,0.06727167963981628,0.07143943756818771,-0.06315260380506516,0.06087475270032883,0.1212407723069191,-0.06039984151721001,-0.07714687287807465,0.10653968155384064,-0.04146455600857735,0.03689110651612282,-0.01552339643239975,-0.12275906652212143,-0.022308774292469025,-0.08724420517683029,-0.004764982499182224,-0.11155227571725845,-0.08058758825063705,-0.07651925832033157,0.0769994929432869,0.0825568214058876,0.01751445233821869
ย,-0.058285824954509735,-0.08676162362098694,-0.0668812096118927,0.05342879891395569,0.08485425263643265,0.0051529863849282265,-0.08097027987241745,-0.018116913735866547,-0.0765596553683281,0.07846199721097946,0.05767589062452316,0.09728030115365982,0.11461134254932404,0.02216491848230362,0.0322103276848793,0.044542305171489716,0.02277580089867115,-0.01632198877632618,0.10320984572172165,0.12139420211315155,-0.04051818698644638,0.07288385927677155,-0.030814476311206818,0.09039334952831268,0.050037678331136703,0.11196961253881454,0.04096416383981705,0.10913921892642975,-0.1105775237083435,0.049117330461740494,-0.07135462015867233,0.05748005583882332,0.1146668940782547,0.07962091267108917,0.009925523772835732,0.013624858111143112,0.042639363557100296,-0.028188135474920273,0.07652650773525238,0.06320340186357498,0.11666066199541092,0.09076855331659317,-0.002036038087680936,0.08908744901418686,-0.08927840739488602,0.10039979219436646,-0.03710487112402916,-0.10481547564268112,0.11034339666366577,-0.01633075810968876,-0.08825504034757614,0.06108972430229187,-0.08657283335924149,0.0072921272367239,-0.08938083052635193,0.09219023585319519,0.0036274706944823265,-0.10280843824148178,0.05187766253948212,-0.06364075094461441,-0.03282831981778145,0.021225780248641968,-0.07277943938970566,-0.07242109626531601,-0.05264417454600334,-0.07329834997653961,0.0018991775577887893,0.05856534466147423
ว,-0.08570317924022675,-0.05709801986813545,-0.0947771817445755,-0.09176068007946014,-0.07304201275110245,0.062132928520441055,0.0854932963848114,0.04947181046009064,0.032370373606681824,-0.019371237605810165,-0.04813677817583084,0.018123893067240715,0.03608773276209831,-0.027112312614917755,0.08431850373744965,-0.09012765437364578,0.06453999876976013,-0.026620684191584587,-0.06690483540296555,-0.08003142476081848,-0.024898584932088852,0.06351885199546814,0.09762061387300491,-0.03713065758347511,-0.04942358657717705,-0.06081940606236458,0.058138664811849594,-0.1048235073685646,-0.03800084441900253,0.05618331581354141,0.04145267233252525,-0.09366969764232635,0.02464846707880497,-0.10222384333610535,-0.0963757187128067,-0.03588901087641716,-0.0561637319624424,0.11598396301269531,-0.10827255994081497,0.0616954006254673,-0.1170169785618782,0.10616680979728699,-0.11843197047710419,0.017985785380005836,-0.04681515693664551,0.07095719128847122,-0.021385960280895233,0.06872281432151794,0.021451376378536224,-0.008069619536399841,-0.052879154682159424,0.08529771864414215,-0.08692880719900131,0.08499293774366379,0.07508298009634018,0.05762021988630295,0.08956950902938843,0.07031417638063431,-0.07900045067071915,0.07514019310474396,-0.09369926899671555,-0.10985494405031204,0.09096749871969223,0.04753626137971878,0.08714110404253006,-0.061288680881261826,-0.029956666752696037,-0.014676155522465706
ล,-0.10528729110956192,-0.09448357671499252,0.05562100186944008,0.09110280126333237,0.09842119365930557,-0.07346813380718231,0.12421057373285294,0.07485522329807281,0.049826472997665405,0.11803971230983734,-0.03068169765174389,-0.1158011257648468,0.044861678034067154,0.10712975263595581,0.031021257862448692,0.05432913452386856,0.11220315098762512,-0.024332448840141296,0.06630507111549377,0.05971388518810272,0.004540506284683943,-0.0012653360608965158,-0.0282225850969553,-0.004520722199231386,0.04657210037112236,-0.01810651458799839,0.06273765116930008,0.05432366207242012,-0.06639976799488068,0.09376540780067444,-0.12294051796197891,-0.008102655410766602,-0.006401170045137405,-0.1106233075261116,-0.020232535898685455,-0.059842079877853394,-0.0020256859716027975,0.1111551970243454,-0.09985016286373138,0.06357157975435257,-0.1025664210319519,-0.015999803319573402,-0.09570790082216263,0.050258420407772064,-0.11027935147285461,0.03811570256948471,-0.0011930919717997313,-0.08432820439338684,-0.09688582271337509,0.06429698318243027,0.07836051285266876,0.04544258490204811,0.006253689993172884,0.11856990307569504,-0.018186088651418686,0.04010259732604027,0.12179110944271088,0.0273648239672184,-0.0680025964975357,0.11648903042078018,-0.03873157128691673,0.013107377104461193,0.005561478435993195,-0.08921162039041519,-0.019239071756601334,-0.09449055045843124,0.11138694733381271,0.0872683972120285
ฬ,-0.05622296780347824,0.08887863904237747,0.0231438297778368,0.09436925500631332,0.06287287920713425,-0.08662538230419159,0.002537097781896591,0.10364234447479248,0.06453214585781097,0.013902947306632996,-0.03962201625108719,-0.110780268907547,0.021198119968175888,-0.06822536885738373,0.12110410630702972,-0.06593184173107147,0.03169138357043266,0.07070372253656387,-0.07223769277334213,0.045378874987363815,-0.009782097302377224,-0.09029033780097961,0.10969461500644684,-0.10477446764707565,0.08646590262651443,0.015647726133465767,-0.009380294010043144,-0.007193044293671846,0.10327742248773575,-0.1076841875910759,0.1037367656826973,0.05134172365069389,0.05061850696802139,-0.026275398209691048,-0.006942735984921455,0.0016365331830456853,-0.11758986115455627,0.09479442983865738,-0.11296329647302628,0.039034899324178696,0.012439467944204807,-0.11380191892385483,-0.0327175110578537,-0.06359025835990906,0.02071955054998398,-0.09416648745536804,0.057912103831768036,0.04008547589182854,0.07641705125570297,0.05567071959376335,-0.07669654488563538,-0.034486688673496246,-0.02654697373509407,-0.09148208796977997,-0.020528700202703476,-0.01285270694643259,0.030713191255927086,0.12121593207120895,-0.10253144055604935,-0.04150513932108879,0.08149667084217072,-0.02938123606145382,0.06784429401159286,-0.017059173434972763,0.0779871866106987,-0.0835670754313469,0.06903696805238724,-0.049960773438215256
ฦ,-0.0009957654401659966,-0.03153662383556366,0.0328822061419487,-0.02908651903271675,0.027638215571641922,-0.012663034722208977,-0.05482872202992439,0.08853890001773834,0.056571196764707565,-0.013563678599894047,0.06096314266324043,-0.06633114069700241,0.12021353840827942,0.0180890541523695,-0.07785441726446152,-0.06729710102081299,0.07541537284851074,0.004129384644329548,-0.07121974229812622,-0.018837541341781616,0.01974507048726082,-0.026717351749539375,0.1120181754231453,0.11114421486854553,-0.12314296513795853,-0.028929509222507477,-0.09174353629350662,-0.04846559464931488,0.05497690662741661,0.06510963290929794,-0.10355453193187714,0.07774489372968674,0.05994739010930061,0.10569784045219421,-0.11331914365291595,0.07091231644153595,-0.025750551372766495,-0.027123605832457542,-0.06702587008476257,0.06940498948097229,-0.06533084064722061,0.1088121086359024,0.06644398719072342,0.0863296240568161,0.01640104502439499,-0.042765628546476364,0.061808593571186066,0.11961531639099121,-0.09287679940462112,0.06386091560125351,0.0794985443353653,0.04343640059232712,0.08526086062192917,-0.020055893808603287,0.05662589892745018,0.11876463145017624,-0.07354684174060822,0.036205608397722244,-0.08754222095012665,0.06072227656841278,0.023785559460520744,-0.05436231940984726,0.05486805737018585,-0.01010101567953825,0.02314121089875698,0.08991385996341705,0.1160070151090622,0.02742457576096058
ิ,-0.06576090306043625,-0.05504126474261284,-0.04720879718661308,0.049851175397634506,0.03267049789428711,0.024643855169415474,-0.0378909669816494,-0.0117192342877388,0.01900908723473549,0.021918056532740593,-0.017841696739196777,0.12405987828969955,-0.010196198709309101,-0.01770607754588127,0.09914489090442657,0.10239262878894806,0.07389110326766968,0.0549045205116272,-0.11614908277988434,0.08321189135313034,-0.09194337576627731,0.0019699730910360813,-0.07584983110427856,0.07510406523942947,-0.11597829312086105,0.11669706553220749,0.10615464299917221,-0.10512585192918777,0.0061197299510240555,0.022951338440179825,-0.013591279275715351,0.03428100794553757,-0.1023956686258316,0.058356933295726776,0.09040987491607666,0.09213950484991074,0.08154568076133728,0.0062521775253117085,-0.07136155664920807,-0.0916983038187027,-0.03097382001578808,-0.044242408126592636,0.04044802486896515,0.08037885278463364,-0.017391404137015343,-0.02707533724606037,0.007218101527541876,0.0009531570831313729,-0.10482800006866455,-0.0644436925649643,0.08552006632089615,0.02176641672849655,0.07871870696544647,0.10450208187103271,-0.1187984049320221,0.08931677788496017,-0.023493904620409012,0.05990195646882057,0.0030881401617079973,0.01991000398993492,0.034203726798295975,0.04936981573700905,0.05533842369914055,-0.008035627193748951,0.07741917669773102,-0.07268165051937103,-0.0943543091416359,0.07760615646839142
ี,0.05012265965342522,-0.09944656491279602,-0.05698106810450554,-0.0018503112951293588,0.11235120892524719,-0.10448922961950302,0.10546708852052689,-0.0946153774857521,-0.004156546667218208,-0.03291962668299675,-0.02858795039355755,0.016955943778157234,0.08620887249708176,-0.0010457659373059869,0.07775969803333282,0.07823673635721207,-0.05211031064391136,-0.07185898721218109,-0.07981569319963455,-0.046525418758392334,-0.05514468997716904,0.05676700174808502,0.028271326795220375,-0.08803767710924149,-0.036622609943151474,-0.08740110695362091,-0.08255895972251892,-0.06297501176595688,0.05717692896723747,0.11582722514867783,-0.039057232439517975,-0.07383377850055695,0.000486230303067714,-0.05382978543639183,0.07962331920862198,-0.07241062819957733,0.028615297749638557,-0.0972134917974472,-0.09124422073364258,-0.09972754120826721,0.07776680588722229,-0.09906641393899918,-0.0941072329878807,0.09621088951826096,0.020132023841142654,-0.018202684819698334,-0.06002315506339073,-0.012808573432266712,0.051758091896772385,-0.04709978774189949,0.07521386444568634,0.05388171225786209,0.10204192996025085,0.09692911058664322,-0.06019075587391853,0.07335912436246872,0.05664563924074173,-0.07203994691371918,-0.09631961584091187,0.1043013408780098,-0.09338501840829849,0.013659261167049408,0.027024805545806885,-0.03470415621995926,-0.024213023483753204,0.067024827003479,0.046509433537721634,-0.04743311554193497
ึ,-0.09843254089355469,0.07320410013198853,0.04499426111578941,0.07337848842144012,-0.08311239629983902,0.10521487891674042,-0.10894767940044403,-0.03394155204296112,-0.1142713651061058,0.04311976209282875,-0.008379700593650341,0.1051458790898323,-0.07405486702919006,0.10503344237804413,-0.01333099976181984,-0.026498375460505486,-0.11781088262796402,0.11385828256607056,0.10958033055067062,-0.10299059003591537,0.06735031306743622,0.0904725193977356,-0.044133901596069336,-0.009302414953708649,-0.09360551834106445,0.0730062946677208,-0.06549186259508133,-0.061831627041101456,-0.06412620097398758,-0.12329529970884323,-0.037026166915893555,0.09849453717470169,0.09093694388866425,-0.017956063151359558,-0.06028784438967705,0.02440989762544632,0.02319951541721821,-0.07876108586788177,-0.039538901299238205,-0.0939328670501709,-0.028070857748389244,-0.040340606123209,-0.040576089173555374,0.12479080259799957,0.0964931845664978,0.02958226017653942,0.013161979615688324,0.01467580534517765,-0.008368863724172115,0.08469155430793762,0.1154877245426178,-0.039229005575180054,-0.04873140528798103,0.1265447586774826,0.10609932243824005,0.017270023003220558,-0.07918693870306015,-0.0730060487985611,0.03398139402270317,0.08903730660676956,0.026326673105359077,0.06834713369607925,-0.09939895570278168,0.01932278275489807,-0.06119994819164276,-0.05946473777294159,-0.11301374435424805,0.05282823368906975
ื,-0.08221053332090378,0.023773690685629845,0.06940944492816925,-0.0863928571343422,-0.10058511048555374,0.017849478870630264,-0.01724395528435707,0.06840309500694275,0.06330825388431549,0.014822397381067276,-0.09346750378608704,0.006103659979999065,0.11240651458501816,0.0060682413168251514,0.06273124366998672,0.09063872694969177,-0.04925145208835602,0.0053667775355279446,0.07317392528057098,0.0022178860381245613,-0.10416099429130554,-0.06636086851358414,-0.08299484103918076,-0.07234276086091995,-0.02151697315275669,0.07195215672254562,-0.06663918495178223,-0.06449398398399353,0.09793516993522644,0.11309951543807983,-0.11292999982833862,-0.080325648188591,0.11269986629486084,0.1060153990983963,0.11528660356998444,-0.052145250141620636,-0.06603620946407318,0.07571609318256378,-0.087190642952919,0.010845455341041088,0.022520847618579865,0.07958110421895981,0.08046530932188034,-0.0013278829865157604,0.03441363200545311,0.05403681471943855,0.0340145006775856,-0.010542754083871841,-0.0828717052936554,-0.0754883661866188,0.05334775522351265,-0.03474457934498787,0.057391174137592316,-0.040966372936964035,-0.10418481379747391,0.014555186964571476,0.11455636471509933,-0.1213778555393219,-0.095472052693367,0.04195293039083481,-0.018998034298419952,-0.005302250850945711,0.01300267968326807,0.028412602841854095,0.10504923015832901,0.07667361944913864,0.08037420362234116,-0.0038238868582993746
ๅ,-0.0012133776908740401,0.06407617032527924,0.06728025525808334,0.018061567097902298,-0.014961525797843933,0.025489889085292816,-0.005683682858943939,0.007968192920088768,-0.11930210143327713,-0.10000777989625931,-0.03350835293531418,0.0013531147269532084,0.03070930764079094,-0.028276000171899796,0.11105134338140488,-0.026688389480113983,-0.12324108928442001,-0.03957347944378853,0.10325834155082703,-0.0049422201700508595,-0.08215800672769547,-0.0043544103391468525,-0.030245184898376465,-0.0996713787317276,0.05099211260676384,-0.01690908521413803,0.05661805346608162,-0.08113285154104233,0.06004822254180908,0.11219935119152069,-0.05702558904886246,0.09804125875234604,0.022317269816994667,0.09752671420574188,0.040083419531583786,0.09773705154657364,0.06101685389876366,0.11106056720018387,0.02461359277367592,0.10895805060863495,-0.05458274483680725,0.03789779171347618,-0.03898152709007263,0.11744984984397888,0.0596918910741806,-0.019503943622112274,-0.06820826232433319,-0.021854203194379807,0.06155380979180336,0.08886280655860901,-0.077646903693676,0.11875811964273453,0.1142975464463234,-0.06966227293014526,-0.06902571022510529,-0.1048455759882927,0.10366128385066986,0.04803122952580452,0.10660766810178757,-0.00604320177808404,0.1173417940735817,0.012878092005848885,0.12299545854330063,0.0037784241139888763,-0.027502255514264107,-0.11404195427894592,-0.0038255343679338694,-0.029802454635500908
ุ,-0.06606772541999817,0.009762958623468876,0.07540762424468994,0.05565415322780609,-0.09359420090913773,-0.06065607815980911,-0.02111448533833027,0.11200354248285294,-0.021005790680646896,0.08258423209190369,0.11690613627433777,-0.04482344537973404,-0.11774779111146927,-0.015182926319539547,-0.10969504714012146,0.00517227640375495,-0.016773249953985214,-0.004988171625882387,0.08756623417139053,-0.014995001256465912,0.022655805572867393,0.027318399399518967,0.03116540051996708,0.10389149188995361,0.06639866530895233,0.05916896089911461,-0.044945307075977325,-0.08585533499717712,-0.10686559975147247,-0.012378191575407982,-0.08366385847330093,0.11764665693044662,0.03937751054763794,0.018204350024461746,0.10554786771535873,-0.08451969176530838,0.07086709141731262,-0.042120561003685,-0.03470573201775551,-0.011108838953077793,0.0063026174902915955,0.06554343551397324,-0.07502196729183197,-0.008347242139279842,0.051362331956624985,-0.09581228345632553,-0.06870272755622864,0.10787296295166016,-0.10940533131361008,-0.04259338229894638,0.06797675788402557,-0.0997825637459755,-0.04082832857966423,0.07791494578123093,-0.07351013273000717,0.009280244819819927,0.05545507371425629,-0.08697270601987839,0.0055090757086873055,0.10259087383747101,-0.07363694161176682,0.08811476826667786,0.10390082746744156,-0.09704114496707916,-0.0913945659995079,-0.04092051088809967,-0.058857936412096024,0.02620510943233967
ู,0.027740225195884705,0.052317626774311066,0.03629487752914429,0.054749902337789536,0.06280606240034103,-0.05985419079661369,-0.12044494599103928,-0.04306689277291298,-0.017106836661696434,-0.08941520750522614,-0.028355620801448822,-0.11183107644319534,0.025940295308828354,0.018811779096722603,-0.0999654233455658,0.045095060020685196,-0.07589098066091537,0.07832840085029602,-0.002103622769936919,-0.026827814057469368,-0.062316372990608215,-0.021505672484636307,-0.046543631702661514,0.12213845551013947,0.10773410648107529,0.047335077077150345,0.10196509957313538,0.027372874319553375,-0.11470546573400497,0.06140242889523506,-0.056029561907052994,0.030711054801940918,-0.029789522290229797,0.06808968633413315,0.1026073694229126,-0.0921531543135643,-0.0976412445306778,0.02889765240252018,-0.11839732527732849,0.09536848962306976,0.04389527067542076,0.07093165814876556,0.11725245416164398,0.00011155882384628057,0.008135252632200718,-0.0788898915052414,-0.0702524334192276,-0.05125122517347336,-0.08356084674596786,0.08253743499517441,-0.09920555353164673,-0.05342686176300049,-0.06477376818656921,0.10852095484733582,0.03853590041399002,0.0915420725941658,0.05088472738862038,0.08151768893003464,0.027390914037823677,-0.03378107398748398,0.07831231504678726,-0.12330138683319092,0.06944205611944199,0.07802177965641022,-0.09383618831634521,-0.03868531808257103,-0.08660232275724411,-0.06893512606620789
เ,-0.05514390766620636,-0.09237756580114365,-0.06628004461526871,-0.07711528241634369,0.054629139602184296,0.007140875793993473,-0.05353387072682381,0.11493496596813202,0.043848685920238495,-0.021140288561582565,-0.06306371837854385,-0.0002851554600056261,-0.025671932846307755,0.050833504647016525,-0.12410325556993484,-0.05605180934071541,-0.08310271799564362,-0.06877518445253372,-0.04971625283360481,-0.026797395199537277,0.0894855409860611,-0.06649791449308395,0.06531340628862381,-0.003430992364883423,-0.013150174170732498,-0.03498445451259613,0.10170812159776688,0.09351974725723267,0.006941437255591154,-0.0027634412981569767,0.024424070492386818,-0.07755233347415924,0.03300125151872635,-0.056028611958026886,0.00504467124119401,-0.08716756105422974,0.03357800096273422,0.11127827316522598,-0.041568830609321594,0.07682378590106964,0.0007576587377116084,-0.016666898503899574,0.0677386000752449,0.12557221949100494,0.06296996772289276,-0.079108826816082,-0.03139262646436691,0.06840931624174118,-0.06839118152856827,0.027350295335054398,-0.05193094536662102,-0.06238805502653122,0.09626444429159164,-0.002064785221591592,0.056258801370859146,-0.11021537333726883,0.09325848519802094,0.005922188051044941,-0.11828054487705231,0.013531680218875408,0.08358601480722427,-0.02149980142712593,0.04006942734122276,0.09409274160861969,-0.0648292824625969,0.06178182363510132,-0.05695211514830589,-0.09489773213863373
โ,-0.017073731869459152,-0.10731150954961777,0.10872217267751694,0.061928875744342804,-0.1264289766550064,0.030793100595474243,-0.09572691470384598,-0.03846687823534012,-0.010802418924868107,-0.03337845578789711,-0.10735391825437546,-0.07214856147766113,0.0802641212940216,-0.0042228056117892265,-0.04444769024848938,0.10294541716575623,0.11613254249095917,0.04321965575218201,-0.1124778762459755,0.010789664462208748,0.0013589332811534405,-0.07246324419975281,0.11928073316812515,-0.05558795854449272,0.06570775806903839,0.063236765563488,0.12262824177742004,-0.10333947092294693,0.04008280485868454,-0.10619046539068222,-0.09041868895292282,0.025258153676986694,0.05849703773856163,0.04577713832259178,0.018023274838924408,-0.11010318249464035,-0.013593182899057865,-0.08478129655122757,0.06416381895542145,0.11901609599590302,0.07705806940793991,-0.11074361950159073,-0.00998509768396616,0.021697472780942917,0.07585294544696808,-0.011965989135205746,-0.014340278692543507,-0.09608521312475204,0.03034582920372486,0.08292312175035477,0.08952619135379791,-0.08703266084194183,-0.07710760086774826,-0.047162942588329315,-0.02854933775961399,-0.014179421588778496,-0.07437838613986969,-0.07854212075471878,0.01235954649746418,-0.10118164122104645,0.10230487585067749,0.10693886131048203,0.007999749854207039,0.07264717668294907,-0.12366430461406708,-0.018617909401655197,0.042109426110982895,-0.011647879146039486
แ,-0.06520211696624756,-0.11350047588348389,-0.08836040645837784,0.009275981225073338,-0.058456938713788986,-0.04806939885020256,-0.08653858304023743,-0.10633360594511032,0.01465394627302885,0.05721641331911087,0.016183635219931602,0.11946165561676025,-0.04086893051862717,0.07206907868385315,-0.09319668263196945,-0.055933136492967606,-0.10981597751379013,0.05306544154882431,0.013796000741422176,0.029331032186746597,0.11007370799779892,0.08176854997873306,-0.00336616113781929,0.07335995137691498,-0.11290287226438522,-0.07255341857671738,-0.11840445548295975,-0.049844272434711456,0.06829537451267242,0.111741803586483,0.10255497694015503,-0.04058799892663956,-0.06833270937204361,0.11848250031471252,-0.0826636254787445,0.026033515110611916,0.07380137592554092,-0.10258709639310837,-0.10006385296583176,0.0816846415400505,0.058517079800367355,-0.049602754414081573,0.08176678419113159,0.02454528771340847,0.06726326793432236,0.09985881298780441,0.11506126821041107,-0.06229325383901596,0.022379469126462936,-0.02184572070837021,-0.10155313462018967,0.08105453103780746,-0.05347210168838501,-0.07646532356739044,-0.00668225297704339,-0.07764866203069687,-0.0646231397986412,0.09287811815738678,-0.045616909861564636,0.01756429299712181,-0.018873313441872597,0.10068586468696594,-0.0831904485821724,-0.09039105474948883,-0.09664059430360794,-0.004375993274152279,0.006530356593430042,-0.09725014120340347
ะ,0.08077175170183182,0.09099794179201126,-0.039316143840551376,0.013462779112160206,-0.09243176877498627,0.11631124466657639,-0.11040187627077103,-0.015694251284003258,-0.09050223976373672,0.01624772883951664,0.032132308930158615,-0.051264844834804535,0.006810508668422699,0.12838591635227203,-0.0004911029245704412,0.06552362442016602,0.0019211675971746445,0.03621547296643257,-0.11233709752559662,0.11060336232185364,-0.09745008498430252,0.08435302972793579,-0.11477635055780411,0.06196851655840874,0.06700307130813599,-0.04423822462558746,-0.0009828307665884495,0.04804864153265953,-0.09474063664674759,-0.08569656312465668,0.007264923769980669,0.0815751925110817,-0.029721638187766075,0.10505109280347824,-0.08120656758546829,0.10125070810317993,-0.04795029014348984,-0.09193085879087448,0.12102682143449783,0.05363084375858307,0.06299001723527908,0.03109685331583023,0.08843819051980972,0.12163010239601135,-0.12658265233039856,0.08610083162784576,0.0727841854095459,0.11891771852970123,-0.057197779417037964,0.028118550777435303,0.05106019973754883,0.050832610577344894,-0.012858358211815357,0.022316770628094673,0.030346540734171867,-0.0813303217291832,0.018798697739839554,-0.03966892138123512,0.08234290033578873,-0.023048968985676765,-0.02863864228129387,-0.07725220173597336,-0.04360591620206833,-0.09332919865846634,0.05613324046134949,0.07270719856023788,0.06859367340803146,-0.10011598467826843
ั,-0.023032542318105698,-0.08571469038724899,0.08345010876655579,0.09161417931318283,-0.09199776500463486,-0.09337970614433289,-0.07777758687734604,-0.009703417308628559,-0.025708939880132675,-0.08019725233316422,0.12164851278066635,-0.09968134760856628,0.040918875485658646,0.11001097410917282,0.0655331090092659,-0.0840241014957428,0.022542450577020645,-0.02059047855436802,-0.10947682708501816,0.021081406623125076,-0.008962993510067463,0.06588780134916306,0.045283641666173935,-0.1055796891450882,0.062258750200271606,-0.008634424768388271,-0.09512992203235626,-0.052278533577919006,0.02419195882976055,0.09701118618249893,0.08864855021238327,0.06650376319885254,-0.02230064943432808,0.010842067189514637,-0.010693451389670372,0.055887371301651,0.08445344120264053,0.10358726233243942,0.05787407606840134,-0.003341138130053878,0.1159949079155922,-0.1072031706571579,0.1072121188044548,0.0497095100581646,0.10482360422611237,-0.0003803027793765068,0.11426257342100143,0.09792935103178024,0.002226016251370311,-0.04334506019949913,0.042775508016347885,0.08411326259374619,-0.0424560084939003,0.06432278454303741,0.09990528225898743,0.04802965745329857,-0.06797555088996887,0.10752702504396439,-0.10542178899049759,0.04785019904375076,0.04455215856432915,-0.03277961164712906,0.021993057802319527,0.03711245208978653,0.06641849875450134,0.11095993220806122,-0.0015258626081049442,0.0529482364654541
า,-0.022526899352669716,0.129797101020813,-0.01226024143397808,0.036313872784376144,0.05529042333364487,0.06655345857143402,0.09065926820039749,-0.0035692034289240837,-0.10741910338401794,-0.03077421337366104,-0.10226959735155106,-0.10428957641124725,0.0780555009841919,-0.06577656418085098,-0.08479698747396469,0.08785825967788696,0.04067340865731239,-0.03203486278653145,0.06649249792098999,0.006166663486510515,-0.10434185713529587,-0.097779281437397,-0.013230298645794392,-0.08180983364582062,-0.03361835330724716,0.11690671741962433,0.09624587744474411,-0.014404065907001495,0.06587816029787064,0.11182232946157455,0.07724147289991379,0.06175469234585762,0.0052347006276249886,0.09132963418960571,0.06683186441659927,-0.07972730696201324,0.06833281368017197,-0.034542396664619446,0.10389528423547745,-0.09654059261083603,-0.06812828034162521,0.03861415013670921,0.07958302646875381,0.005415243096649647,-0.06206522509455681,-0.07666973769664764,-0.08125264197587967,-0.008012454956769943,-0.05646950379014015,-0.11719223856925964,-0.08166281878948212,-0.03627371788024902,0.028773177415132523,-0.002525376621633768,-0.035509850829839706,0.06152353435754776,0.016491329297423363,0.05570225045084953,-0.0722697526216507,0.09257937222719193,-0.02942822314798832,0.06010973080992699,-0.08183286339044571,-0.029425527900457382,0.00849059782922268,-0.0680718719959259,0.017589248716831207,-0.05003926157951355
ำ,0.042476192116737366,0.09991197288036346,0.07111771404743195,0.020459039136767387,-0.09720603376626968,0.04099509119987488,-0.0083894869312644,-0.08899877965450287,0.021214714273810387,-0.11458336561918259,0.07071217894554138,0.056272879242897034,-0.03187127411365509,0.09490235894918442,-0.07984425872564316,-0.06885959953069687,-0.09363578259944916,0.09978789836168289,-0.05766267701983452,-0.10989344120025635,0.043009575456380844,0.013517056591808796,0.016705600544810295,-0.012428785674273968,0.03148698806762695,-0.03954696282744408,-0.11460316181182861,0.09568895399570465,-0.027314871549606323,-0.04193783551454544,-0.03658963739871979,0.07300591468811035,-0.0037190092261880636,-0.07830943167209625,-0.08614487946033478,0.05262184888124466,-0.10125628858804703,0.01804354041814804,-0.10174118727445602,0.0019659893587231636,0.09546122699975967,-0.09563850611448288,-0.005327115301042795,0.04239831864833832,-0.07318741083145142,0.07677831500768661,0.01975134015083313,0.06957870721817017,0.055939655750989914,0.08156746625900269,-0.06549015641212463,0.10056092590093613,-0.0030976354610174894,0.04419973865151405,-0.01674952171742916,0.08548268675804138,0.07118698209524155,0.04825940728187561,-0.05334620550274849,0.04492634907364845,-0.06328026950359344,0.08714180439710617,0.11150197684764862,0.11367963254451752,-0.06061624363064766,-0.07314855605363846,0.06846347451210022,0.04997589439153671
ใ,0.04869122803211212,0.03395327553153038,0.02660500817000866,0.11723735183477402,0.050286177545785904,-0.10407445579767227,0.11589483171701431,0.06127048656344414,-0.026065224781632423,0.09094513207674026,0.09191840887069702,-0.10122647136449814,-0.010926621966063976,0.052687905728816986,0.016089817509055138,0.006304329261183739,-0.09656567126512527,-0.08137201517820358,-0.005139751825481653,0.023412693291902542,0.08665172010660172,-0.1006685197353363,0.07335695624351501,0.03278002142906189,0.025470994412899017,-0.002527632052078843,0.1101238876581192,0.05926395580172539,-0.04132433608174324,0.10384517908096313,-0.10614696145057678,-0.000994703033939004,0.11239168792963028,0.05427158251404762,0.10600440204143524,0.016205789521336555,-0.06647197157144547,-0.10339007526636124,0.03970205783843994,-0.11330919712781906,0.08056984096765518,-0.005360044538974762,-0.09699942916631699,0.10333600640296936,-0.09663819521665573,-0.05684819445014,0.04646403715014458,-0.04427589103579521,0.11326466500759125,0.03911580890417099,0.0977807268500328,0.1047552302479744,-0.0055261231027543545,-0.09116096049547195,-0.0007771716918796301,-0.08391213417053223,0.06089359521865845,-0.07801162451505661,0.048319436609745026,0.00977447722107172,0.047776609659194946,-0.019655238837003708,-0.005709399469196796,-0.06350715458393097,-0.030849894508719444,0.009638503193855286,-0.09486652165651321,-0.05144685134291649
ไ,-0.01882275752723217,-0.05500350892543793,0.0744968056678772,-0.09563129395246506,-0.06191861256957054,-0.021448805928230286,-0.1119588315486908,0.044731661677360535,0.10619482398033142,0.0664096251130104,0.050481218844652176,0.08313687890768051,0.11053498834371567,-0.01305333711206913,-0.005063253920525312,0.0137233417481184,0.10154711455106735,-0.07033246755599976,-0.0534084215760231,0.11284061521291733,-0.04320183023810387,0.07618201524019241,0.04532186686992645,0.04390118271112442,-0.07674426585435867,0.06733821332454681,0.005544026382267475,-0.05725891515612602,0.06742479652166367,0.026108192279934883,-0.06717435270547867,-0.05449753254652023,0.11890606582164764,0.0018104428891092539,-0.0037977707106620073,-0.016422422602772713,-0.09089645743370056,0.09362639486789703,-0.06191612035036087,-0.023762227967381477,0.12360385060310364,0.06108822301030159,0.011546246707439423,-0.0693109855055809,-0.08265739679336548,0.10469430685043335,0.035405222326517105,-0.08480051159858704,-0.0922156497836113,-0.04749888926744461,-0.12046505510807037,0.014396064914762974,-0.12379507720470428,0.09178698807954788,0.023098930716514587,-0.04096038267016411,-0.09506881982088089,0.020208856090903282,0.11709846556186676,-0.04790690913796425,-0.05080091580748558,0.10750669240951538,0.08306650817394257,0.12197531759738922,0.026206767186522484,0.0862371101975441,-0.08360207080841064,0.11466051638126373
็,0.04967966303229332,-0.10051146149635315,-0.06441208720207214,-0.10421933978796005,-0.06392814964056015,0.09243454784154892,-0.06303305178880692,0.03759514540433884,0.10112753510475159,0.09908001869916916,0.09075150638818741,-0.027964217588305473,-0.07023828476667404,-0.07760447263717651,0.0005454818601720035,0.054722052067518234,-0.019411899149417877,-0.08334922790527344,-0.11167387664318085,0.030490795150399208,-0.11175152659416199,0.08269590139389038,-0.10354199260473251,-0.05441679060459137,0.004942563362419605,-0.008304606191813946,0.06733433157205582,-0.11403302848339081,0.04733583703637123,-0.10377521067857742,0.08535037189722061,0.08291888236999512,-0.026431608945131302,0.11915864050388336,0.07385376840829849,0.0898916944861412,-0.03746920824050903,0.10089939832687378,0.08363667875528336,-0.08779387921094894,-0.046612318605184555,0.055550530552864075,0.015861868858337402,-0.10889257490634918,0.039659835398197174,-0.08507043868303299,-0.07641993463039398,-0.04398025944828987,-0.10263658314943314,-0.10439424216747284,0.11369841545820236,-0.09579678624868393,0.04480400308966637,-0.05169215798377991,0.1009703278541565,0.035711027681827545,0.08705012500286102,0.10070095211267471,0.07403849065303802,0.028409363701939583,0.034773800522089005,-0.00866042822599411,-0.04022620990872383,-0.031251274049282074,-0.0876859575510025,-0.09386475384235382,0.11907574534416199,0.029475271701812744
่,-0.027449078857898712,-0.10917869955301285,-0.08954302221536636,-0.10147883743047714,-0.10106270015239716,0.01712975837290287,-0.04799317568540573,-0.05078785493969917,-0.03485346958041191,0.08102098852396011,-0.07353048026561737,-0.04698798060417175,0.07617314159870148,-0.03622385859489441,-0.0710315853357315,0.05064335837960243,0.08645214885473251,0.08914987742900848,-0.027874691411852837,-0.08501642197370529,0.040959615260362625,-0.1103055402636528,-0.0613466314971447,0.06161816418170929,0.05981311574578285,-0.04045434296131134,-0.030054379254579544,-0.09445921331644058,0.027439378201961517,0.017691081389784813,0.11935477703809738,-0.025845371186733246,-0.020896755158901215,0.10317632555961609,-0.058233991265296936,0.0041608624160289764,-0.08451734483242035,-0.09515722095966339,-0.048560187220573425,0.09044071286916733,-0.054572273045778275,-0.014886902645230293,-0.02713240496814251,0.10064692050218582,0.036683376878499985,0.002296966267749667,0.02375064045190811,-0.01526011060923338,0.027587682008743286,0.06570246815681458,-0.10723584145307541,-0.02643446996808052,-0.02901129424571991,-0.038736600428819656,-0.007586871739476919,0.0727677047252655,-0.018207019194960594,0.006498063914477825,0.10375279188156128,-0.0867723599076271,0.11416266858577728,0.05587732419371605,-0.08595443516969681,0.0251707062125206,0.017205823212862015,-0.06710398197174072,0.058567266911268234,-0.028551900759339333
้,0.05000120773911476,-0.06471925973892212,0.12073304504156113,0.12230012565851212,-0.06014231964945793,0.09613949060440063,-0.10013516247272491,-0.008892156183719635,-0.043805547058582306,0.0008444949635304511,-0.04867898300290108,0.009680886752903461,-0.08797129988670349,0.09442964941263199,0.021324938163161278,0.07734910398721695,-0.09171313047409058,-0.04499835520982742,0.06563024967908859,-0.019539309665560722,-0.10724611580371857,-0.06889940798282623,-0.11574932932853699,0.046741001307964325,-0.12767575681209564,-0.03355463221669197,-0.08648567646741867,-0.06777285784482956,0.07036451995372772,0.05863509699702263,0.06808879226446152,0.1046244353055954,-0.04290005564689636,0.04400511085987091,0.0033752804156392813,0.11141865700483322,-0.05768101289868355,-0.08728727698326111,-0.04177813604474068,-0.0031952711287885904,0.060353901237249374,-0.09293287992477417,-0.026985399425029755,-0.12182961404323578,-0.022648293524980545,0.05845651775598526,0.0860968753695488,-0.03945360332727432,0.09922031313180923,0.07637295871973038,-0.11481510102748871,0.09850907325744629,-0.035273242741823196,-0.09990014135837555,-0.09164176881313324,-0.09186581522226334,-0.04506921023130417,-0.10368311405181885,0.0997462198138237,0.059114087373018265,0.12544769048690796,-0.024171127006411552,-0.015095531940460205,-0.08994149416685104,0.02721894532442093,0.11523613333702087,0.0022975958418101072,-0.00991013739258051
๊,0.12261375784873962,0.09070339053869247,0.04169367253780365,0.055761538445949554,-0.11752012372016907,-0.026036623865365982,0.008219260722398758,0.10699403285980225,0.12302990257740021,0.06712555885314941,0.004539573565125465,0.03478633612394333,-0.07772902399301529,0.02720143459737301,-0.0031188749708235264,0.058097995817661285,0.10275829583406448,0.023373577743768692,0.0015755462227389216,0.11876875162124634,-0.02802519127726555,0.03352295234799385,-0.033116258680820465,-0.029565289616584778,0.08505108952522278,-0.03269194811582565,-0.09207259863615036,-0.004349779337644577,-0.023702476173639297,-0.07948941737413406,-0.005152883939445019,0.07753807306289673,0.04384516552090645,-0.018183359876275063,0.09231661260128021,-0.09776289761066437,-0.052657321095466614,-0.04329923540353775,-0.11837241798639297,0.0002224375493824482,-0.06873539090156555,0.08358458429574966,-0.014740715734660625,-0.09942089766263962,0.05175042897462845,0.09497547149658203,-0.024885445833206177,-0.0852256640791893,0.026168208569288254,-0.09873274713754654,-0.027073465287685394,0.00018958369037136436,0.10480590164661407,0.04889044910669327,-0.019421283155679703,-0.09049662947654724,0.057596880942583084,0.10809940099716187,0.08727389574050903,-0.033711276948451996,0.03310791403055191,-0.027099525555968285,-0.04787956178188324,0.03630421683192253,0.023532619699835777,-0.03886419162154198,-0.020734477788209915,0.03869073465466499
๋,0.0022426012437790632,0.010941743850708008,0.08695411682128906,-0.10532288998365402,-0.10554512590169907,0.1263895034790039,-0.03137288987636566,0.09312225878238678,0.05966707319021225,-0.054280154407024384,-0.0746503472328186,0.08246161788702011,-0.0745389312505722,0.054766811430454254,0.06935898959636688,0.015181377530097961,0.062456510961055756,0.11530636996030807,-0.03289470821619034,-0.09457289427518845,-0.0028940963093191385,-0.025409962981939316,0.08777588605880737,0.09355229884386063,0.042964495718479156,0.025108076632022858,-0.06472253799438477,0.04447821527719498,0.06241222843527794,-0.009168369695544243,-0.019358592107892036,-0.07747010141611099,-0.10306643694639206,-0.10227803885936737,-0.08937199413776398,0.08644784241914749,-0.07716476172208786,0.09107185155153275,-0.07050711661577225,0.04617675021290779,-0.07375318557024002,0.019989054650068283,-0.06586506962776184,0.030911235138773918,-0.07125618308782578,0.0077144973911345005,-0.002567538758739829,-0.11993451416492462,-0.023972203955054283,0.042427100241184235,0.09795922785997391,-0.07570324093103409,0.03014121577143669,0.07261962443590164,0.03909548372030258,-0.0050255111418664455,-0.06009332835674286,-0.062496621161699295,-0.05201353132724762,-0.07602258026599884,0.09225902706384659,-0.07060232013463974,0.03282066434621811,0.1112663745880127,0.08504722267389297,0.014260376803576946,0.04441910982131958,-0.026856213808059692
์,-0.1004026010632515,-0.12569688260555267,0.1176537275314331,0.015565947629511356,-0.011052609421312809,0.11195825785398483,0.11532467603683472,0.04358324781060219,0.037679217755794525,0.07801549881696701,-0.09679177403450012,0.09693627059459686,-0.045113373547792435,-0.002130430191755295,0.03173670545220375,-0.044264305382966995,-0.01861638016998768,-0.08163468539714813,0.06343620270490646,0.11256279796361923,-0.09166719019412994,-0.11476634442806244,-0.034347400069236755,-0.007688311859965324,-0.032434530556201935,0.06469643115997314,0.01981324702501297,0.027205517515540123,-0.08036858588457108,-0.11070472002029419,0.06826765835285187,-0.012122922576963902,0.038103390485048294,-0.0759207084774971,-0.042196694761514664,0.0739656537771225,-0.03736496344208717,0.08660916984081268,-0.016887830570340157,-0.028894634917378426,0.055748503655195236,-0.049085259437561035,-0.11478503048419952,-0.05991509184241295,0.015528593212366104,0.005490909330546856,-0.08253450691699982,-0.08789205551147461,0.0963808223605156,0.09083417803049088,0.11499974876642227,-0.10285818576812744,-0.018088188022375107,0.01271905843168497,0.026060404255986214,0.04872170835733414,0.05208250507712364,-0.0993792787194252,0.05578799545764923,0.075155109167099,-0.040764909237623215,0.032588664442300797,0.02056928165256977,0.07183928042650223,-0.014950078912079334,0.020149948075413704,-0.09202662855386734,-0.03635324910283089
