์,-0.06865095347166061,0.14360490441322327,-0.10175451636314392,0.04645936191082001,0.30212149024009705,-0.1191139966249466,0.16426514089107513,0.3827173709869385,0.1008610650897026,-0.03048625960946083,-0.102177195250988,-0.21216072142124176,0.1040608361363411,-0.054575905203819275,0.07387211173772812,0.05102667585015297,0.12037598341703415,-0.054039932787418365,-0.0989568680524826,0.15984518826007843,0.2502979040145874,0.1486542671918869,0.1926637589931488,-0.0189918614923954,-0.2892721891403198,-0.167917400598526,0.06058669835329056,0.13655346632003784,0.055439241230487823,-0.22041773796081543,-0.24548161029815674,-0.07130452990531921,0.2958531975746155,-0.2981320917606354,0.08440972864627838,-0.1572628915309906,0.20574939250946045,-0.2448924034833908,-0.04590983688831329,-0.22032852470874786,0.2636342942714691,0.05708615481853485,-0.06665918231010437,-0.16879135370254517,0.08403810113668442,-0.14440017938613892,-0.16007064282894135,0.3198438286781311,-0.15486598014831543,-0.16822713613510132,-0.1496325582265854,0.1738349050283432,-0.16967326402664185,0.12117728590965271,0.19856880605220795,0.048714615404605865,0.10954569280147552,-0.11334383487701416,-0.046514008194208145,0.1253749132156372,0.4265540540218353,-0.10679793357849121,-0.2522149384021759,0.13001970946788788,-0.22089236974716187,0.03383856266736984,0.253511518239975,-0.22046451270580292
์,0.08653055876493454,-0.047270938754081726,0.0679711326956749,-0.028589779511094093,0.11946568638086319,-0.12789779901504517,0.2463582158088684,0.3115065395832062,0.12380776554346085,-0.021087104454636574,0.12374823540449142,0.037536319345235825,-0.018499761819839478,-0.21299006044864655,0.0950792133808136,0.3219871520996094,0.08181938529014587,0.04766948148608208,-0.08177898824214935,0.0007445830851793289,0.39684414863586426,0.08240736275911331,0.15461929142475128,-0.09661220759153366,-0.22811980545520782,-0.12843269109725952,0.117117740213871,-0.057674821466207504,0.09388649463653564,0.08385780453681946,-0.04969207942485809,0.21070821583271027,0.22260211408138275,-0.46749022603034973,0.010469525121152401,-0.06668835878372192,0.015919454395771027,-0.24399293959140778,-0.12415390461683273,-0.12298344820737839,0.056175414472818375,0.04216870293021202,0.25685250759124756,-0.19380097091197968,0.14405499398708344,-0.09870782494544983,-0.15728826820850372,0.2496943175792694,-0.009771137498319149,-0.3585110902786255,-0.15723083913326263,0.1455559879541397,-0.20243875682353973,0.1845984011888504,0.2457292675971985,0.040747012943029404,0.11729405075311661,-0.13215993344783783,-0.04549654945731163,0.15914715826511383,0.3071609139442444,-0.18093208968639374,-0.08872706443071365,0.11911427229642868,-0.08556649833917618,0.13801828026771545,-0.05046439543366432,-0.20987078547477722
์,-0.08817751705646515,-0.019563941285014153,-0.07526430487632751,-0.026187846437096596,0.24110332131385803,-0.08607925474643707,0.06432214379310608,0.2721410393714905,0.029494041576981544,-0.08190806955099106,0.06312478333711624,-0.1330043524503708,-0.13318514823913574,-0.031853560358285904,0.15392789244651794,0.3160856068134308,0.16116641461849213,-0.07032109051942825,-0.06912056356668472,-0.03203275799751282,0.33411261439323425,-0.02002951130270958,0.16584660112857819,-0.17311160266399384,-0.05494730547070503,-0.060564953833818436,-0.05141785740852356,0.09068252891302109,0.14712561666965485,-0.11886894702911377,-0.14457722008228302,0.001275905640795827,0.10216302424669266,-0.470383882522583,-0.08719734847545624,0.031754326075315475,0.00959827657788992,-0.29473695158958435,0.00993284024298191,-0.04853272810578346,0.0948249101638794,0.11278458684682846,0.27405083179473877,-0.15449653565883636,0.09876228868961334,-0.24088092148303986,-0.029049312695860863,0.16477245092391968,-0.1496497392654419,-0.2990887463092804,-0.1621600091457367,0.04359505698084831,-0.14947348833084106,0.09178438782691956,0.24999257922172546,0.03621751070022583,-0.028967101126909256,-0.22351235151290894,0.0832650437951088,0.15036776661872864,0.501551628112793,0.046902723610401154,-0.08335608243942261,0.14195437729358673,-0.16187548637390137,0.10090228170156479,0.139823317527771,-0.08009316772222519
์,-0.08265654742717743,0.051810555160045624,0.04065690189599991,0.16815321147441864,0.3268500566482544,-0.08614650368690491,0.20437845587730408,0.12429293990135193,0.23364302515983582,-0.1985732764005661,0.2380938082933426,-0.09561018645763397,-0.19828592240810394,-0.013313624076545238,0.05843908339738846,0.5145560503005981,0.08284537494182587,0.04802533984184265,0.09317898750305176,0.16458594799041748,0.49935540556907654,-0.1180470883846283,0.126136913895607,-0.2181869000196457,-0.07185400277376175,0.07614021748304367,0.06495635211467743,0.11235141009092331,0.09730697423219681,-0.003298739902675152,0.0062793949618935585,0.3658650815486908,0.01201577764004469,-0.5459450483322144,-0.1492542177438736,0.1613743007183075,-0.09054733067750931,-0.27407586574554443,-0.11877778172492981,0.12374648451805115,0.008014924824237823,0.07932274788618088,0.3305635452270508,-0.0518917590379715,0.14014720916748047,-0.19210341572761536,-0.016303595155477524,0.1069934070110321,-0.21336525678634644,-0.20509541034698486,-0.38607195019721985,0.19075335562229156,-0.10757797956466675,0.2669490575790405,0.10339830070734024,0.15660618245601654,-0.137935608625412,-0.05251552537083626,-0.13389340043067932,0.0529840849339962,0.3377784788608551,-0.1042613759636879,-0.23660908639431,0.24234913289546967,-0.21145640313625336,0.10602795332670212,-0.03067130409181118,-0.040480636060237885
์,-0.0017202866729348898,0.11477100104093552,-0.16213425993919373,0.15228749811649323,0.047843918204307556,-0.02716614305973053,0.2735091745853424,0.16859903931617737,-0.041374705731868744,0.2562919557094574,0.057654768228530884,-0.05158878490328789,-0.0664185881614685,-0.09015879780054092,-0.16170042753219604,-0.29231905937194824,-0.3169569671154022,-0.6043568849563599,0.06872379779815674,0.09316033124923706,-0.232732355594635,-0.015344349667429924,-0.018275393173098564,0.04026737064123154,-0.10283765196800232,0.13435928523540497,0.19055558741092682,0.00701725110411644,-0.061499323695898056,0.10651807487010956,-0.13290263712406158,0.02883564867079258,-0.18964971601963043,-0.12603028118610382,-0.1896759420633316,0.1755296140909195,-0.09958979487419128,-0.102307990193367,-0.01584835909307003,-0.18449150025844574,-0.13973529636859894,0.2508711516857147,-0.15804161131381989,0.33365532755851746,-0.07072258740663528,-0.14166785776615143,0.045934949070215225,-0.2588397264480591,0.059431325644254684,-0.3166084289550781,0.2183903157711029,-0.11649803072214127,0.014331849291920662,0.20935504138469696,-0.20708249509334564,0.19771891832351685,0.1054387167096138,-0.34987300634384155,-0.26761284470558167,0.17292530834674835,0.11853863298892975,-0.27724820375442505,0.1507444828748703,-0.14644724130630493,-0.3231372535228729,0.17235790193080902,-0.09226501733064651,-0.02071417309343815
์,-0.11865226924419403,-0.08683905750513077,-0.18186551332473755,0.1465928852558136,-0.10428456217050552,0.13793885707855225,0.16896991431713104,0.297080397605896,-0.19974350929260254,0.3071403503417969,-0.10954709351062775,0.17665807902812958,0.06957881897687912,-0.0038587513845413923,-0.12206090986728668,-0.284697562456131,-0.39071977138519287,-0.5910224318504333,-0.1608208566904068,-0.08844231814146042,-0.1948426365852356,0.20794035494327545,-0.1825004518032074,-0.10508834570646286,0.18562288582324982,0.16295716166496277,0.16605275869369507,0.031951818615198135,0.10255904495716095,0.030784912407398224,-0.1196087896823883,-0.08107254654169083,-0.053470756858587265,0.03384532779455185,-0.21157030761241913,-0.08534451574087143,0.12154257297515869,-0.05324435606598854,-0.02871299907565117,-0.17077581584453583,0.012996163219213486,0.0377328135073185,-0.24721595644950867,0.1808491051197052,-0.1280411034822464,-0.10116750001907349,-0.1199764609336853,-0.11170809715986252,0.1920752376317978,-0.09740028530359268,0.007423195522278547,-0.07246619462966919,0.036038074642419815,-0.07694371044635773,-0.17949488759040833,0.04173706844449043,0.28712567687034607,-0.19282279908657074,-0.12113258987665176,0.07365887612104416,-0.15398608148097992,0.03298867121338844,0.19850768148899078,-0.11229534447193146,-0.26255473494529724,-0.02226458676159382,-0.13988719880580902,-0.03772968053817749
์,-0.1558178812265396,-0.029554925858974457,-0.17968682944774628,0.10149136930704117,-0.06538309156894684,0.019079195335507393,0.21791785955429077,0.2452758252620697,-0.128795325756073,0.3611792325973511,-0.03841744363307953,-0.019670331850647926,0.12346754223108292,0.005647515412420034,-0.15427646040916443,-0.3812952935695648,-0.4310273230075836,-0.3973078727722168,-0.25204193592071533,-0.16176721453666687,-0.23423975706100464,0.17205213010311127,-0.14446866512298584,-0.024966532364487648,0.18629063665866852,0.06685450673103333,0.0926625058054924,-0.06851068139076233,-0.06236804649233818,0.0024536196142435074,-0.2167283594608307,0.04865945503115654,-0.004166131839156151,-0.12275060266256332,0.03774655982851982,-0.0025499919429421425,0.08745645731687546,-0.10072290152311325,-0.016843494027853012,-0.06255131214857101,0.05327237397432327,0.17072641849517822,-0.096198171377182,0.2922362685203552,-0.184087872505188,-0.0730798989534378,-0.11337573081254959,-0.24255575239658356,0.1635071486234665,-0.09952222555875778,0.004469746258109808,-0.07562880218029022,0.039023175835609436,0.05790778249502182,-0.17227189242839813,-0.09399377554655075,0.3933640718460083,-0.20936883985996246,-0.013032468967139721,0.19454453885555267,-0.052012849599123,-0.05527954548597336,0.15058700740337372,-0.20683163404464722,-0.3542281985282898,-0.10718726366758347,-0.0949612632393837,-0.19700780510902405
์,-0.19738347828388214,0.19802899658679962,0.027756735682487488,0.19081427156925201,-0.25233593583106995,0.028187131509184837,0.2878330647945404,-0.047576211392879486,0.2038455754518509,0.07899389415979385,-0.02568991295993328,0.09743764251470566,0.015351258218288422,-0.1532907336950302,0.032846033573150635,-0.06731496751308441,-0.3616388440132141,-0.16291800141334534,-0.055507730692625046,0.0873996913433075,-0.06467561423778534,0.11600346118211746,-0.22601452469825745,0.19675201177597046,0.07344160974025726,-0.37994301319122314,0.21822874248027802,-0.08945757150650024,0.08371012657880783,-0.22933970391750336,-0.08633106201887131,-0.30268412828445435,-0.06476154923439026,0.2305101603269577,-0.04766587167978287,-0.06370074301958084,0.03202904760837555,-0.0003232699236832559,-0.1641969233751297,0.09431032836437225,0.11460050195455551,-0.017712093889713287,-0.164195254445076,0.022499660030007362,-0.21063834428787231,0.030540216714143753,0.24716979265213013,-0.1775653213262558,-0.016255168244242668,0.022098258137702942,0.26374146342277527,-0.17331108450889587,-0.1250162422657013,0.0634734183549881,-0.15167386829853058,0.10267549008131027,0.017414893954992294,-0.21171872317790985,-0.049691278487443924,-0.22918474674224854,0.5879013538360596,-0.09243758767843246,0.2115509808063507,-0.18270249664783478,-0.004674986470490694,0.1510746330022812,0.1764945536851883,-0.2892072796821594
์,-0.10913017392158508,0.24996183812618256,0.26131924986839294,0.20607978105545044,0.09715797752141953,0.012705125845968723,0.3390980660915375,0.29746270179748535,0.17412252724170685,-0.045482389628887177,0.01063733734190464,-0.1523677110671997,0.030705109238624573,-0.3793591260910034,0.14000540971755981,0.17235241830348969,-0.08501040935516357,-0.08830995857715607,0.023999590426683426,0.05289727449417114,0.011079336516559124,-0.07703801244497299,0.05494580417871475,0.20310017466545105,-0.083908312022686,-0.5128961801528931,0.05663975700736046,0.07567228376865387,-0.05756409466266632,-0.3059300184249878,-0.24912667274475098,-0.10644039511680603,0.3178284466266632,0.04623148590326309,0.020983250811696053,-0.17672838270664215,0.3640252649784088,-0.16650399565696716,-0.22349843382835388,-0.2730570435523987,0.17704930901527405,-0.16033333539962769,-0.1040494367480278,-0.26109579205513,0.028409896418452263,-0.20062415301799774,0.06506597995758057,0.18716923892498016,-0.14854837954044342,-0.09506122022867203,0.14588473737239838,-0.06273317337036133,-0.0567765049636364,0.07654604315757751,0.08587529510259628,0.12720073759555817,0.08212816715240479,-0.17823463678359985,0.0405699647963047,-0.26465722918510437,0.7914238572120667,-0.13341985642910004,-0.016475185751914978,-0.14371199905872345,-0.1330757588148117,0.17667342722415924,0.3050940930843353,-0.2870382070541382
์,-0.009036379866302013,0.09599200636148453,-0.20227251946926117,0.23801244795322418,-0.020497838035225868,0.13766978681087494,0.2570621967315674,0.07324370741844177,-0.10229911655187607,0.11201299726963043,-0.14168542623519897,0.018445920199155807,0.1528538018465042,0.10962917655706406,0.07573650032281876,-0.19709829986095428,-0.45633435249328613,-0.569269597530365,-0.04850698634982109,-0.1436597853899002,-0.1468198299407959,-0.06810427457094193,-0.171698659658432,-0.14280250668525696,0.20295962691307068,0.07576904445886612,0.10923714190721512,0.06319230794906616,0.07921674847602844,0.09925342351198196,-0.09009724110364914,-0.02188122272491455,-0.07213640213012695,-0.07764922082424164,-0.20001648366451263,0.1573277711868286,0.013048813678324223,-0.2413768619298935,-0.04921406880021095,0.015442767180502415,-0.14165930449962616,0.006931580137461424,0.07105652987957001,0.26798170804977417,-0.09871983528137207,0.04214424267411232,-0.05490921065211296,-0.07355685532093048,0.0205828957259655,-0.09267553687095642,0.03026827611029148,-0.12370222061872482,0.1286960393190384,-0.027281705290079117,0.004338111728429794,-0.024633711203932762,0.15798725187778473,-0.2194206863641739,-0.18112900853157043,-0.05620428919792175,-0.013295075856149197,-0.22643370926380157,0.19729752838611603,-0.0474519319832325,-0.19690082967281342,-0.0014275743160396814,-0.27736982703208923,-0.07084274291992188
์,-0.11871777474880219,0.008936983533203602,-0.1327877789735794,0.1799754649400711,0.0039446535520255566,0.08770903199911118,0.30164191126823425,0.2549152076244354,-0.04425576329231262,0.23010936379432678,-0.0441000796854496,0.13510210812091827,-0.015904949977993965,0.06972115486860275,-0.007671724539250135,-0.10117878019809723,-0.3320102393627167,-0.48692619800567627,-0.12688294053077698,-0.18819387257099152,-0.07904068380594254,-0.03703318536281586,-0.22418855130672455,-0.05982281640172005,0.19495543837547302,0.20202191174030304,0.10271689295768738,0.061990175396203995,-0.02038728818297386,-0.04165797308087349,-0.07241620123386383,-0.0458047091960907,-0.13100533187389374,-0.009609809145331383,-0.14564034342765808,0.21730779111385345,0.02859390340745449,-0.06623779982328415,-0.1763451099395752,0.0771775022149086,-0.07263508439064026,0.0961771160364151,-0.01899835281074047,0.07987812161445618,-0.10241309553384781,-0.0037620796356350183,-0.03908044472336769,-0.05107038840651512,0.10858157277107239,-0.15001873672008514,-0.07664694637060165,-0.11211436986923218,0.04588077962398529,0.12214469164609909,-0.03164555877447128,0.13685761392116547,0.32080841064453125,-0.23625648021697998,-0.17975710332393646,0.02025172859430313,-0.08368124812841415,-0.14109937846660614,0.15831589698791504,-0.06733313202857971,-0.32451340556144714,-0.019514132291078568,-0.2411540001630783,0.008898595348000526
์,-0.1379791647195816,-0.07993186265230179,-0.24336664378643036,0.05525507032871246,-0.03720691055059433,0.005006488878279924,0.22128663957118988,0.2053144872188568,-0.06760942190885544,0.22380520403385162,0.043920453637838364,0.024957779794931412,0.16374841332435608,-0.016364339739084244,-0.034436844289302826,-0.05451912805438042,-0.28557804226875305,-0.5197395086288452,-0.11836383491754532,-0.14324066042900085,-0.09250343590974808,-0.006541190203279257,-0.12902864813804626,-0.19641275703907013,0.22345316410064697,0.23626595735549927,0.11909505724906921,0.11371323466300964,0.008034227415919304,0.06821008026599884,-0.059374600648880005,-0.017882943153381348,-0.11281397938728333,-0.22717604041099548,-0.06836159527301788,0.08322050422430038,-0.018258005380630493,-0.056621942669153214,-0.10391245782375336,-0.003335950430482626,-0.14868272840976715,0.15597659349441528,0.08455907553434372,0.18642449378967285,-0.09019223600625992,0.05869712308049202,-0.03858938440680504,-0.12795871496200562,0.002898189704865217,-0.1427628993988037,-0.1315535604953766,0.01671409048140049,0.17720258235931396,-0.06839530915021896,0.000747607322409749,-0.046468399465084076,0.26952651143074036,-0.27510160207748413,-0.08060120046138763,0.1996707171201706,-0.03182219713926315,0.04008619114756584,0.14875605702400208,-0.1239747554063797,-0.2535277009010315,0.053227562457323074,-0.23144195973873138,-0.10346273332834244
์,-0.03353317826986313,0.0063036042265594006,-0.02637026086449623,0.17721734941005707,0.06431927531957626,-0.0011503915302455425,0.159203439950943,0.25400373339653015,-0.047335799783468246,0.21440118551254272,-0.038052383810281754,0.18611082434654236,0.1764984279870987,0.12259665876626968,0.12383989989757538,-0.11826485395431519,-0.4020725190639496,-0.5150607824325562,0.010445065796375275,-0.10902482271194458,-0.04168462008237839,-0.087226502597332,-0.2697114050388336,-0.034431785345077515,0.16609694063663483,0.27301982045173645,-0.0011446198914200068,-0.03332114964723587,0.014190171845257282,-0.007786838337779045,0.030649956315755844,-0.04332412779331207,-0.10824303328990936,-0.25158971548080444,-0.22511045634746552,0.06188695877790451,-0.13572059571743011,-0.06643785536289215,-0.04895101115107536,-0.13813181221485138,-0.0037147453986108303,0.08104810863733292,-0.07041077315807343,0.252872496843338,0.06758158653974533,0.005013440269976854,0.06242874264717102,-0.17776955664157867,0.1699739247560501,-0.13108587265014648,-0.08817874640226364,0.11399688571691513,0.10615992546081543,0.0864613726735115,0.12460734695196152,-0.12156620621681213,0.23644238710403442,-0.0952601432800293,-0.08323611319065094,0.05179101228713989,-0.12138976156711578,-0.0698789730668068,0.07765862345695496,-0.11098810285329819,-0.27809983491897583,-0.15822093188762665,-0.2960479259490967,-0.0916285589337349
์,-0.06903839856386185,0.01407531090080738,-0.21188229322433472,0.2072991579771042,0.09148608893156052,0.0977562740445137,0.21523737907409668,0.05377209931612015,-0.0329899787902832,0.22292232513427734,0.02317073941230774,0.10292643308639526,0.10760044306516647,0.17159050703048706,-0.012185621075332165,-0.1460980623960495,-0.3136715590953827,-0.44618234038352966,-0.1979319006204605,-0.25340691208839417,-0.019607245922088623,0.0035450526047497988,-0.29422029852867126,-0.037131328135728836,0.08691560477018356,0.24971646070480347,0.21193921566009521,0.04395826905965805,0.16142615675926208,-0.03538113832473755,-0.11556876450777054,0.16129694879055023,-0.040590085089206696,-0.1140587106347084,-0.22586295008659363,0.15227802097797394,-0.05310444533824921,-0.1282867193222046,-0.06899972259998322,-0.13509421050548553,-0.03005450963973999,0.21942073106765747,0.031470295041799545,0.22712306678295135,-0.11266549676656723,0.10109442472457886,0.058163635432720184,-0.2073775678873062,0.07881468534469604,-0.004936144221574068,0.021491780877113342,0.023904023692011833,0.12291714549064636,0.06893004477024078,-0.0043679578229784966,-0.11223209649324417,0.1613732874393463,-0.16628791391849518,-0.0844281017780304,0.07754649221897125,-0.07347452640533447,0.0041132583282887936,0.09092020243406296,-0.2395499348640442,-0.3328484892845154,-0.09641923755407333,-0.18072591722011566,0.07440458983182907
์,0.018900379538536072,0.028826072812080383,-0.0600571446120739,0.03416875749826431,0.012902219779789448,-0.023721493780612946,0.20869696140289307,0.15691368281841278,0.06319023668766022,0.22240117192268372,-0.17148785293102264,0.02726469747722149,0.0678776428103447,-0.010176785290241241,0.02223915606737137,-0.1957789957523346,-0.38693785667419434,-0.3644171357154846,-0.0893174484372139,-0.2149915248155594,0.032002147287130356,0.09871815145015717,-0.1544586718082428,-0.24514375627040863,0.07907045632600784,0.1439685821533203,0.10352684557437897,-0.018444042652845383,0.08188452571630478,-0.026965724304318428,-0.02982385829091072,0.19703145325183868,-0.23902468383312225,-0.17885445058345795,-0.20434705913066864,0.14649543166160583,-0.009106163866817951,-0.20213516056537628,-0.08605790883302689,-0.06665044277906418,-0.12062574177980423,0.18494246900081635,0.1341923028230667,0.29535743594169617,-0.01622464507818222,0.023750578984618187,0.03579133749008179,-0.19617171585559845,0.14766530692577362,-0.1841563880443573,-0.07676324993371964,0.018712278455495834,0.09485327452421188,-0.008852050639688969,-0.08050929009914398,-0.13452158868312836,0.3524349629878998,-0.1088259294629097,-0.15966762602329254,0.053874824196100235,-0.042825207114219666,-0.14150387048721313,0.2165055125951767,-0.23262587189674377,-0.2567555010318756,-0.022068701684474945,-0.18496564030647278,-0.07264486700296402
์,-0.20316214859485626,0.10431323200464249,0.2083563357591629,0.1765143722295761,-0.24427305161952972,0.06412812322378159,0.2056298553943634,-0.05711931362748146,0.21180927753448486,-0.07143647968769073,0.15548862516880035,-0.014591212384402752,-0.05008779466152191,-0.14929722249507904,0.06845270842313766,0.05797448009252548,-0.3164362907409668,-0.16862480342388153,0.1703161597251892,0.017531519755721092,-0.03213755041360855,0.11975165456533432,-0.22016118466854095,0.04810280352830887,0.11511284857988358,-0.030367903411388397,0.2732411324977875,-0.13084062933921814,0.1878928691148758,-0.2315257489681244,-0.05118508264422417,-0.06319113820791245,-0.14010509848594666,0.014664197340607643,-0.160235196352005,0.08643315732479095,0.0789773091673851,0.025016652420163155,-0.21115782856941223,0.26254457235336304,0.00904606468975544,-0.17176754772663116,-0.09711544960737228,-0.13500909507274628,-0.03470246121287346,0.044853340834379196,0.36786535382270813,-0.03387065231800079,-0.12876591086387634,8.814985631033778e-05,0.21278181672096252,0.06189444288611412,0.015106916427612305,-0.037030722945928574,-0.039447080343961716,4.561385867418721e-05,0.0415402390062809,-0.28361406922340393,-0.10671726614236832,-0.43852609395980835,0.4211612343788147,-0.19763155281543732,0.29984965920448303,0.10898976027965546,-0.16079913079738617,0.20707155764102936,0.003171187127009034,-0.34371379017829895
์,-0.08359992504119873,0.29098331928253174,0.10047153383493423,0.3291895389556885,-0.10407854616641998,-0.05311497300863266,0.1922767162322998,-0.20805445313453674,0.14260275661945343,-0.12021021544933319,0.25783899426460266,0.15691572427749634,0.0664365142583847,-0.04640956223011017,0.13198941946029663,0.11274367570877075,-0.3944733440876007,-0.16810894012451172,0.07605588436126709,0.1957588493824005,-0.034155961126089096,-0.07918718457221985,-0.15655240416526794,0.14676325023174286,0.19112670421600342,-0.11624249815940857,0.15002436935901642,-0.031205536797642708,0.1532033532857895,-0.2265838086605072,-0.024126257747411728,0.025328049436211586,-0.1797066479921341,0.08188246935606003,-0.027066074311733246,0.09470099955797195,-0.059201471507549286,0.038803063333034515,-0.26720839738845825,0.18451477587223053,0.18519844114780426,-0.10163310915231705,-0.022721650078892708,-0.040871601551771164,-0.21598893404006958,0.10663460195064545,0.2873898446559906,-0.04979020357131958,0.07309111952781677,0.0015981694450601935,0.17502902448177338,-0.03541630879044533,-0.10883235931396484,0.10106881707906723,-0.05845550075173378,-0.0009809309849515557,0.10144785791635513,-0.33804887533187866,-0.02194490097463131,-0.23992294073104858,0.49232274293899536,-0.1089903712272644,0.2685920298099518,0.058306965976953506,-0.009351516142487526,0.23100514709949493,0.002208633115515113,-0.29587242007255554
์,-0.07320859283208847,0.15331779420375824,0.11526454985141754,0.10153982788324356,-0.00020681812020484358,0.07841663062572479,0.28193399310112,0.08923788368701935,0.23028041422367096,0.1344354748725891,0.09836583584547043,-0.007426893338561058,-0.1266629844903946,-0.250499427318573,0.05500306189060211,0.31303155422210693,-0.01552792638540268,-0.23318661749362946,0.20110279321670532,0.11774085462093353,0.18433207273483276,-0.2461749017238617,-0.08031374961137772,-0.026364237070083618,0.03781796619296074,-0.26689350605010986,0.09684423357248306,0.06755638867616653,-0.05317555367946625,-0.2828991711139679,-0.11565232276916504,0.07766653597354889,0.23519998788833618,-0.14280997216701508,0.11121070384979248,0.012187720276415348,0.244908407330513,-0.006249999161809683,-0.16334424912929535,-0.13714540004730225,0.11976262927055359,-0.19726894795894623,-0.043918024748563766,-0.3218487799167633,-0.01283253449946642,-0.06110722944140434,0.21219950914382935,0.22831261157989502,-0.08877941220998764,-0.3449290990829468,0.02582850679755211,0.04120906442403793,-0.1814229041337967,0.280203253030777,0.09772063046693802,0.27044251561164856,0.06113738939166069,-0.34562012553215027,0.02468290738761425,-0.20787757635116577,0.7390269637107849,-0.006831423845142126,0.0538034662604332,-0.12741929292678833,-0.27720388770103455,0.17722797393798828,0.07022076100111008,-0.288456529378891
์,0.030894067138433456,0.1247604712843895,0.12060273438692093,0.22425590455532074,-0.06318330764770508,-0.005803720559924841,0.41285082697868347,0.1386927366256714,0.0642443299293518,-0.0624874085187912,-0.051842235028743744,0.03143821656703949,-0.1086772233247757,-0.27413758635520935,0.2392866611480713,0.40856415033340454,-0.22389614582061768,-0.06231347844004631,0.12569080293178558,0.11954299360513687,0.2565373182296753,-0.144626647233963,0.04652955010533333,0.1351635903120041,-0.052484117448329926,-0.23605190217494965,-0.04371693357825279,0.041712600737810135,-0.05217701569199562,-0.15658503770828247,-0.13368156552314758,-0.09271903336048126,0.112385593354702,0.0018063466995954514,0.11889726668596268,0.00210094777867198,0.23939500749111176,-0.20034217834472656,-0.18620456755161285,-0.16183501482009888,0.2376294583082199,-0.03915008157491684,0.06983944773674011,-0.1783512681722641,-0.046454112976789474,0.019072437658905983,0.15204933285713196,0.06044792756438255,-0.07568332552909851,-0.33530089259147644,-0.14603324234485626,-0.0773373544216156,-0.12322863191366196,0.23224058747291565,0.0843459740281105,0.2605101764202118,-0.04836041480302811,-0.26753273606300354,-0.10950750857591629,-0.1687469333410263,0.7492560744285583,-0.19940848648548126,0.030924811959266663,0.021579308435320854,-0.21469227969646454,-0.024382708594202995,0.15210917592048645,-0.3824640214443207
์,-0.11216425150632858,0.05904288962483406,-0.0961521565914154,0.19667281210422516,0.12418904155492783,0.014523802325129509,0.19335004687309265,-0.049311548471450806,0.0646304339170456,0.01957528293132782,0.0635925829410553,0.17015452682971954,-0.04333462193608284,0.07329493016004562,-0.041143178939819336,0.1440955102443695,-0.43905678391456604,-0.5552883148193359,0.03534165024757385,0.010375306010246277,-0.048663850873708725,-0.12196751683950424,-0.10165663808584213,-0.17901748418807983,0.17406141757965088,0.36255118250846863,0.15730524063110352,0.1299627423286438,0.04182356595993042,0.08646032214164734,0.08441923558712006,0.27976495027542114,-0.182512566447258,-0.243772491812706,-0.3082024157047272,0.32916903495788574,-0.14094246923923492,-0.1317267119884491,-0.23639969527721405,-0.008614121936261654,-0.2391839176416397,0.2032480090856552,0.0952235758304596,0.23922555148601532,-0.06626593321561813,0.11433050781488419,0.024276165291666985,-0.22590653598308563,0.03845099359750748,-0.18308523297309875,-0.04549035802483559,0.025538761168718338,0.23276203870773315,0.07736167311668396,0.02284472994506359,-0.027816038578748703,0.31217312812805176,-0.19659800827503204,-0.20604270696640015,-0.10318714380264282,0.08136316388845444,-0.07695107161998749,-0.0035193394869565964,-0.08807933330535889,-0.3097737431526184,-0.014825800433754921,-0.24949117004871368,-0.10845913738012314
์,0.023651814088225365,0.029783716425299644,-0.17176643013954163,0.12278405576944351,-0.023946071043610573,0.05753704160451889,0.15334875881671906,0.14322085678577423,0.032680362462997437,0.035500895231962204,0.1808393895626068,0.18463283777236938,0.008103417232632637,0.07186157256364822,0.15593145787715912,-0.04402363672852516,-0.3940207362174988,-0.5022743940353394,0.09594186395406723,-0.0755457952618599,0.05746792256832123,-0.02462615817785263,-0.21423222124576569,-0.24322465062141418,0.08626216650009155,0.2647702693939209,0.2834798991680145,-0.01575026474893093,0.09495071321725845,0.22158293426036835,-0.10415644943714142,0.09124535322189331,-0.2963043451309204,-0.24647849798202515,-0.28440582752227783,0.2617904841899872,-0.2426910251379013,-0.12122039496898651,-0.21762968599796295,-0.07722460478544235,-0.2557539939880371,0.13633376359939575,0.22563636302947998,0.1497681438922882,-0.020854527130723,-0.04331167787313461,0.14820913970470428,-0.05260288715362549,0.054409921169281006,-0.2128734290599823,-0.03339115530252457,-0.07055149972438812,0.25495588779449463,0.13427111506462097,0.03522052243351936,0.1268107295036316,0.23466387391090393,-0.2793385088443756,-0.276859849691391,-0.0964612066745758,0.02284087799489498,-0.15231244266033173,0.09806684404611588,-0.06813174486160278,-0.27918514609336853,-0.15009307861328125,-0.35974448919296265,-0.04370073229074478
์,-0.08562830090522766,-0.05875658243894577,-0.16955649852752686,0.2628019154071808,-0.042503513395786285,-0.08196432888507843,0.22588388621807098,0.12674982845783234,-0.047199033200740814,0.1851598024368286,0.17169497907161713,0.1773625612258911,-0.03595089912414551,0.10463912039995193,0.16828462481498718,0.15502487123012543,-0.327197790145874,-0.5156369209289551,0.032039038836956024,-0.07877844572067261,-0.008052711375057697,0.06246183440089226,-0.02037266083061695,-0.26568660140037537,0.11555765569210052,0.3192678987979889,0.23308858275413513,0.10171055793762207,0.02540283463895321,0.16956984996795654,0.07327762246131897,0.27106884121894836,-0.22580859065055847,-0.24795293807983398,-0.23440739512443542,0.27227360010147095,-0.1373061239719391,-0.12952740490436554,-0.15286508202552795,0.12337564677000046,-0.1749875694513321,0.19534754753112793,0.16931340098381042,0.2851339876651764,0.11967935413122177,-0.021317122504115105,0.08365536481142044,-0.07132319360971451,0.08232701569795609,-0.18486174941062927,-0.23561225831508636,0.012424102053046227,0.25686055421829224,0.16536377370357513,0.1376430243253708,0.13032720983028412,0.3081144094467163,-0.24301938712596893,-0.04417067766189575,0.07753107696771622,-0.10885068029165268,-0.0980534479022026,0.015386000275611877,-0.15972185134887695,-0.30432358384132385,-0.1409386694431305,-0.2281133383512497,-0.005798134952783585
์,-0.030347973108291626,-0.11023829877376556,-0.1263003945350647,0.10363729298114777,0.15945565700531006,0.0415312759578228,0.15255442261695862,0.11367566138505936,0.11033003032207489,0.05269530788064003,0.017529016360640526,0.009073375724256039,-0.07496742159128189,0.15635573863983154,0.1189286932349205,0.15316671133041382,-0.34592822194099426,-0.5827231407165527,0.07289712876081467,-0.0006729660090059042,0.04682430252432823,-0.058845099061727524,-0.15936921536922455,-0.19139254093170166,0.18750643730163574,0.28195399045944214,0.1837759166955948,0.1275799721479416,0.05057450383901596,0.17115262150764465,-0.09351420402526855,0.2636984586715698,-0.11041748523712158,-0.21077929437160492,-0.2688726484775543,0.34823140501976013,-0.08483647555112839,-0.2976866066455841,-0.0838189646601677,0.09712649136781693,-0.2550638020038605,0.16417665779590607,0.2373148649930954,0.13181172311306,-0.02396363765001297,-0.035811807960271835,0.12068066745996475,-0.25209376215934753,0.047149211168289185,-0.194214329123497,-0.15947401523590088,-0.07451977580785751,0.12247662246227264,0.05029674246907234,-0.012118292972445488,-0.042332492768764496,0.34239232540130615,-0.2458673119544983,-0.20574229955673218,0.12720035016536713,-0.09906977415084839,-0.0687348023056984,-0.0018659582128748298,-0.04628699645400047,-0.21262237429618835,-0.15120308101177216,-0.33625203371047974,0.08853939175605774
์,0.044549375772476196,-0.12397105246782303,-0.2110505998134613,0.22326134145259857,0.02247321978211403,0.05208353325724602,0.2427193522453308,0.14614717662334442,0.069749616086483,0.11158708482980728,0.01877814345061779,0.056652508676052094,-0.06652861088514328,0.12234548479318619,-0.002282757544890046,-0.023441772907972336,-0.35033559799194336,-0.5317621827125549,-0.08803994953632355,0.035837676376104355,-0.061983801424503326,-0.10991667956113815,-0.07443393021821976,-0.22092373669147491,0.19149109721183777,0.43619412183761597,0.1263100504875183,0.03327018767595291,0.19821716845035553,0.23969191312789917,0.09687358886003494,0.21090057492256165,-0.26070642471313477,-0.2908679246902466,-0.12563633918762207,0.3651834726333618,-0.08335355669260025,-0.09492409229278564,-0.2498924881219864,0.026311228051781654,-0.08711506426334381,0.24183782935142517,0.22904331982135773,0.19869376718997955,0.14124520123004913,0.11565971374511719,0.011929447762668133,-0.14571388065814972,-0.009386515244841576,-0.11793942749500275,-0.1778525710105896,0.13700652122497559,0.23241499066352844,0.07606153190135956,0.020793313160538673,0.09580840915441513,0.30668124556541443,-0.20589031279087067,-0.23944833874702454,0.03432740271091461,-0.010676411911845207,-0.00699937529861927,-0.05082034319639206,-0.06970451772212982,-0.3282979130744934,0.021640298888087273,-0.25459396839141846,0.0028721678536385298
์,0.16044294834136963,0.1741488128900528,0.11469750851392746,0.302083820104599,0.04458656534552574,0.05251532047986984,0.3543507754802704,-0.07342264801263809,0.18279390037059784,0.020184772089123726,0.2613508403301239,-0.0802677720785141,-0.21366997063159943,-0.37742727994918823,0.24497391283512115,0.377961665391922,-0.20912568271160126,-0.07805367559194565,0.1967480629682541,0.12678097188472748,0.36317819356918335,-0.11959899961948395,0.04615459218621254,0.03279564902186394,0.0853622555732727,-0.045300357043743134,0.010947685688734055,-0.09079987555742264,0.013427412137389183,-0.07983063161373138,-0.04331919550895691,-0.04180962219834328,0.015652121976017952,-0.3005408048629761,-0.10076998919248581,0.20495542883872986,0.017375949770212173,-0.17440176010131836,-0.2602996826171875,0.11161156743764877,-0.04417894408106804,-0.0348220095038414,0.26821860671043396,-0.3291538655757904,0.08160659670829773,0.06175651401281357,0.22599543631076813,0.21716032922267914,-0.26661792397499084,-0.22552914917469025,-0.20492875576019287,0.051191069185733795,-0.006595156155526638,0.11107028275728226,0.023372571915388107,0.2753034234046936,-0.1208065003156662,-0.2963655889034271,-0.10145904868841171,-0.2319781482219696,0.7490648031234741,-0.1328987330198288,-0.008398881182074547,0.0714244470000267,-0.3553418517112732,0.10790776461362839,0.13851289451122284,-0.23035931587219238
์,0.12145929783582687,0.3298175632953644,0.4577058255672455,0.01909007504582405,-0.32404419779777527,0.3622168004512787,0.1424412876367569,-0.26971715688705444,-0.1392330378293991,0.23382563889026642,0.1354721188545227,-0.030405938625335693,-0.22640106081962585,-0.18508371710777283,0.4090448021888733,0.5044867396354675,0.02982228249311447,0.42405274510383606,0.3107941746711731,5.87638933211565e-05,0.5060998797416687,-0.5223174095153809,-0.3630187213420868,0.03811344876885414,0.2082415521144867,-0.21135622262954712,0.06057695671916008,0.0043104542419314384,-0.049740999937057495,-0.3227379024028778,-0.02041836455464363,0.09225492924451828,0.07562150061130524,0.19164863228797913,0.1538020223379135,0.5769327878952026,0.1250920444726944,0.16079536080360413,-0.18426306545734406,-0.3166831135749817,0.053628042340278625,-0.11168747395277023,0.4984453022480011,-0.6016783714294434,-0.2021925151348114,0.3123120665550232,-0.1979607194662094,0.3323034942150116,-0.4084724485874176,-0.12082278728485107,-0.22663432359695435,0.10628718882799149,-0.03239399194717407,-0.10515539348125458,0.4341348707675934,-0.04328371584415436,0.14265064895153046,-0.06256427615880966,-0.01879880763590336,-0.6250805258750916,0.42907097935676575,-0.19197478890419006,0.05010715126991272,-0.17174948751926422,0.08112690597772598,-0.124238520860672,0.19364771246910095,0.05221729353070259
์,-0.04552215337753296,0.0943000391125679,-0.10334263741970062,-0.10785014182329178,0.24340274930000305,-0.06283170729875565,0.20636500418186188,0.09240783005952835,0.04315359890460968,0.03660689666867256,-0.05060342326760292,-0.04725233092904091,0.1255224198102951,-0.08194439113140106,0.14782051742076874,0.25478553771972656,0.1132623702287674,0.020906800404191017,0.007033854722976685,-0.22934772074222565,0.29045939445495605,0.11163432151079178,0.2956031858921051,-0.027273081243038177,-0.18125149607658386,0.08926087617874146,-0.11238004267215729,-0.19223526120185852,-0.02394985966384411,0.21400156617164612,-0.21810731291770935,0.2750781178474426,0.2081444263458252,-0.3625551462173462,-0.08954502642154694,-0.15035437047481537,0.10181481391191483,-0.051686033606529236,-0.17350415885448456,0.08021315187215805,0.1003306657075882,-0.09583049267530441,-0.09021562337875366,-0.01298518292605877,-0.052222978323698044,-0.23971949517726898,-0.07886914908885956,0.19620776176452637,-0.3525233864784241,-0.23374201357364655,-0.08583612740039825,0.10167759656906128,0.16104985773563385,0.19435898959636688,0.22680750489234924,0.18145182728767395,0.010824695229530334,-0.06460649520158768,-0.28541553020477295,0.10208212584257126,0.4855186939239502,0.2547886371612549,-0.16173911094665527,-0.07829863578081131,0.021657057106494904,-0.011999392881989479,0.03098139725625515,-0.06853710114955902
์,-0.011631340719759464,-0.054732952266931534,0.276505708694458,-0.3236815631389618,0.007537348195910454,0.1640673577785492,-0.2796974778175354,-0.34205934405326843,0.003720455104485154,0.01671215146780014,-0.17753562331199646,0.13889341056346893,-0.13791771233081818,-0.14162564277648926,0.31786200404167175,0.2640443444252014,0.29175594449043274,0.5899125933647156,0.21116213500499725,-0.24220792949199677,0.3196524381637573,-0.3172104060649872,0.29023975133895874,0.055991824716329575,-0.1936742514371872,-0.33729949593544006,-0.24401545524597168,-0.13839872181415558,-0.043848104774951935,0.05006130784749985,0.3025485873222351,0.03790581598877907,0.2575572729110718,-0.050315726548433304,0.47008270025253296,-0.01656148210167885,0.011365196667611599,0.2936805784702301,0.05483105778694153,-0.09737740457057953,0.14337913691997528,-0.25386184453964233,-0.034110236912965775,-0.4764381945133209,-0.22078989446163177,0.0539325587451458,0.07246781885623932,0.5675791501998901,-0.36476579308509827,-0.12332272529602051,0.017279716208577156,-0.09942631423473358,0.272274374961853,0.01705414243042469,0.4315706491470337,-0.07915480434894562,-0.08072367310523987,0.3063718378543854,0.0784783735871315,-0.23485024273395538,0.10679903626441956,0.14326050877571106,-0.37511223554611206,-0.11320468783378601,0.28821319341659546,-0.18596260249614716,0.2983384132385254,0.2626657783985138
์,-0.06648170948028564,-0.13775190711021423,-0.041076403111219406,0.05219774693250656,0.10022995620965958,0.04960133507847786,0.2707791030406952,0.06069070100784302,-0.1248166635632515,0.2523348331451416,-0.09771638363599777,0.10098627954721451,0.1614055037498474,0.006525210104882717,0.07990727573633194,-0.04103550314903259,-0.45571795105934143,-0.4959539771080017,-0.013483555056154728,-0.1732763797044754,0.023680349811911583,-0.14131318032741547,-0.21143214404582977,-0.20476128160953522,0.29540354013442993,0.2438807487487793,0.22585079073905945,0.11687208712100983,0.10835281759500504,0.07795976847410202,-0.12260257452726364,0.11767794191837311,-0.050625063478946686,-0.15543125569820404,-0.07990498840808868,0.27229568362236023,0.015283043496310711,-0.13012991845607758,-0.13481691479682922,-0.07437746226787567,-0.01333076972514391,0.1225241869688034,0.07447640597820282,0.12682639062404633,-0.11716415733098984,-0.028315288946032524,0.12107831984758377,-0.04586579650640488,-0.02670302242040634,-0.14325833320617676,-0.15677766501903534,-0.019398022443056107,0.2227753847837448,-0.07419874519109726,-0.03942394256591797,-0.08741559088230133,0.3619271516799927,-0.2083083987236023,-0.11430384963750839,-0.04873332381248474,-0.0031437715515494347,0.04601411148905754,0.1194746270775795,-0.12909023463726044,-0.2753559947013855,0.0027565574273467064,-0.2861076891422272,-0.08742765337228775
์,-0.1808810979127884,-0.15845979750156403,-0.24102891981601715,0.09315142780542374,0.05006980895996094,0.17451150715351105,0.28565508127212524,0.2016480714082718,-0.03808779641985893,0.28062742948532104,0.04102891683578491,0.06068374961614609,0.09554749727249146,0.21374337375164032,0.15196003019809723,0.031779080629348755,-0.2540912926197052,-0.5453988909721375,-0.012330889701843262,-0.26197436451911926,-0.005603323224931955,-0.024298451840877533,-0.19599950313568115,-0.1594524383544922,0.14301684498786926,0.2512587010860443,-0.0050055705942213535,0.11300425976514816,0.08127802610397339,0.0962066799402237,-0.00016187534492928535,0.1482384204864502,-0.16022229194641113,-0.21994179487228394,-0.1338772028684616,0.24915164709091187,-0.000141516633448191,-0.14655673503875732,-0.17737172544002533,0.023817146196961403,-0.0033103928435593843,0.02310061827301979,0.16894803941249847,0.10856491327285767,-0.02293504774570465,0.08711346983909607,0.1364593505859375,-0.16627205908298492,0.06363428384065628,-0.01430633757263422,-0.1204468160867691,-0.03531282767653465,0.11980590969324112,-0.06982093304395676,0.0999622792005539,-0.1421400010585785,0.33025476336479187,-0.1567012071609497,-0.05904877930879593,-0.005321195814758539,-0.15870046615600586,0.015377750620245934,-0.05508659407496452,-0.20539839565753937,-0.26829010248184204,-0.07440559566020966,-0.1732454150915146,-0.04983837530016899
์,-0.1620759218931198,-0.14188267290592194,-0.23566123843193054,0.060665201395750046,-0.06276901066303253,0.01842532493174076,0.29984021186828613,0.005909995641559362,-0.13356807827949524,0.2868713140487671,-0.07340817898511887,0.2156657725572586,0.15817658603191376,0.06916313618421555,0.09318384528160095,0.0692458525300026,-0.35332557559013367,-0.4624188244342804,0.038094840943813324,-0.25541606545448303,-0.10769029706716537,0.03738786280155182,-0.20037853717803955,-0.24403582513332367,0.1577763557434082,0.2735953629016876,0.18703481554985046,0.01077983621507883,-0.05328749120235443,0.040793560445308685,0.024118881672620773,0.2025895118713379,-0.1529730260372162,-0.12823159992694855,-0.14413413405418396,0.17891861498355865,-0.0320427343249321,-0.156222403049469,-0.23176012933254242,-0.0494493767619133,-0.16896706819534302,0.13933297991752625,0.16222457587718964,0.1351495385169983,-0.07398954778909683,-0.02577158436179161,0.07325679808855057,-0.057936400175094604,0.1339215189218521,-0.03519168496131897,-0.23954220116138458,0.011594775132834911,0.17554357647895813,0.09065280109643936,0.13486939668655396,-0.15672853589057922,0.22692935168743134,-0.11622688174247742,-0.2004707008600235,0.016809307038784027,-0.08720725029706955,0.06122949346899986,0.13716007769107819,-0.06186564639210701,-0.10538219660520554,0.007793691009283066,-0.2665202021598816,0.08445809036493301
์,-0.01685752533376217,0.27235493063926697,0.21402187645435333,0.12113287299871445,0.019834397360682487,0.1503971666097641,0.33818358182907104,0.09726887941360474,0.21402445435523987,0.07693097740411758,0.137165367603302,-0.0038874715100973845,-0.07757321000099182,-0.1919287145137787,0.2220315784215927,0.3918343186378479,-0.13019153475761414,0.019615808501839638,-0.010902811773121357,-0.06526098400354385,0.1849244087934494,-0.2426840215921402,0.08500264585018158,0.19108349084854126,0.02827615477144718,-0.0790240615606308,0.14035582542419434,0.10039926320314407,0.17543214559555054,-0.2691342532634735,-0.015155074186623096,-0.046027034521102905,0.078188456594944,-0.06677591800689697,0.11233092099428177,0.15271054208278656,0.23882514238357544,-0.18614046275615692,-0.1049041673541069,-0.08967689424753189,0.022628016769886017,-0.08885496854782104,0.2199505716562271,-0.20069240033626556,-0.14042308926582336,-0.08586743474006653,0.2055118829011917,0.15939974784851074,-0.20622660219669342,-0.2759316563606262,-0.1519983857870102,-0.05363261699676514,0.09875646233558655,0.07009857147932053,0.2267659455537796,0.034827202558517456,-0.028386585414409637,-0.3517230451107025,-0.11891542375087738,-0.3244034945964813,0.7944817543029785,-0.16442373394966125,0.13602018356323242,-0.11131073534488678,-0.12144044786691666,0.0911269560456276,0.07066594064235687,-0.15889087319374084
์,-0.07320374995470047,-0.08888493478298187,-0.053586799651384354,0.2278883457183838,-0.09152866899967194,0.05381333827972412,0.15006431937217712,-0.10688383877277374,0.1731826215982437,-0.05480114370584488,0.022167058661580086,0.023257657885551453,0.07953829318284988,0.09460939466953278,0.1039179190993309,0.10162273049354553,-0.29850390553474426,-0.1734558343887329,-0.06046286225318909,-0.044098686426877975,0.17383764684200287,0.2440306395292282,-0.08776170760393143,0.06952246278524399,-0.05382915213704109,-0.06191651150584221,0.19937676191329956,-0.09535226970911026,0.0735810175538063,0.11017987132072449,-0.043933119624853134,0.0015189929399639368,-0.2592729330062866,-0.07818290591239929,-0.1906367838382721,0.04872692748904228,-0.008362533524632454,0.03561100363731384,-0.11613079160451889,0.3585362434387207,0.020736632868647575,-0.010856269858777523,-0.09495469182729721,-0.004855204839259386,-0.13145887851715088,-0.051296256482601166,0.20087455213069916,-0.03342229127883911,-0.0889011025428772,-0.01438960526138544,0.0642034113407135,0.03532245382666588,0.062223371118307114,-0.05220789834856987,0.061989568173885345,0.027721170336008072,-0.0335867665708065,-0.013835223391652107,-0.14234773814678192,-0.140377476811409,0.2894308567047119,0.14853200316429138,0.10687126219272614,-0.0987473800778389,0.1289421021938324,0.2482776939868927,0.0882466658949852,0.04748952016234398
์,-0.19013658165931702,0.11798310279846191,-0.05927429348230362,0.19997940957546234,-0.009332067333161831,-0.06008492037653923,0.0895252600312233,-0.038835447281599045,0.028141776099801064,-0.16322018206119537,-0.0928615927696228,0.11126948893070221,-0.053241536021232605,-0.08665614575147629,0.10341925173997879,0.09806262701749802,-0.11431729793548584,-0.1820979118347168,0.03879331052303314,-0.04416926950216293,0.11190906167030334,0.16537585854530334,-0.08320358395576477,0.1729143112897873,0.12979330122470856,0.1398092359304428,0.24874716997146606,0.0375557467341423,0.11104294657707214,0.0039923107251524925,0.03171829134225845,0.14466100931167603,-0.10887575894594193,-0.026398487389087677,-0.06266405433416367,0.029589587822556496,-0.12519201636314392,-0.04222062975168228,-0.027979955077171326,0.3436678946018219,0.1457139551639557,0.03461803123354912,-0.17089281976222992,0.08700224757194519,-0.12105544656515121,0.023057403042912483,0.1813940554857254,-0.16310177743434906,-0.11176298558712006,-0.1262044906616211,0.028082603588700294,0.019702067598700523,0.12773089110851288,0.038224659860134125,-0.06624060124158859,-0.1451602280139923,0.1114983782172203,-0.004897766746580601,-0.19097872078418732,-0.21970997750759125,0.30800071358680725,0.09773418307304382,0.03269674628973007,-0.07812890410423279,0.23149608075618744,0.22084444761276245,0.09286610037088394,-0.08705736696720123
์,-0.07351759821176529,-0.033150289207696915,0.029037222266197205,0.03203597664833069,-0.03498578444123268,-0.01785252057015896,0.2074434608221054,-0.17424523830413818,0.02448580041527748,-0.1431771069765091,0.09843602776527405,0.16411013901233673,0.011941248551011086,0.10101784020662308,-0.03561873733997345,0.14260149002075195,-0.17338041961193085,-0.15900643169879913,0.05405646190047264,-0.003697749460116029,0.02567320130765438,0.20116445422172546,-0.06479465216398239,0.059288740158081055,-0.013792283833026886,0.03486325591802597,0.2407570481300354,-0.020140022039413452,0.1594911813735962,0.16722498834133148,0.0018041301518678665,0.10344424843788147,-0.08992812782526016,-0.06750508397817612,-0.20946352183818817,-0.15773552656173706,-0.079787477850914,-0.13820968568325043,-0.11394853889942169,0.3096083998680115,0.22907674312591553,-0.17321690917015076,-0.046464014798402786,-0.0060873511247336864,-0.20744012296199799,-0.09081321954727173,0.21199776232242584,-0.036214157938957214,-0.06566695123910904,-0.04493578523397446,0.120194211602211,0.10402438044548035,0.17632393538951874,0.057398244738578796,-0.041135821491479874,-0.05105593055486679,0.08050857484340668,-0.09194619953632355,-0.08651139587163925,-0.3194328844547272,0.21953393518924713,0.08882611989974976,0.09080076962709427,0.01076531782746315,0.005548862740397453,0.09161929786205292,-0.003784756874665618,-0.1104714646935463
์,-0.21151018142700195,0.11729520559310913,-0.10657093673944473,0.06512904167175293,0.004977747797966003,0.03944231942296028,0.19085977971553802,-0.1549195796251297,0.12118729203939438,-0.045964401215314865,0.015672657638788223,0.10544014722108841,-0.006457757204771042,0.11828811466693878,0.12015395611524582,0.11390252411365509,-0.11981595307588577,-0.09689266234636307,0.061265818774700165,-0.029855381697416306,0.08593977242708206,0.25173041224479675,-0.007390778511762619,0.0015063132159411907,-0.08162662386894226,0.09068398177623749,0.23120537400245667,-0.11807061731815338,0.23221643269062042,0.18442919850349426,-0.055866971611976624,0.11593425273895264,-0.17590689659118652,-0.24949771165847778,-0.04847769811749458,-0.04041539132595062,-0.19706501066684723,0.015228877775371075,-0.1537875533103943,0.3325367569923401,0.09121319651603699,0.06439363956451416,-0.16382236778736115,0.051657695323228836,-0.10415290296077728,-0.06542372703552246,0.10163823515176773,0.04247182607650757,0.06492447853088379,-0.001171440933831036,-0.11717534810304642,0.02166779153048992,0.055248916149139404,0.031883906573057175,-0.016660626977682114,-0.10837627202272415,0.13485755026340485,-0.08723700046539307,-0.03529045358300209,-0.23487481474876404,0.13459062576293945,0.18827128410339355,0.09001238644123077,0.028612956404685974,0.1361061930656433,0.11143934726715088,0.14919322729110718,-0.03571658581495285
์,-0.1832464337348938,0.08868789672851562,-0.05423884466290474,0.15016497671604156,0.06166437640786171,0.011079237796366215,0.1895439177751541,-0.06526777148246765,-0.014183185994625092,0.0754413828253746,-0.01621152274310589,0.07624225318431854,0.10062404721975327,0.11799582839012146,-0.03342397138476372,0.046047743409872055,-0.29805877804756165,-0.06162421777844429,-0.11606031656265259,-0.24396634101867676,-0.10078345984220505,0.1130150556564331,-0.07530931383371353,0.16234856843948364,0.056669797748327255,-0.1924363225698471,0.13526812195777893,-0.09779693186283112,0.12419100105762482,0.040585193783044815,-0.07612600177526474,-0.15659211575984955,0.07172390818595886,-0.08277807384729385,-0.12893369793891907,-0.3002919852733612,0.19233524799346924,-0.11292857676744461,0.03879497945308685,0.07032059133052826,0.17645540833473206,-0.22769683599472046,-0.3093698024749756,0.017791423946619034,-0.32254090905189514,-0.06850442290306091,-0.050674885511398315,-0.14354705810546875,0.030869100242853165,-0.06829734146595001,0.12418103218078613,-0.012147541157901287,0.09319385886192322,-0.09495114535093307,0.007448460906744003,-0.08191117644309998,0.2018737941980362,0.007537187542766333,-0.08277468383312225,-0.17668120563030243,0.24334752559661865,0.16345399618148804,0.20091211795806885,-0.19480878114700317,0.14472076296806335,0.19219809770584106,0.15291893482208252,-0.05930022522807121
์,-0.2217986136674881,0.007116431370377541,-0.0060609555803239346,0.14740777015686035,0.04267340898513794,0.12833577394485474,0.2221546322107315,0.04670415073633194,-0.02482098713517189,-0.03877922520041466,-0.2614370882511139,-0.032845716923475266,0.24046540260314941,0.0017555418889969587,0.07376105338335037,-0.012201333418488503,-0.1371142566204071,-0.017823459580540657,-0.024021020159125328,-0.11986343562602997,0.012719549238681793,0.24524737894535065,0.03996303305029869,0.08863306045532227,-0.018231559544801712,-0.11998490989208221,0.008145544677972794,-0.15335875749588013,0.21154563128948212,-0.05156984180212021,-0.06367182731628418,0.07588939368724823,-0.14474943280220032,-0.22113336622714996,-0.16031430661678314,-0.16885307431221008,-0.032924260944128036,-0.12187177687883377,0.04812579229474068,0.1817948967218399,0.20738819241523743,-0.12307897955179214,-0.2097129225730896,0.15623897314071655,-0.22569769620895386,0.06961379945278168,0.03594036027789116,-0.10429629683494568,0.133439838886261,-0.02604336477816105,0.1393490880727768,-0.042378172278404236,-0.014135331846773624,0.14339947700500488,-0.06825991719961166,-0.15410776436328888,0.1291051208972931,-0.04561601206660271,-0.1858731359243393,-0.03814242035150528,0.18596151471138,0.20606453716754913,0.045364487916231155,-0.058097321540117264,0.2092316448688507,0.08905306458473206,0.09319864213466644,-0.1448778510093689
์,-0.0789068341255188,-0.017355335876345634,0.05095291882753372,0.1182822734117508,0.00868480745702982,0.08590139448642731,0.09356416016817093,0.12120835483074188,-0.003396374639123678,0.044648997485637665,-0.20149478316307068,0.171537384390831,0.20390895009040833,-0.08695931732654572,0.02480139397084713,-0.06836627423763275,-0.29520124197006226,-0.09541982412338257,0.07609771192073822,-0.08838405460119247,-0.023213470354676247,0.13159401714801788,-0.12834715843200684,0.023890694603323936,0.11655804514884949,-0.14826332032680511,-0.004600367974489927,-0.132586270570755,0.06818994134664536,-0.06758106499910355,0.012120408937335014,-0.1402319371700287,-0.13928256928920746,-0.10528381168842316,0.003420165739953518,-0.3007541000843048,0.05023671314120293,0.061619993299245834,-0.03412927687168121,0.25929561257362366,0.21745553612709045,-0.15338671207427979,-0.30599257349967957,0.04966498911380768,-0.3392910957336426,-0.010843153111636639,-0.04945870116353035,-0.10174811631441116,-0.026740647852420807,0.06633861362934113,0.1102963536977768,0.04177086427807808,0.03862816467881203,0.16390098631381989,-0.04423980414867401,-0.09413547813892365,0.20256678760051727,-0.0824696496129036,-0.0611533559858799,-0.1040450781583786,0.26290392875671387,0.17663206160068512,0.08217370510101318,-0.22100310027599335,0.046599943190813065,0.1464170664548874,0.23982831835746765,-0.13645842671394348
์,-0.12864717841148376,-0.0719640851020813,-0.16737133264541626,-0.07324693351984024,-0.10103553533554077,0.15963803231716156,0.12027367949485779,0.12435808777809143,-0.01825694553554058,0.05792905017733574,-0.09979860484600067,0.07961220294237137,0.21005578339099884,0.06745155900716782,-0.005862331949174404,-0.06308311969041824,-0.2676323354244232,-0.10986144840717316,-0.1496630758047104,-0.22067469358444214,-0.012919384054839611,0.23008663952350616,-0.004142195452004671,0.21936237812042236,-0.039385903626680374,-0.10790640115737915,-0.060725074261426926,0.0059376913122832775,0.2091948240995407,0.053262241184711456,-0.04521770030260086,-0.01961059495806694,-0.05587558075785637,-0.13628751039505005,-0.09030155837535858,-0.14992231130599976,0.08539679646492004,-0.09720700979232788,-0.028533561155200005,0.13856320083141327,0.22562453150749207,-0.17490741610527039,-0.3050481975078583,0.06342551112174988,-0.2909606099128723,-0.05505416542291641,-0.10227654129266739,0.05066755786538124,0.09265979379415512,0.012297198176383972,-0.02182067558169365,0.10258089005947113,-0.011263948865234852,0.0029632155783474445,0.07853016257286072,-0.17792578041553497,0.20232854783535004,-0.04698711261153221,-0.15716353058815002,-0.11347401142120361,0.25412312150001526,0.0888509601354599,0.11666648089885712,-0.010189428925514221,0.11280785501003265,0.253853440284729,0.20426972210407257,0.03015132062137127
์,-0.11823314428329468,0.0011052951449528337,-0.021193796768784523,-0.045518167316913605,0.23037022352218628,-0.08630720525979996,0.19071179628372192,0.053852736949920654,0.05474037304520607,-0.04289713129401207,-0.08625978231430054,-0.028989918529987335,0.054434988647699356,-0.1014910563826561,0.1695883423089981,0.326780766248703,0.16251561045646667,-0.07728228718042374,0.09413012862205505,-0.2527908682823181,0.33325645327568054,-0.014406481757760048,0.28681495785713196,-0.09608325362205505,-0.03542264923453331,0.12553882598876953,0.03358861058950424,-0.059969641268253326,0.09007297456264496,0.2205832302570343,-0.16562870144844055,0.14348389208316803,0.05050094425678253,-0.5201400518417358,0.020501399412751198,-0.03769019618630409,0.07214947789907455,-0.19303931295871735,-0.22170090675354004,0.12188994139432907,0.06156959384679794,-0.000704127480275929,0.20968051254749298,-0.17570912837982178,-0.035184022039175034,-0.2103593945503235,-0.01600617542862892,0.18292281031608582,-0.26051613688468933,-0.289903461933136,-0.19657760858535767,0.19344300031661987,0.09098014235496521,0.0447959341108799,0.2701122462749481,0.12348079681396484,0.12300612777471542,0.05045533552765846,-0.11344043165445328,-0.0988578274846077,0.3668939173221588,0.05715373530983925,-0.1649637222290039,-0.10218816250562668,0.06519609689712524,0.0686783716082573,0.171083465218544,0.10374031215906143
์,0.2739846408367157,0.1499398648738861,0.3144044578075409,0.03240003064274788,0.2147303968667984,0.18556857109069824,-0.059674330055713654,-0.22131039202213287,-0.13106393814086914,0.15710431337356567,-0.07949984818696976,-0.13150887191295624,-0.27447259426116943,-0.14860382676124573,0.22685803472995758,0.1625232696533203,0.3196171820163727,0.20653949677944183,0.3255353569984436,-0.005042167846113443,0.30843496322631836,-0.2723610997200012,0.0093488534912467,0.04707729071378708,-0.15365371108055115,0.10374919325113297,-0.1903935968875885,-0.129269078373909,-0.10308975726366043,0.25518691539764404,-0.10190600156784058,0.21710827946662903,0.07202257215976715,-0.17433667182922363,-0.05763963982462883,0.3964368402957916,-0.14456897974014282,0.012383840046823025,0.09517856687307358,-0.1709415167570114,0.13514678180217743,-0.09989379346370697,0.32927849888801575,-0.17074185609817505,-0.121681809425354,0.05637553334236145,-0.23940333724021912,0.1629084050655365,-0.5312383770942688,-0.13030122220516205,-0.09305045008659363,0.29328012466430664,-0.01878015510737896,0.22085431218147278,0.5527359247207642,0.20612409710884094,0.006961604114621878,0.009421014226973057,-0.29359936714172363,-0.17422106862068176,0.11341418325901031,0.024499375373125076,-0.3705163598060608,-0.1066582053899765,0.04505791515111923,0.01295717153698206,0.007557565812021494,0.2898765802383423
์,0.3141179084777832,0.47493699193000793,0.260025292634964,0.08461195975542068,0.35489171743392944,0.08123097568750381,0.0064779166132211685,-0.014339856803417206,-0.32196223735809326,0.04356618970632553,0.0867554098367691,-0.29472553730010986,-0.2515435814857483,-0.09570670127868652,0.11877413839101791,0.12641339004039764,0.3808972239494324,0.036293890327215195,0.37834522128105164,0.12783047556877136,0.21589340269565582,-0.003828133689239621,0.27546682953834534,-0.030386127531528473,-0.5919784307479858,0.0024984399788081646,-0.02266639471054077,-0.2454376220703125,-0.20985662937164307,0.3065758943557739,-0.13512280583381653,0.10779030621051788,0.10951686650514603,-0.09624522924423218,0.09855629503726959,0.2623116374015808,-0.3578527271747589,0.16411013901233673,0.19104504585266113,-0.35694965720176697,0.15691500902175903,-0.10218752175569534,-0.08404570817947388,0.05433445796370506,-0.018956368789076805,-0.10257402807474136,-0.18021133542060852,-0.16415485739707947,-0.5595229864120483,-0.21804554760456085,0.23953114449977875,0.08892931789159775,-0.16251273453235626,0.32839661836624146,0.4344589412212372,0.40193283557891846,-0.28631943464279175,-0.07295755296945572,-0.49326997995376587,0.09945390373468399,0.2675784230232239,-0.03164374828338623,-0.38558459281921387,-0.03588208556175232,-0.3162638247013092,0.10881120711565018,0.2749197483062744,0.2387762814760208
์,0.06995197385549545,0.08211245387792587,-0.01640733890235424,-0.08087239414453506,0.4434657096862793,0.1550249606370926,0.22241473197937012,0.14281663298606873,-0.02342422492802143,0.024579748511314392,-0.3123834431171417,-0.14376671612262726,0.015023264102637768,-0.01617014780640602,0.23722414672374725,0.22475184500217438,0.04406790807843208,-0.07940202951431274,0.10375259071588516,-0.18171249330043793,0.17465338110923767,-0.0034449168015271425,0.3562580943107605,0.1989457905292511,-0.2600436508655548,-0.025534650310873985,-0.04922976344823837,-0.22345535457134247,0.058275576680898666,0.3340997099876404,-0.19282281398773193,0.27936217188835144,0.23113387823104858,-0.5300897359848022,-0.027034640312194824,-0.17513269186019897,0.018301265314221382,-0.13961973786354065,-0.01463284995406866,0.1568014770746231,0.2906351089477539,-0.14120633900165558,-0.05550331994891167,0.006348922848701477,-0.2672019302845001,-0.25314199924468994,0.055857449769973755,0.13510408997535706,-0.317958265542984,-0.16048678755760193,-0.13219374418258667,-0.03286634758114815,0.2356840819120407,0.12565000355243683,0.1095414012670517,0.07276633381843567,-0.09856437891721725,-0.11970027536153793,-0.33800816535949707,-0.04913673549890518,0.39763766527175903,0.3165542781352997,-0.1745130568742752,-0.20234660804271698,0.15352004766464233,0.015955941751599312,0.16046574711799622,0.18768711388111115
์,0.06638308614492416,-0.13666747510433197,-0.08725399523973465,0.06513235718011856,0.4001665413379669,0.09477109462022781,0.19961881637573242,0.03394985571503639,0.00522634806111455,0.16342708468437195,-0.19273313879966736,-0.07632365822792053,0.018454961478710175,-0.04764747619628906,0.08627145737409592,0.2769293785095215,0.07511309534311295,-0.018568582832813263,0.028459778055548668,-0.1924227476119995,0.21293596923351288,0.14543776214122772,0.3182317316532135,0.01735166646540165,-0.169792041182518,0.11905758082866669,-0.0006239825743250549,-0.12278307974338531,-0.08845476806163788,0.20937298238277435,-0.167766273021698,0.2675684690475464,0.1675572544336319,-0.5779123306274414,0.14182110130786896,-0.04136284813284874,0.14195965230464935,-0.006024631205946207,-0.1277267187833786,0.24896140396595,0.32106009125709534,-0.2288685142993927,-0.21024829149246216,0.12615391612052917,-0.2937840223312378,-0.12844182550907135,-0.07920258492231369,0.1881226897239685,-0.32079017162323,-0.13617688417434692,-0.08664204180240631,0.113090381026268,0.10172324627637863,0.12043604999780655,0.25837603211402893,0.22443248331546783,-0.1301218718290329,-0.045864641666412354,-0.4096861481666565,0.010514304973185062,0.4944921135902405,0.2560567557811737,-0.24025607109069824,-0.2597542107105255,0.14232854545116425,0.1506073921918869,0.1601698249578476,0.13218538463115692
์,-0.059911880642175674,0.0800870805978775,0.24563802778720856,-0.43471860885620117,-0.021023577079176903,0.24187548458576202,-0.11536521464586258,-0.1854228675365448,-0.11300581693649292,0.004262566100805998,-0.2645082473754883,0.034484002739191055,-0.331356406211853,-0.1146116629242897,0.28755080699920654,0.23547792434692383,0.45207929611206055,0.7030781507492065,0.19558483362197876,-0.24604418873786926,0.037409570068120956,-0.336599737405777,0.13747267425060272,0.31395938992500305,-0.19318526983261108,-0.30712077021598816,-0.4281863570213318,-0.28237971663475037,-0.06282825022935867,0.3063253164291382,0.27187055349349976,0.14481718838214874,0.3697701394557953,-0.16587421298027039,0.5387938022613525,0.0050201197154819965,0.0009544047061353922,0.327492892742157,-0.16293400526046753,0.09104721248149872,0.24500161409378052,-0.3781691789627075,0.11832631379365921,-0.4075474143028259,-0.30161377787590027,0.021487006917595863,0.10730315744876862,0.5562076568603516,-0.30548015236854553,0.06370103359222412,0.1599065363407135,-0.04363697022199631,0.1959572434425354,-0.07827746868133545,0.4557032585144043,-0.028697671368718147,-0.03205285966396332,0.19899891316890717,-0.14006802439689636,-0.06655251234769821,0.18843385577201843,0.3368866443634033,-0.34124302864074707,-0.102696992456913,0.4046142101287842,-0.05647378787398338,0.20274923741817474,0.3316158056259155
์,-0.1107543483376503,-0.031083540990948677,0.08913109451532364,-0.1188134178519249,-0.139480322599411,-0.07984212785959244,-0.40567535161972046,-0.11252732574939728,-0.2428528219461441,-0.023456541821360588,-0.14455857872962952,-0.09260036796331406,-0.20507650077342987,-0.09192302823066711,-0.10560925304889679,-0.1745123565196991,0.33634886145591736,0.5112746357917786,0.10410644114017487,0.03260672837495804,0.01779625564813614,0.1655823290348053,-0.00792931392788887,-0.06510182470083237,-0.15266594290733337,-0.16187837719917297,-0.13711851835250854,0.0053649162873625755,0.033800240606069565,-0.07134316861629486,0.20425304770469666,-0.25271159410476685,-0.11382308602333069,0.21956031024456024,0.06468494981527328,-0.002544024493545294,-0.03059353493154049,0.25498881936073303,0.22231487929821014,-0.21945294737815857,-0.05624588206410408,0.19236476719379425,-0.16871735453605652,0.02046470157802105,0.0015151044353842735,0.06393971294164658,-0.1448010355234146,0.12610171735286713,0.13693742454051971,0.13372880220413208,0.0937030091881752,0.06325960159301758,-0.22951382398605347,-0.2352128028869629,0.0925552025437355,-0.23221072554588318,0.07278527319431305,0.1202196553349495,0.17029006779193878,0.07367441803216934,-0.37704628705978394,-0.1140422448515892,0.006689171772450209,0.3327384889125824,0.04697972908616066,0.10905362665653229,0.03311051428318024,0.08233769983053207
์,0.053766097873449326,-0.1372227668762207,-0.2659980058670044,0.061822980642318726,-0.4317871928215027,-0.15900444984436035,-0.5876771211624146,0.10553472489118576,-0.024032622575759888,-0.09299003332853317,-0.05781347304582596,0.0026342738419771194,-0.179921492934227,-0.007730511482805014,-0.1926647424697876,-0.345533162355423,0.20456521213054657,0.6328097581863403,-0.05987126752734184,0.08011399209499359,-0.12147997319698334,-0.18814976513385773,-0.04690307751297951,-0.24012452363967896,-0.11683133989572525,-0.08968371152877808,0.15756218135356903,-0.13806970417499542,-0.27882474660873413,-0.04523440822958946,-0.15635696053504944,-0.22547198832035065,-0.07293645292520523,0.4373990297317505,0.1974688321352005,0.10881372541189194,-0.05252538621425629,0.2689267694950104,-0.003165384754538536,-0.06147606298327446,0.020437292754650116,-0.10492845624685287,0.05223078653216362,-0.2833591103553772,0.2935233414173126,0.11032556742429733,-0.18900366127490997,-0.053624097257852554,0.12932971119880676,0.2251863181591034,0.09955833107233047,0.368897020816803,-0.30778586864471436,0.049604084342718124,-0.0489368662238121,0.1631195843219757,-0.17990048229694366,0.40242281556129456,0.3038434386253357,-0.05229432135820389,-0.5429613590240479,0.2327367663383484,-0.10938457399606705,0.08418887853622437,0.3965137004852295,-0.20228928327560425,0.02879214473068714,0.21232998371124268
์,0.003227752633392811,0.0018296553753316402,0.2574616074562073,-0.24728313088417053,0.06007431074976921,-0.04993078485131264,-0.31002742052078247,-0.43072208762168884,-0.43499332666397095,-0.1279774159193039,-0.1345600187778473,-0.24925538897514343,-0.027538491412997246,-0.02107430063188076,-0.12849271297454834,0.03415048494935036,0.3344586491584778,0.20767401158809662,-0.055452343076467514,0.1606898307800293,0.04695604369044304,0.06492117792367935,-0.2411881536245346,0.11347978562116623,-0.059151098132133484,-0.04082692414522171,-0.28606879711151123,0.03820895403623581,-0.24374383687973022,-0.15313182771205902,-0.010087098926305771,-0.33120524883270264,0.008623958565294743,0.40430691838264465,-0.006304898764938116,-0.05172443389892578,-0.15934978425502777,0.13912849128246307,0.40769240260124207,-0.4046371579170227,-0.02000601775944233,0.20143504440784454,-0.24381181597709656,-0.16052038967609406,0.14784741401672363,-0.02762436307966709,-0.18813863396644592,0.13024500012397766,0.02102234587073326,0.5676071643829346,0.19569599628448486,0.01077263057231903,-0.2878250479698181,-0.38861602544784546,-0.23516659438610077,-0.3955978453159332,0.16267313063144684,0.0694725289940834,0.17819420993328094,0.23367847502231598,-0.4841167628765106,0.03581161051988602,0.07981158047914505,0.38204407691955566,-0.007830231450498104,0.14568421244621277,-0.09267188608646393,0.14377935230731964
์,0.1707676202058792,-0.2503277659416199,-0.019538410007953644,-0.06148720160126686,-0.19014596939086914,-0.08205420523881912,-0.6279352903366089,-0.20808468759059906,-0.3709709048271179,0.05256252363324165,-0.07124114781618118,-0.22534975409507751,-0.15226903557777405,-7.997392094694078e-05,-0.057407692074775696,-0.053784094750881195,0.24554091691970825,0.5818919539451599,-0.23635777831077576,0.047335974872112274,-0.25884997844696045,-0.1610715091228485,-0.19035585224628448,-0.21732962131500244,-0.2542763948440552,0.1200454831123352,-0.10985206812620163,-0.12075633555650711,-0.41032853722572327,-0.16601133346557617,-0.012394377030432224,-0.3802811801433563,0.08978758752346039,0.39694496989250183,0.18687663972377777,0.05065379664301872,-0.10123051702976227,0.30698320269584656,0.3605502247810364,-0.2414957880973816,-0.10920900851488113,0.04650465026497841,-0.09416742622852325,-0.369832843542099,0.32384276390075684,-0.059545185416936874,-0.2628295421600342,0.0924772247672081,0.03595944494009018,0.5825933218002319,0.1715593934059143,0.3494659662246704,-0.4367173910140991,-0.12859641015529633,-0.26536262035369873,-0.07271746546030045,-0.0661790668964386,0.3788081705570221,0.4253247380256653,-0.021354395896196365,-0.6539203524589539,0.11135924607515335,-0.05045131966471672,0.04188227653503418,0.35061344504356384,-0.20301009714603424,-0.2347072809934616,-0.01973959058523178
์,0.17409776151180267,-0.3599517345428467,-0.1775127351284027,-0.061035893857479095,-0.30223366618156433,-0.10042458027601242,-0.6417010426521301,-0.28353846073150635,-0.30772581696510315,-0.0052513238042593,0.07138122618198395,-0.16856758296489716,-0.18852651119232178,-0.02969527803361416,0.04885127395391464,-0.10186140984296799,0.3724328875541687,0.5072664022445679,-0.22458162903785706,-0.014156297780573368,-0.22436492145061493,-0.3099154829978943,-0.19661834836006165,-0.03595636412501335,-0.20918671786785126,0.07643236964941025,-0.1893395632505417,-0.17519573867321014,-0.44842198491096497,-0.16584303975105286,0.038187913596630096,-0.47158998250961304,-0.06008108705282211,0.3956255316734314,0.12865431606769562,-0.04532937705516815,-0.07472693175077438,0.277051717042923,0.3282811641693115,-0.25877419114112854,-0.12506048381328583,0.07661771029233932,-0.15443988144397736,-0.3998100757598877,0.2701658606529236,-0.019495857879519463,-0.27181050181388855,0.0915241539478302,0.2121621072292328,0.3990967571735382,0.0931280329823494,0.3497810661792755,-0.47668278217315674,-0.2588968575000763,-0.031369227916002274,-0.12224073708057404,0.04500170797109604,0.4955344498157501,0.3551762104034424,0.09632555395364761,-0.5632207989692688,0.06629616022109985,0.10112316906452179,0.08736583590507507,0.33706504106521606,-0.1659311205148697,-0.08699188381433487,0.1474509835243225
์,0.3141125440597534,0.3064318001270294,0.12409264594316483,-0.12653790414333344,0.010935005731880665,-0.014888499863445759,0.0081966957077384,-0.4317575693130493,-0.6243090629577637,-0.10358740389347076,0.07773622125387192,-0.014377166517078876,-0.11375585943460464,0.20592597126960754,-0.22516976296901703,-0.027164751663804054,0.4738626778125763,0.35082197189331055,0.26635342836380005,0.21181723475456238,0.11589539796113968,-0.2306949496269226,0.08958037942647934,0.059477295726537704,0.10578922927379608,0.2771972715854645,-0.2654743790626526,0.3810196816921234,-0.2919536828994751,0.1253838837146759,0.0566442534327507,-0.06887470185756683,0.13022249937057495,0.23495596647262573,-0.11923806369304657,-0.2052544206380844,0.12114135175943375,0.1722884327173233,0.4117962419986725,-0.5615623593330383,-0.18889592587947845,0.06210247799754143,-0.12015888094902039,-0.06738164275884628,0.1576722264289856,0.10494414716959,-0.2997509241104126,0.19534750282764435,0.2722490727901459,0.6071954965591431,0.6397219300270081,-0.07483096420764923,-0.3082214295864105,-0.49654117226600647,-0.39762938022613525,-0.37548166513442993,-0.29004839062690735,-0.007689662743359804,-0.004308856558054686,0.3730871379375458,-0.6246542930603027,-0.20044465363025665,0.5536166429519653,0.5722178220748901,0.1854449361562729,0.08406943082809448,0.23263344168663025,0.28530195355415344
์,0.239919513463974,-0.059568602591753006,-0.3581242859363556,-0.15261796116828918,-0.17170585691928864,0.03498673811554909,-0.3700236976146698,-0.2185371220111847,-0.47019633650779724,-0.08197642862796783,0.194725900888443,-0.08931546658277512,-0.06448136270046234,0.3155252933502197,0.02265479601919651,-0.004549345001578331,0.3935939073562622,0.7404606938362122,0.023748081177473068,0.1362612545490265,-0.022988850250840187,-0.5020284056663513,-0.10462720692157745,-0.030119189992547035,0.056103553622961044,0.22669051587581635,-0.2489815205335617,0.0930810421705246,-0.474819540977478,-0.1133790984749794,-0.06631822139024734,-0.16801579296588898,0.21704965829849243,0.5648875832557678,-0.0778680294752121,-0.04240897297859192,0.07947123050689697,0.2897613048553467,0.24288694560527802,-0.2936285734176636,-0.3252193331718445,-0.3998522162437439,-0.17109383642673492,-0.3946387469768524,0.24735869467258453,0.10518844425678253,-0.2773153483867645,0.050908081233501434,0.19519780576229095,0.6340337991714478,0.6751636862754822,0.13967880606651306,-0.31967484951019287,-0.2551572322845459,-0.32674574851989746,0.026685934513807297,-0.2523285448551178,0.31266993284225464,0.09375083446502686,0.08376135677099228,-0.8639976382255554,-0.058008499443531036,0.5307537317276001,0.41096174716949463,0.4778861403465271,-0.18667128682136536,-0.14298893511295319,0.36863037943840027
์,0.18594853579998016,-0.15242715179920197,-0.11269974708557129,-0.058853790163993835,-0.48299074172973633,0.021644247695803642,-0.6091457605361938,0.10056553035974503,-0.03452124074101448,0.03925822302699089,-0.0733824297785759,-0.13826896250247955,-0.13476629555225372,0.012623775750398636,-0.12136650830507278,-0.3901701271533966,0.4085067808628082,0.6161102652549744,-0.25611746311187744,0.21017180383205414,-0.28399282693862915,-0.17611783742904663,0.031689271330833435,-0.16520358622074127,-0.10084545612335205,-0.12213560938835144,0.07035721838474274,-0.06347078830003738,-0.17281942069530487,-0.21140460669994354,0.013966045342385769,-0.20050294697284698,0.07149951905012131,0.48273396492004395,0.09073223173618317,-0.10392787307500839,0.017103688791394234,0.13880158960819244,0.04351925849914551,0.04137830808758736,-0.09584403783082962,-0.07327843457460403,-0.01596495695412159,-0.1361844539642334,0.18605203926563263,0.26865607500076294,-0.09753645211458206,-0.2673669159412384,0.1493869423866272,0.18075662851333618,0.07964884489774704,0.17029808461666107,-0.27970167994499207,0.04256552830338478,0.07239167392253876,0.06677654385566711,-0.28025904297828674,0.6038537621498108,0.369412899017334,-0.11815033853054047,-0.5593503713607788,0.13509100675582886,-0.05386644974350929,0.016273215413093567,0.3481602966785431,-0.14752525091171265,0.14039385318756104,0.19874796271324158
์,0.29343199729919434,0.01139632798731327,-0.2718026041984558,-0.25234007835388184,-0.30899831652641296,-0.13717688620090485,-0.503787100315094,-0.2618091404438019,-0.5357813835144043,-0.017058314755558968,0.029870562255382538,-0.06115705147385597,-0.05294416472315788,0.3206564784049988,-0.026640022173523903,-0.1673431396484375,0.6006788015365601,0.6796563863754272,-0.00300615094602108,0.27595603466033936,-0.11677951365709305,-0.45101475715637207,0.007117742206901312,-0.1649801880121231,0.19964540004730225,0.11576227843761444,-0.22484804689884186,0.1332285851240158,-0.44387176632881165,-0.1339539736509323,-0.02144499123096466,-0.33469128608703613,0.25785115361213684,0.7478285431861877,0.03804820403456688,-0.17639079689979553,0.18533360958099365,0.36083608865737915,0.3474755883216858,-0.3907471001148224,-0.1525050550699234,-0.3065762221813202,0.017703929916024208,-0.1823773980140686,0.3700266480445862,0.1632404327392578,-0.2577967941761017,-0.14785197377204895,0.1317976713180542,0.6273622512817383,0.5696788430213928,0.006390898022800684,-0.27855682373046875,-0.270993173122406,-0.35165244340896606,-0.14799895882606506,-0.2881319224834442,0.4978993237018585,-0.02803635597229004,0.04873226583003998,-0.7997456192970276,0.033444274216890335,0.36139246821403503,0.34495511651039124,0.34948498010635376,-0.15286999940872192,-0.008148089982569218,0.34107163548469543
์,0.22428230941295624,-0.1539185494184494,-0.13630308210849762,-0.23684941232204437,-0.3910644054412842,-0.15755921602249146,-0.6719027757644653,-0.00714727072045207,0.10196682065725327,-0.11155615001916885,0.023908019065856934,-0.0018090917728841305,-0.1088537871837616,0.00954084936529398,0.01838070899248123,-0.27910107374191284,0.45998960733413696,0.6928395628929138,-0.20171430706977844,0.19227956235408783,-0.195177361369133,0.035081442445516586,0.04861864075064659,-0.22226527333259583,-0.13575075566768646,-0.31408101320266724,-0.017852086573839188,-0.08420059084892273,-0.19145765900611877,-0.25448286533355713,0.027540143579244614,-0.1800878942012787,-0.05957995355129242,0.5641865134239197,0.11856190115213394,0.08091466873884201,0.03238222748041153,0.2165839821100235,0.19891758263111115,0.20354484021663666,-0.2079268842935562,-0.0392877496778965,0.021807881072163582,-0.06702512502670288,0.062439750880002975,0.2897045314311981,-0.28890326619148254,-0.2525697946548462,0.13264940679073334,0.2229640781879425,0.02955922670662403,-0.037041787058115005,-0.15232060849666595,0.09424547851085663,0.05683809518814087,0.17961858212947845,-0.21700865030288696,0.5947536826133728,0.36457571387290955,-0.11070012301206589,-0.5112682580947876,0.2652439773082733,-0.10255160927772522,0.09751112759113312,0.417074054479599,-0.11755013465881348,-0.0004720257711596787,0.21869027614593506
์,0.14962126314640045,-0.05674431473016739,0.28424784541130066,-0.5037672519683838,-0.30889585614204407,-0.15744194388389587,-0.39339256286621094,-0.05699480324983597,0.0901554748415947,-0.20189785957336426,0.17513713240623474,-0.12055247277021408,-0.06955726444721222,-0.07041506469249725,-0.15531401336193085,-0.27025243639945984,0.6253374218940735,0.270053505897522,-0.13586515188217163,0.26060736179351807,-0.2707657814025879,0.2807459235191345,0.1761990785598755,0.04621928930282593,-0.13351428508758545,-0.33615678548812866,-0.17034171521663666,0.23558145761489868,-0.10610786080360413,-0.18839126825332642,0.24231402575969696,-0.008088750764727592,0.09868514537811279,0.47925519943237305,0.2054659128189087,-0.11046488583087921,-0.08361665159463882,0.13877756893634796,0.5188314318656921,-0.02057379111647606,-0.23970487713813782,0.33648762106895447,0.08353845775127411,0.34527459740638733,-0.04255371168255806,0.09926381707191467,-0.14390872418880463,-0.11287793517112732,0.10299401730298996,0.055466875433921814,0.002404383849352598,-0.36604639887809753,-0.14805860817432404,-0.21863220632076263,0.09491970390081406,-0.14611725509166718,-0.08042741566896439,0.14685261249542236,0.05912063643336296,-0.026043301448225975,-0.49605852365493774,0.010089990682899952,-0.0355241559445858,0.14189673960208893,0.0006603957153856754,0.10689721256494522,0.17728930711746216,0.33873623609542847
์,0.16996651887893677,-0.14865387976169586,0.29835978150367737,-0.41937148571014404,-0.23732958734035492,-0.21228714287281036,-0.3997494876384735,0.02480900287628174,0.1571740210056305,-0.10330354422330856,0.05392734333872795,-0.21795839071273804,0.020920975133776665,-0.036448296159505844,-0.11960204690694809,-0.16729144752025604,0.5057779550552368,0.45074257254600525,-0.18564972281455994,0.13601912558078766,-0.1853075623512268,0.19560672342777252,0.11095830798149109,0.07011403143405914,-0.1473562866449356,-0.34181445837020874,-0.2809523344039917,0.2267797291278839,0.012212214060127735,-0.2867235541343689,0.1858513504266739,0.057601556181907654,0.08322305977344513,0.476105660200119,0.2814978361129761,-0.05166153982281685,-0.15913009643554688,-0.0072614289820194244,0.5440363883972168,-0.03036130964756012,-0.07789937406778336,0.42302149534225464,0.14483973383903503,0.3259088397026062,-0.17438051104545593,0.12050433456897736,-0.2127283811569214,0.018289415165781975,0.10369902104139328,0.07892389595508575,0.041557274758815765,-0.41663727164268494,-0.10860130190849304,-0.21941529214382172,-0.06303707510232925,-0.2626684308052063,0.008334279991686344,0.23630937933921814,0.05928771570324898,-0.11510282009840012,-0.575962483882904,0.033580292016267776,-0.13253377377986908,0.1164841428399086,0.1755916178226471,0.16565434634685516,0.13287609815597534,0.3883149027824402
์,0.1889038383960724,-0.3218547999858856,-0.04785493388772011,-0.39493411779403687,-0.45810338854789734,-0.19712702929973602,-0.7038720846176147,0.003262762911617756,0.09599678963422775,-0.33334609866142273,0.12500880658626556,-0.2339247465133667,-0.11470204591751099,0.11164681613445282,-0.14801156520843506,-0.22974368929862976,0.5456722378730774,0.6434749364852905,-0.13591188192367554,0.31670597195625305,-0.3835235834121704,0.02152915485203266,0.12237834185361862,-0.16008003056049347,-0.10183349251747131,-0.33840423822402954,-0.013016295619308949,0.08382094651460648,-0.2366127073764801,-0.24007084965705872,0.018389083445072174,-0.1784113347530365,-0.05941738188266754,0.5563970804214478,0.3114643692970276,0.21625562012195587,-0.0619179792702198,0.20604269206523895,0.2400447279214859,0.24085086584091187,-0.2691552937030792,0.04351189360022545,0.30116745829582214,0.04944195970892906,-0.00388245633803308,0.14989116787910461,-0.15287527441978455,-0.3402559459209442,0.0889255553483963,0.052862219512462616,0.01933855377137661,-0.012411290779709816,-0.04267769306898117,0.10835151374340057,0.08309698849916458,0.1761973351240158,-0.2861635386943817,0.6415726542472839,0.17202447354793549,-0.10115350782871246,-0.6583184003829956,0.15079285204410553,-0.11790450662374496,0.0563131645321846,0.3035074472427368,-0.032133474946022034,0.016709214076399803,0.31238725781440735
์,0.24188539385795593,0.04058657959103584,0.34204190969467163,-0.46718212962150574,-0.12870150804519653,-0.25377461314201355,-0.31847092509269714,-0.0035698367282748222,-0.0019345756154507399,-0.282469779253006,0.2420400232076645,-0.31987056136131287,-0.07787923514842987,-0.05217067152261734,-0.11246196925640106,-0.30192434787750244,0.642124593257904,0.3727017045021057,0.10097449272871017,0.22809968888759613,-0.3024325370788574,0.20551884174346924,0.2562510073184967,-0.08316172659397125,-0.2781553268432617,-0.252585768699646,-0.059894151985645294,0.27170664072036743,-0.2117144763469696,-0.02957211062312126,0.11570362001657486,0.11476024240255356,-0.12836924195289612,0.49038708209991455,-0.00032279713195748627,0.0727420225739479,-0.10319932550191879,0.07036369293928146,0.332738995552063,-0.0993867814540863,-0.19717267155647278,0.3298819959163666,0.0007843103958293796,0.4721968472003937,-0.09445054084062576,0.10345825552940369,-0.09032032638788223,-0.14746952056884766,-0.04092574492096901,0.08178636431694031,-0.03773894160985947,-0.2339848279953003,-0.12160202860832214,-0.0348464697599411,-0.10701848566532135,-0.17718380689620972,-0.2523401081562042,0.1831844002008438,0.05211213603615761,0.0420614629983902,-0.4957039952278137,0.04822748526930809,-0.08552009612321854,0.1558295041322708,-0.031008966267108917,0.1629057228565216,0.1584034115076065,0.21080300211906433
์,0.28725290298461914,0.07553007453680038,0.3322916030883789,-0.31341660022735596,-0.01202106848359108,-0.12365800142288208,-0.2832728624343872,-0.22279353439807892,0.12377708405256271,-0.38141050934791565,0.37076637148857117,-0.19324055314064026,-0.18835189938545227,-0.04520440474152565,-0.0781160295009613,-0.049452390521764755,0.6470766067504883,0.24585416913032532,0.12982910871505737,0.2744845747947693,-0.3096262812614441,0.21442165970802307,0.20029675960540771,0.04493921622633934,-0.36374756693840027,-0.01634957082569599,-0.011503743007779121,0.1167730987071991,-0.13884079456329346,-0.08748041093349457,0.14717717468738556,0.03951176628470421,0.023929713293910027,0.37969261407852173,0.12138157337903976,0.1972815990447998,-0.322239488363266,0.1366598755121231,0.513768196105957,0.0013218715321272612,-0.2569836676120758,0.4196021854877472,0.11314545571804047,0.4420351982116699,0.0935266837477684,0.15726132690906525,0.01581309176981449,-0.17538826167583466,0.0672096237540245,0.1323307454586029,-0.05926069617271423,-0.3495183289051056,-0.04057016968727112,-0.03917538747191429,-0.08453742414712906,0.14820383489131927,-0.2428886890411377,0.13261669874191284,-0.1309765726327896,0.035989802330732346,-0.5552247166633606,-0.07119781523942947,-0.1328452080488205,0.22244231402873993,-0.048751868307590485,0.26477211713790894,0.02150190807878971,0.44959932565689087
์,0.25360533595085144,-0.009060798212885857,0.3487163782119751,-0.24679219722747803,0.06733573973178864,-0.17987117171287537,-0.41777873039245605,-0.16118092834949493,0.10104325413703918,-0.25673186779022217,0.3369876444339752,-0.3582468330860138,-0.14552010595798492,-0.04442986100912094,-0.08574014157056808,-0.1870574653148651,0.5619912147521973,0.18417789041996002,0.019844384863972664,0.4469563961029053,-0.2368580400943756,0.12329207360744476,0.2812724709510803,0.048437245190143585,-0.32683300971984863,0.0010100897634401917,-0.15686634182929993,0.1542339026927948,-0.09799590706825256,-0.08922034502029419,0.3131401240825653,0.19099020957946777,-0.06264641880989075,0.4275991916656494,-0.007785512134432793,0.1901734620332718,-0.36570125818252563,0.033014267683029175,0.35216736793518066,0.040082067251205444,-0.24527186155319214,0.37076902389526367,0.251956045627594,0.4600103199481964,0.07354391366243362,0.06331495940685272,-0.00716388551518321,-0.29933446645736694,-0.006249378900974989,0.06175113469362259,0.15486587584018707,-0.18156659603118896,-0.1774449199438095,-0.1062423586845398,-0.06863082200288773,0.06463207304477692,-0.16622506082057953,0.28660711646080017,-0.02413184382021427,0.16879145801067352,-0.5740089416503906,-0.10084164142608643,-0.282800555229187,0.16262657940387726,0.002226670505478978,0.2305915206670761,0.036489296704530716,0.31589198112487793
์,-0.14141491055488586,0.008428660221397877,0.2179139107465744,-0.13074751198291779,-0.2870202958583832,0.17583467066287994,-0.4748632311820984,-0.17955121397972107,-0.10563050955533981,0.10063532739877701,-0.18120168149471283,0.060524456202983856,-0.19159892201423645,0.09006215631961823,-0.3106172978878021,-0.2894275486469269,0.12419557571411133,0.4828470051288605,-0.08846844732761383,0.17997512221336365,0.07288496941328049,0.25295206904411316,-0.04963244870305061,-0.09981033951044083,-0.08235480636358261,-0.3161732852458954,-0.026953812688589096,-0.13355593383312225,0.12717027962207794,-0.19720624387264252,0.05781005695462227,-0.06799667328596115,-0.0333758145570755,0.2476012259721756,0.0818338468670845,-0.10075676441192627,-0.0819644033908844,0.23824046552181244,0.03841141238808632,-0.19673600792884827,0.15029259026050568,0.02613675780594349,-0.15077710151672363,-0.04496506601572037,0.05149684473872185,0.1896950900554657,-0.02568890154361725,0.08795032650232315,0.09910007566213608,0.009615643881261349,0.07764925062656403,0.2342941164970398,-0.11188309639692307,-0.1568509191274643,0.2594158947467804,-0.09965227544307709,0.046435412019491196,0.29033470153808594,0.3047088384628296,-0.019570529460906982,-0.2734687030315399,-0.14584669470787048,-0.14680297672748566,0.1681438684463501,0.013234599493443966,0.06646822392940521,0.33503463864326477,0.0773627758026123
์,-0.14761804044246674,-0.06282896548509598,-0.3176894783973694,-0.14249056577682495,0.06950598955154419,-0.19359147548675537,-0.2635563313961029,0.137050598859787,0.37152954936027527,-0.2227717936038971,-0.017627205699682236,0.23485253751277924,0.31074923276901245,0.1259261816740036,-0.4249987304210663,-0.3355322778224945,0.037259574979543686,0.04391968250274658,-0.16991472244262695,0.05645877122879028,-0.11074915528297424,0.4502890408039093,0.2567978501319885,0.3189266622066498,0.2186269462108612,-0.11923465132713318,0.08524441719055176,-0.08558590710163116,0.31370809674263,0.13495880365371704,0.15824243426322937,-0.04660138487815857,0.04938221722841263,0.16124382615089417,0.12036699056625366,-0.6551828980445862,0.002109409775584936,0.013022280298173428,0.018673734739422798,0.16126082837581635,0.025575321167707443,-0.059202276170253754,-0.24914048612117767,0.005191407166421413,0.28641632199287415,-0.017861351370811462,0.3530890643596649,0.30110570788383484,0.3860851228237152,0.31121209263801575,-0.23786284029483795,-0.15973100066184998,0.23001441359519958,-0.3322463631629944,-0.3716188669204712,-0.20773909986019135,-0.1118299812078476,0.012104514054954052,0.4299527704715729,0.30901241302490234,-0.18005989491939545,-0.16743497550487518,0.005447702948004007,0.3055771589279175,0.2333785891532898,-0.23158971965312958,0.09946111589670181,-0.45863470435142517
์,-0.25262489914894104,-0.2318294793367386,-0.2701399028301239,-0.05145268514752388,0.2812255620956421,-0.32167544960975647,-0.365475594997406,0.08477531373500824,0.4287070333957672,-0.22479300200939178,-0.0362459272146225,0.09049434959888458,0.2577568292617798,0.024888424202799797,-0.34788742661476135,-0.14761175215244293,-0.0051047406159341335,0.08770810067653656,-0.044132184237241745,0.0539696179330349,-0.12507857382297516,0.2969275116920471,0.07200317829847336,0.2853032350540161,0.07272761315107346,-0.09514424949884415,-0.08821798115968704,-0.04429025575518608,0.32804155349731445,0.10795266181230545,0.23925980925559998,0.04761911556124687,0.1482759416103363,-0.004704443737864494,0.21683800220489502,-0.5675256252288818,0.2356025129556656,-0.035522300750017166,-0.18181972205638885,0.1363389939069748,0.1765957474708557,0.06524796783924103,-0.2363833487033844,0.05102742463350296,0.227891206741333,-0.16687333583831787,0.3987891376018524,0.18406686186790466,0.462668776512146,0.382205069065094,-0.10819028317928314,-0.18274015188217163,0.1267208307981491,-0.26794177293777466,-0.5215884447097778,-0.32326972484588623,-0.30331286787986755,0.2124490737915039,0.6115668416023254,0.5744186639785767,-0.10020680725574493,-0.08685566484928131,-0.026421306654810905,0.16524414718151093,0.14753466844558716,-0.29772141575813293,0.07849424332380295,-0.4320673644542694
์,-0.08366939425468445,-0.2517048120498657,-0.14394037425518036,-0.12214802950620651,0.24113492667675018,-0.2694290578365326,-0.3704879581928253,0.1210486888885498,0.44151538610458374,-0.17209187150001526,-0.0028745203744620085,0.18940779566764832,0.4367002844810486,-0.04657064005732536,-0.47119051218032837,-0.27387088537216187,-0.21161861717700958,0.1136016994714737,-0.03629710525274277,0.036156900227069855,-0.08617708832025528,0.3917432725429535,0.3408381938934326,0.33677950501441956,0.1896936446428299,-0.010919216088950634,0.03746093437075615,-0.1906123012304306,0.37606099247932434,-0.00036666562664322555,0.16800285875797272,-0.07507262378931046,-0.03464944288134575,0.06881162524223328,0.2541433274745941,-0.6219625473022461,0.31286290287971497,0.1835986077785492,-0.0004945254186168313,0.2838166356086731,0.11279181391000748,0.06140566244721413,-0.15991570055484772,-0.07667923718690872,0.4150245487689972,-0.012653504498302937,0.34489673376083374,0.26108604669570923,0.32363414764404297,0.40790876746177673,-0.23494301736354828,-0.3096170425415039,0.1253984123468399,-0.3858126401901245,-0.38249561190605164,-0.28494301438331604,-0.3706764578819275,0.16900673508644104,0.48171672224998474,0.6496585607528687,-0.09003850072622299,-0.1527734398841858,0.0478229895234108,0.10096745938062668,0.22164689004421234,-0.24987073242664337,-0.08455539494752884,-0.509990394115448
์,-0.13564345240592957,-0.24666143953800201,-0.2837212085723877,-0.07456374168395996,0.18508534133434296,-0.19543316960334778,-0.40093618631362915,0.1806039959192276,0.3586072325706482,-0.32191553711891174,0.07372096925973892,0.17036749422550201,0.5346288681030273,0.1409616470336914,-0.5035042762756348,-0.23965509235858917,-0.11867830157279968,0.06971366703510284,0.06546620279550552,0.07889672368764877,-0.1521569937467575,0.36328694224357605,0.28754955530166626,0.3300701975822449,0.15439893305301666,0.1016734316945076,-0.08929430693387985,-0.08743540942668915,0.347494512796402,0.029641957953572273,0.33350464701652527,0.116048663854599,0.12298945337533951,-0.10336601734161377,0.25798261165618896,-0.6440063118934631,0.37671762704849243,0.1272338181734085,-0.2040405422449112,0.24637189507484436,-0.008943947032094002,-0.12795260548591614,-0.1407289206981659,-0.10390031337738037,0.3866971731185913,-0.14460940659046173,0.3300074338912964,0.11703231930732727,0.4661162197589874,0.42488929629325867,-0.39194852113723755,-0.4793039858341217,0.3347073495388031,-0.46167147159576416,-0.6616014242172241,-0.25838205218315125,-0.42979589104652405,0.3062622845172882,0.6381516456604004,0.5302829146385193,-0.0699358806014061,-0.027359673753380775,-0.10691358894109726,0.33184921741485596,0.28374817967414856,-0.2606600821018219,0.12962204217910767,-0.5934785604476929
์,-0.2820950150489807,-0.30467522144317627,-0.09368879348039627,-0.1274242252111435,-0.10052558779716492,-0.10467543452978134,-0.28192952275276184,0.05434911698102951,0.04462651535868645,-0.009818295948207378,-0.08979656547307968,0.017583169043064117,0.035204630345106125,0.10401821881532669,-0.3412632346153259,-0.2907118499279022,0.08384566754102707,-0.059256430715322495,-0.25665226578712463,0.09105990082025528,-0.02769658714532852,0.1378767043352127,-0.06328330934047699,-0.11971443891525269,0.0001163041015388444,-0.20850348472595215,0.10162339359521866,0.08310364186763763,0.17615999281406403,-0.22156313061714172,0.13377264142036438,-0.2331785410642624,0.0874006450176239,0.045403361320495605,0.10619036108255386,-0.40808334946632385,-0.04206543043255806,-0.046369291841983795,0.1394849419593811,0.16578207910060883,0.19462905824184418,0.11052811145782471,-0.2820771038532257,-0.017623789608478546,0.06168824061751366,0.05000625550746918,0.1585155427455902,0.10255791991949081,0.4147951304912567,-0.05771642178297043,-0.02156558446586132,0.05179256945848465,0.009800050407648087,-0.18529012799263,-0.2623678743839264,-0.28880366683006287,0.013830987736582756,0.03678469359874725,0.39699670672416687,-0.08147799223661423,-0.17381902039051056,0.07450069487094879,-0.06039883941411972,0.1451343148946762,0.17726702988147736,0.20562177896499634,0.15682241320610046,-0.057617753744125366
